,0,1,2,3,4,5,6,7,8,9,10,11,12,13,14,15,16,17,18,19,20,21,22,23,24,25,26,27,28,29,30,31,32,33,34,35,36,37,38,39,40,41,42,43,44,45,46,47,48,49,50,51,52,53,54,55,56,57,58,59,60,61,62,63,64,65,66,67,68,69,70,71,72,73,74,75,76,77,78,79,80,81,82,83,84,85,86,87,88,89,90,91,92,93,94,95,96,97,98,99
밥,-0.00057118974,0.0002761584,0.0050987015,0.009039779,-0.009307525,-0.0071780253,0.0064893044,0.009013121,-0.0049979603,-0.0038003724,0.0073538385,-0.0015343667,-0.0045878314,0.0065303347,-0.004866164,-0.0018709967,0.0028219055,0.0009917136,-0.008287924,-0.0094711585,0.0073284637,0.0050486266,0.00678741,0.0007507739,0.0063397163,-0.0033869303,-0.0009863919,0.005751315,-0.0075857844,-0.0039505307,-0.007538052,-0.00094406144,0.0095428545,-0.0073185214,-0.0023572156,-0.0019162009,0.008077263,-0.005947938,3.299391e-05,-0.0048088953,-0.0095980605,0.0049662935,-0.008782148,-0.0044227117,-1.3980282e-05,-0.00037192416,-0.007660545,0.00960436,0.0050456915,0.009231907,-0.008154302,0.0044932794,-0.004103804,0.0007982209,0.008485204,-0.004464508,0.0045448327,-0.0067862934,-0.0035634313,0.009368589,-0.0015843938,0.00029523755,-0.004150001,-0.0077119204,-0.0015539225,0.0024568217,-0.00088172895,0.0055826586,-0.002798401,0.002309414,0.0054252185,0.008366897,-0.0013975124,-0.009193459,0.004377987,0.00061582535,0.0074067535,-0.00081799855,-0.002672297,-0.008726231,-0.0008867459,0.0027991624,0.00535994,0.00709482,-0.005719322,0.001820561,0.0060643353,-0.0048119654,-0.0030754604,0.00679995,0.0016551372,0.0002047545,0.0034460896,0.00022939274,0.009651875,0.0050864625,-0.008922922,-0.0070473766,0.000909326,0.00633527
감자,-0.00862996,0.003688261,0.0052004084,0.0057455944,0.0074663707,-0.006201275,0.0011148484,0.006089761,-0.0028489947,-0.006199422,-0.00042523834,-0.008384231,-0.0056186644,0.007099964,0.003381263,0.0072157355,0.0067924876,0.0075239446,-0.003779076,-0.00058630796,0.002353895,-0.004527372,0.008406022,-0.009854399,0.0067384173,0.0029091972,-0.0049462398,0.0043761665,-0.0017739941,0.006706929,0.009971914,-0.0043810518,-0.00059531274,-0.0057124407,0.0038440363,0.0028251798,0.0068909563,0.006102179,0.0095315315,0.009247689,0.007893889,-0.0069901585,-0.009159675,-0.00034874506,-0.0031015,0.007884081,0.0059225573,-0.0015480083,0.0015122032,0.0018013262,0.007824899,-0.0094997715,-0.00020917805,0.0034525516,-0.00093754195,0.008386962,0.009016483,0.0065360107,-0.0007256875,0.007704947,-0.008552438,0.0031937433,-0.0046488647,-0.0050870385,0.0035695368,0.005382098,0.0077836188,-0.0057617147,0.007410219,0.006656376,-0.0037171242,-0.008733518,0.0054380973,0.0065319664,-0.0007706245,-0.006691683,-0.007096337,-0.0025017047,0.005116312,-0.003650298,-0.009367074,0.0038275747,0.004867579,-0.006421264,0.0012075562,-0.0020644553,1.2601722e-05,-0.009871546,0.002713039,-0.0047470517,0.0011102457,-0.0015697302,0.0021994498,-0.007879305,-0.0027102616,0.0026699402,0.0053388635,-0.0024064593,-0.009511209,0.004475629
달걀,7.043858e-05,0.0031185874,-0.006805419,-0.001348865,0.007673915,0.0073021157,-0.003649523,0.0026929139,-0.008316629,0.0061606234,-0.004655935,-0.0031671464,0.009283977,0.0008405771,0.0075073023,-0.0061345273,0.0051317555,0.009918612,-0.008460309,-0.005183364,-0.007049069,-0.004862796,-0.003765028,-0.008543452,0.007929797,-0.004846418,0.008372521,0.00523675,-0.006608978,0.003941803,0.0054402063,-0.0074377554,-0.0073828,-0.0024720924,-0.008636586,-0.0015520733,-0.00040655385,0.0033116778,0.0014038916,-0.00091916847,-0.005592541,0.0017015581,-0.00089673663,0.006789017,0.0039821337,0.004503994,0.0014592584,-0.0027326625,-0.004331438,-0.0010226072,0.001440109,-0.0026436422,-0.0070916717,-0.007829647,-0.009173053,-0.0059212153,-0.0017992338,-0.0043151523,-0.0064754924,-0.003727438,0.004284585,-0.003764378,0.008375809,0.0015027969,-0.0073032784,0.009471583,0.0076361373,0.0055117775,-0.006869165,0.0058603943,0.0039998237,0.0051928833,0.004288807,0.0019626361,-0.0031347193,0.008363359,0.009611517,0.0037937555,-0.0028944253,4.0586125e-05,0.0011835054,-0.008468373,-0.00830528,-0.00024046352,0.0012624636,-0.0057979375,-0.004749892,-0.007358202,0.008377522,0.00012139811,-0.004477105,0.0057125627,0.009142827,-0.004105574,0.00797973,0.0053922418,0.0058796573,0.00050177885,0.008202579,-0.0070417733
새우,-0.008254556,0.009323394,-0.00020701488,-0.001988863,0.0046251356,-0.0041368646,0.0027569148,0.006957263,0.0060748057,-0.007526702,0.009401035,0.004692447,0.003945606,-0.006254403,0.008454619,-0.0021684002,0.008831032,-0.005367244,-0.0081062745,0.0068220478,0.0016876474,-0.0021892663,0.009533378,0.009486319,-0.009802785,0.0025080366,0.0061338944,0.0038757203,0.0019828556,0.00041501777,0.00065902143,-0.0038375484,-0.007147491,-0.0021165954,0.0039165965,0.008821616,0.009250293,-0.00597703,-0.009408675,0.009762597,0.0034149033,0.005174729,0.0062728235,-0.0028024279,0.0073458306,0.0028123343,0.0028860876,-0.0023793662,-0.0031168868,-0.002353327,0.004287629,8.160775e-05,-0.009571178,-0.009669907,-0.0061745625,-0.00013628436,0.0019955966,0.009430323,0.0055783303,-0.004318845,0.00027885402,0.0049491134,0.007688139,-0.0011464056,0.0043170103,-0.005830478,-0.0007927648,0.008122322,-0.0023726742,-0.009653285,0.005781804,-0.0039099576,-0.0012011533,0.009990014,-0.0022475545,-0.004749558,-0.005338016,0.00697591,-0.0057513085,0.0020945554,-0.0052654925,0.0061172624,0.0043126787,0.002625648,-0.0014903129,-0.0027639451,0.009003534,0.0052358503,-0.0021666992,-0.009460699,-0.007411545,-0.0010405065,-0.00078308006,-0.002550288,0.009709377,-0.00045679655,0.005884179,-0.007452325,-0.0024968288,-0.0055830167
김밥용 김,-0.00715593,0.0012668188,-0.0071628415,-0.0022376229,0.0037248828,0.0057793157,0.0012270645,0.0021153924,-0.004123713,0.007212279,-0.006305631,0.0046284012,-0.008258489,0.0020430165,-0.0049594105,-0.0042599104,-0.0031533337,0.0056413827,0.005816701,-0.0050225845,0.00078123616,-0.008508779,0.007816798,0.009232292,-0.0027623472,0.0008200237,0.0007242536,0.0054593547,-0.008669939,0.0005512078,0.006869022,0.0022245946,0.0011026824,-0.009321371,0.008457266,-0.0062550246,-0.0030114441,0.0034946501,-0.0007863132,0.0013293162,0.0018032469,-0.006820689,-0.0097641265,0.009033484,0.00623141,-0.006956428,0.0034228081,0.00020970618,0.004763791,-0.0071033984,0.0040160846,0.004331893,0.00996885,-0.004472347,-0.0014010282,-0.007316109,-0.00970198,-0.009079539,-0.0010248548,-0.00653279,0.0048215156,-0.0061882515,0.0025177086,0.00073865923,-0.0033955448,-0.0009626322,0.0099881515,0.0091865705,-0.0045053605,0.009124068,-0.0056509883,0.0059561194,-0.0030528023,0.00346719,0.0030165468,0.006951076,-0.0024173015,0.008769546,0.00755557,-0.009545681,-0.008031574,-0.007670248,0.0028850907,-0.0027692064,-0.0069523426,-0.008132056,0.008314437,0.0019797087,-0.009320048,-0.0047959676,0.003144812,-0.004692456,0.0052516423,-0.004254552,0.0026606976,-0.008051545,0.006209603,0.004817622,0.0007863308,0.0029869184
오징어,-0.008739042,0.0022058396,-0.0008631468,-0.009362312,-0.0093749715,-0.001466132,0.00450369,0.0038082157,-0.006484513,-0.006915096,-0.00501964,-0.002294795,-0.007320055,-0.009616162,-0.0027451187,-0.008415959,-0.006094525,-0.005670313,-0.002327408,-0.0017053687,-0.008958013,-0.0007650702,0.008139595,0.0077069057,-0.007265244,-0.0036735008,0.00311214,-0.00962634,0.0014089786,0.0065014213,0.0057091885,-0.008816572,-0.0045317058,-0.008148039,9.152569e-06,0.009310116,0.005975203,0.0050897575,0.0050405404,-0.0033159903,0.009524035,-0.007357103,-0.0072289435,-0.002257997,-0.0007559841,-0.0032765064,-0.0005932642,0.0074934997,-0.00069625484,-0.0015994933,0.002731168,-0.008348932,0.007888778,0.008510796,-0.009636317,0.002438542,0.009939154,-0.0076548634,-0.006960548,-0.0077631124,0.008395901,-0.0007494283,0.009150365,-0.008184181,0.0036610712,0.0026597453,0.0007951979,0.0023866491,-0.007520043,-0.009277494,0.0023405482,0.006164603,0.008066163,0.0057848827,-0.0007322022,0.008334889,-0.00932078,0.0034403114,0.00017074565,0.0038351791,0.00734005,-0.0067391098,0.0055165375,-0.009526038,-0.0008031941,-0.008674801,-0.0051115057,0.009355792,-0.001835432,0.0028809241,0.0091370735,0.008977993,-0.0082069775,-0.0029595587,0.009915558,0.0051360237,-0.0016138921,-0.008734221,0.0029579315,-0.0067012594
전복,0.008142151,-0.004451001,-0.0010559442,0.0010093498,-0.00019788876,0.0011289059,0.0060866135,1.0675894e-06,-0.0032548981,-0.0014912493,0.005890275,0.0014952224,-0.00074460683,0.00932256,-0.004918351,-0.0008617216,0.009135077,0.0067441068,0.0015143006,-0.008919327,0.001164736,-0.0023085552,0.009378343,0.0012180465,0.0014562854,0.0024115527,-0.0018204428,-0.004996923,0.00022410898,-0.0020088556,0.006597383,0.008923786,-0.0006724277,0.0029876898,-0.0061219456,0.0016980021,-0.006922931,-0.008713942,-0.0059364466,-0.009023624,0.0072799595,-0.0057706772,0.008282733,-0.0072424463,0.003433226,0.009675207,-0.0077621685,-0.0099721765,-0.004326148,-0.002663931,-0.00027900864,-0.008835817,-0.008623621,0.0027916387,-0.008213938,-0.009086736,-0.0023325484,-0.008643829,-0.007094325,-0.008437935,-0.00029902268,-0.004569597,0.006630248,0.0015077959,-0.0033605203,0.0061488627,-0.0060125347,-0.0046330127,-0.0072243623,-0.0043201274,-0.0018385448,0.0064942297,-0.0027575332,0.0049546994,0.006937305,-0.0074242926,0.0045729033,0.006144335,-0.0029701928,0.0066168057,0.006128177,-0.006497225,-0.006804213,0.0025413686,-0.0016441998,-0.0060715815,0.009483123,-0.005123296,-0.006536614,-0.000113183785,-0.0026756453,0.00045735692,-0.0035632853,-0.00041085287,-0.0006803649,0.00083052093,0.008188242,-0.0057100644,-0.0016697834,0.0055721975
쌀,0.00817531,-0.0044092494,0.009028465,0.008274732,-0.004424796,0.00024963115,0.004293778,-0.00391416,-0.005546922,-0.0065269764,-0.0006835794,-0.00033618158,0.0044415123,-0.0025215205,-0.0001626684,0.0024414398,0.004818162,-4.6131077e-05,-0.006355694,-0.009252661,1.5576663e-05,0.0066939755,0.0014412322,-0.008973013,-0.00794258,0.006574136,-0.0038041114,0.0062304684,-0.0067066043,0.008483371,-0.0065332917,0.003257307,-0.0010677595,-0.006801906,-0.0033299893,-0.001169778,-0.0054637613,-0.0012142255,-0.007580882,0.0026285464,0.009080786,-0.0024024986,-0.000979364,0.0035032344,0.008672782,-0.0059682406,-0.0069245426,-0.0029030216,0.0091959955,0.000870972,-0.008696731,-0.0014734481,0.00952738,-0.0075642634,-0.0053728367,0.009340851,-0.008975455,0.0038101755,0.0006730893,0.0066591436,0.008299127,-0.0028662104,-0.003997021,0.008886905,0.0020512482,0.006305868,-0.009456014,0.009654138,-0.0014000125,-0.006032656,0.0029819384,-0.00043314125,0.0047416785,-0.002296003,-0.0041281395,0.002286794,0.008345105,-0.004977882,0.0026573525,-0.007995935,-0.006811912,-0.00047782707,-0.008836341,0.002823539,0.0016100295,-0.0023256242,0.0050214273,0.009770102,0.0084621,-0.0019019612,0.0020846145,-0.0039769947,-0.008259095,0.006293305,-0.0019340396,-0.0006617244,-0.0017623211,-0.004531013,0.0040507508,-0.0042908937
다진 돼지고기,-0.009570533,0.009011803,0.004189836,0.009225274,0.0066848653,0.0028608073,0.009801433,-0.0043609426,-0.006812104,0.0041878778,0.0037075419,-0.0056530214,0.009691628,-0.003594958,0.009576725,0.00078491756,-0.00635668,-0.0020054297,-0.0073700408,-0.0030168188,0.0010805994,0.009469557,0.009322669,-0.0065923287,0.0033912288,0.0022722404,-0.0025388063,-0.009272872,0.0009729261,-0.008165242,0.0062733223,-0.0058344384,0.005528516,0.009825066,-0.00016360133,0.0046153665,-0.0018216702,0.0073582022,0.003897045,-0.009083683,-0.0024137862,0.0036201738,-4.081187e-05,-0.0011956431,-0.0010204741,-0.0017152968,0.00057367305,0.004133628,-0.0042216554,-0.0038269819,-1.8703162e-05,0.0003097799,-0.00016509216,-0.004846037,0.0042704656,-0.0021672954,0.0021305578,0.0006818831,0.005960358,-0.006885899,-0.0068392954,-0.004525607,0.009432614,-0.0016422798,-0.009503934,-0.0005365352,-0.0044164145,0.006038313,-0.009603433,0.0028906548,-0.009244343,0.0012601354,0.006029512,0.0074499724,-0.0075697354,-0.0060198577,-0.0068000597,-0.007878957,-0.009589957,-0.0020893207,-0.000881747,-0.007261969,0.0067384643,0.0011322275,0.005837304,0.0014520235,0.0007719356,-0.007341058,-0.0021054498,0.0043252097,-0.0050328756,0.0011504745,0.002865537,-0.0015358751,0.0100012645,0.00837434,0.002375324,0.0070954137,0.0058832443,-0.0055784415
바지락,-0.005146924,-0.0066630705,-0.007769913,0.008332708,-0.0019773664,-0.0068625854,-0.004158606,0.0051533906,-0.0028863878,-0.0037582915,0.0016123672,-0.002795543,-0.0015805053,0.0010782136,-0.0029557662,0.008520972,0.0038934953,-0.009958047,0.0062779165,-0.00677963,0.0007750219,0.0044084885,-0.005116381,-0.002097645,0.008078486,-0.0042336383,-0.007641797,0.00924936,-0.0021661776,-0.0047326363,0.0085732555,0.004293809,0.004331857,0.009291076,-0.008462755,0.0052782292,0.0020290734,0.004181523,0.0016974168,0.0044560186,0.0044960384,0.006103076,-0.0031999305,-0.0045742234,-0.0004298223,0.0025281636,-0.0032725174,0.0060467636,0.0041810754,0.007755753,0.002581454,0.008128021,-0.0013982072,0.008075215,0.00370716,-0.008038065,-0.0039219684,-0.002457962,0.0049027074,-0.0008709026,-0.0028447958,0.007841376,0.00932268,-0.0016296983,-0.005186553,-0.0046849293,-0.0048524314,-0.009606966,0.0013668827,-0.0042061256,0.0025040652,0.005621122,-0.0040760576,-0.009604876,0.0015686129,-0.0066918954,0.0025009352,-0.0037806693,0.007063981,0.00064200093,0.0035478517,-0.002750847,-0.0017216471,0.007656436,0.0014127397,-0.005843011,-0.007840466,0.0012248759,0.0065005072,0.005565256,-0.008979874,0.008601121,0.0040321066,0.0074797124,0.009758273,-0.0072903465,-0.009048322,0.0058264383,0.009402995,0.0035003931
마늘,0.0070702615,-0.0015435707,0.00792934,-0.00949335,-0.0080205,-0.0066730357,-0.0040053762,0.005023826,-0.003811798,-0.008336397,0.008411238,-0.0037331376,0.008613242,-0.0049095526,0.0039447076,0.004923278,0.0023964674,-0.0028117753,0.0028695194,-0.008283354,-0.0027834482,-0.0025929527,0.0072486615,-0.0034595085,-0.0066274507,0.0043643657,-0.0005217846,-0.0036065811,0.0068462454,0.0038658825,-0.0038992083,0.00076610607,0.009147483,0.007735448,0.0063400534,0.0047162133,0.0023756777,-0.0018280727,-0.006382896,-0.00032200725,-0.0015671394,-0.00058504037,-0.006268459,0.0074400366,-0.0065938435,-0.00726002,-0.0027504663,-0.0015370441,-0.0076299207,0.0006925211,-0.005316229,-0.0012768754,-0.007370091,0.0019611502,0.0032597939,-3.674779e-05,-0.005438207,-0.0017152999,0.0070742923,0.003725837,-0.008893625,-0.003421182,0.0023484237,0.0021331727,-0.009484672,0.004596965,-0.008670491,-0.0073771565,0.0034699757,-0.003457806,0.0035610707,0.008916196,-0.003566429,0.009341562,0.0017585647,0.009862871,0.0056937826,-0.009129384,-0.0033584565,0.0065177954,0.0055877557,0.008680981,0.006911823,0.008041722,-0.009825986,0.004284207,-0.005041182,0.0035371198,0.0060953,0.0043949815,0.00753547,0.0015185493,-0.001254503,0.0057670223,-0.0056178835,3.5699206e-05,0.009460145,-0.0054937503,0.0038101233,-0.008119752
베이컨,0.009764688,0.008230681,0.0013005172,0.0050916635,0.0014222849,-0.0065199947,-0.0014140424,0.0064817267,-0.0045814086,-0.004001233,0.0049278615,0.0026879979,-0.0018720188,-0.0029021841,0.006035429,-0.0057712374,-0.003271564,-0.006514793,-0.0042411247,-0.008624983,-0.0044201617,-0.00851337,0.0013848966,-0.008596284,-0.009983535,-0.008223294,-0.0067981817,0.0066774273,0.0037396322,0.00034030364,-0.0029740543,-0.00747695,0.0005649406,0.00048105844,0.00018836655,0.0009055208,0.00080132484,-6.4596534e-05,-0.0080518825,-0.005953753,-0.00842708,-0.0013112847,0.0018429575,0.007404605,-0.0019441559,-0.0023670092,0.009494754,7.418608e-05,-0.002359613,0.008658682,0.0026920296,-0.0053606033,0.0066087367,0.004499385,-0.0070747742,-0.00029989905,0.00086898386,0.0057654907,-0.0017375399,-0.0028417103,0.0017116839,0.00080252416,0.0012053598,-0.0026556423,-0.0060265646,0.0073602097,0.0076085557,0.00833672,-0.008646202,0.0026842812,-0.0035974917,0.009657451,0.0029560004,0.004672334,0.0024044318,0.0066721085,-0.0057208505,0.007889961,-0.0024902013,-0.0045539723,-0.002098946,0.009720719,-0.006912272,-0.0021968056,0.00698825,-4.8240217e-05,-0.0063361684,-0.0063892,0.008983345,0.006475878,0.004779401,-0.0032579235,-0.009260414,0.0038106726,0.0072090933,-0.0056234864,-0.0079205865,-0.0029651292,-0.0049676425,-0.0023199974
닭다리살,-0.0019328537,-0.00525071,0.009458751,-0.009323441,0.004512925,0.0053687673,-0.0013995446,0.0090517625,0.009879775,-0.005491485,-0.0060330755,-0.0067773,-0.007917935,-0.0030496086,-0.0055767293,-0.008365938,0.0007427264,0.0029552202,0.0064233984,-0.0026670173,-0.0044112527,0.0012554423,0.00039922917,0.00814234,0.00012165682,0.0072471304,-0.008273354,0.00842001,-0.0019021519,0.008678179,-0.007641945,0.0017948999,0.0010575608,3.0885938e-05,-0.005099186,-0.009243714,-0.0072396626,-0.007951721,0.0018832852,0.0004487841,-0.0018034904,0.0071148383,-0.0024799057,-0.0013329008,-0.008882618,-0.009953792,0.008958205,-0.0057656323,-0.006349676,0.005217297,0.006689229,-0.0068413545,0.0009653548,-0.00603362,0.0016169394,-0.0042940783,-0.003440398,0.0021828539,0.008673103,0.0067139957,-0.009711472,-0.00564894,0.007858165,0.0019569094,-0.0042550676,0.00063847174,0.009540896,-0.0010881582,-0.009458855,0.0016545554,0.0062340773,0.0063381437,0.0041086213,-0.005646593,-0.0003569287,-2.1280246e-05,0.004603912,-0.008031172,-0.008047311,0.00027288176,-0.008663374,0.0058003096,-0.00042812628,0.009979507,-0.005373352,-0.0005050322,0.00775915,-0.0040390193,-0.005002698,0.0015982246,0.002669076,-0.0025478525,0.006458814,-0.00767197,0.0034305148,0.0005013095,0.0087534115,0.005972745,0.0068125916,0.007815952
쇠고기(불고기용),-0.009521593,0.009568303,-0.0077686026,-0.0026392713,-0.004899515,-0.004982065,-0.00802358,-0.007773149,-0.0045579737,-0.0012807151,-0.0051054168,0.006144041,-0.009513734,-0.0053140544,0.009429469,0.006981297,0.007681537,0.004235427,0.00051055243,-0.0059830197,0.006029324,0.0026373658,0.0077058645,0.0063889297,0.0079444405,0.008659674,-0.009907804,-0.006761073,0.0013298737,0.006437926,0.0073693036,0.0055095265,0.00766403,-0.005126333,0.0065908576,-0.004089318,-0.009059707,0.009144941,0.0013267362,-0.0027673768,-0.0024743543,-0.00422602,0.004815655,0.004389976,-0.0026516092,-0.0073445905,-0.0035635268,-0.0003417147,0.0060995976,-0.0028355052,-0.000112375135,0.00088514574,-0.007098035,0.0020568604,-0.0014449679,0.0028039175,0.0048492784,-0.001356041,-0.0027842233,0.0077415267,0.00504657,0.00671003,0.00452233,0.008666684,0.0074706604,-0.001084701,0.00874173,0.004611537,0.005443088,-0.0013748979,-0.0020514259,-0.0044203396,-0.008512641,0.0030463492,0.008901156,0.008922166,-0.0019465259,0.006091635,0.0037692916,-0.004289281,0.002030349,-0.0054501486,0.008194745,0.0054374035,0.0031806403,0.004100182,0.008658889,0.0072786957,-0.00082740595,-0.0070723197,0.008389527,0.0072442256,0.0017220824,-0.0013380989,-0.005880794,-0.00452202,0.008644582,-0.0031388777,-0.006343664,0.009867397
알새우,0.007734195,0.009165943,0.0011606537,-0.008371639,0.008475386,-0.003720933,0.0057390872,0.004434939,0.009664184,-0.00931245,0.009199613,-0.009327409,-0.006942008,-0.009110735,-0.0055486783,0.0073744133,0.009161397,-0.003353289,0.003753477,-0.0036463358,0.007916785,0.005858557,-4.582443e-05,-0.0036238485,-0.007304478,0.004785757,0.0014845405,-0.0026234528,0.0078443885,-0.004066504,-0.0091854315,-0.0022513864,0.00010401558,-0.0066622566,-0.0054821675,-0.008481996,0.0092412,0.00741939,-0.00030043986,0.007327546,0.007950418,-0.0007750051,0.006640636,0.0037759496,0.0051175077,0.007276119,-0.004756808,-0.0021876697,0.0008673092,0.0042609232,0.003354112,0.0051282523,0.0046061687,-0.008486345,-0.003255317,-0.0072496897,0.009685337,0.0050479723,0.00015489021,0.00405835,-0.0076827304,-0.0063089402,0.0030697936,0.006517068,0.0038933593,0.0060430598,-0.0019528833,-0.0033221133,0.0002110906,-0.0031473057,-0.0055420306,-0.007788661,0.0065380377,-0.0010658579,-0.0018571984,-0.007756783,0.009398661,0.00090124103,0.001711844,0.0024888504,-0.0074174423,0.0016381502,0.002949234,-0.008588574,0.004959823,0.0024570187,0.007495074,0.0050537707,-0.003042596,-0.0071893986,0.0071386457,0.0019040857,0.0052103405,0.0064414674,0.0019405279,-0.006154566,-2.3562787e-05,0.008284028,-0.0061065704,0.009442943
신김치,-0.0072125127,0.0042337286,0.0021655592,0.0074390527,-0.004902387,-0.0046186266,-0.006089406,0.0033255047,-0.004486224,0.008532669,-0.0043059844,-0.009095166,-0.0048416327,0.006390465,-0.0063518165,-0.0052793506,-0.007337639,0.006004093,0.0033577417,0.0028175048,-0.0031192284,0.0060237357,-0.0061449134,-0.001989072,-0.0060065817,-0.0009872635,-0.0020394237,0.008478703,1.608718e-05,-0.008570712,-0.0054294122,-0.006879659,0.0027059244,0.009455036,-0.0058280025,0.008286047,0.008541006,-0.007073926,-0.008916313,0.009421443,0.008374007,-0.004696548,-0.0067386776,0.007840467,0.0037685737,0.008053076,-0.0075701303,-0.009525555,0.0015920205,-0.009789683,-0.0048968405,-0.003483295,0.009638215,0.00860962,-0.0028516597,0.0058384873,0.008230938,-0.0022757954,0.009511759,0.0071367747,0.0020372935,-0.0038724171,-0.005079855,-0.003051212,0.007872585,-0.006166477,-0.0028929166,0.009221807,0.0034285812,0.006107842,-0.008049753,-0.0007175771,0.0055632447,-0.004709622,0.007489054,0.009345318,-0.00039863706,-0.002074351,-0.00063181494,-0.0057978244,-0.00840359,-0.0015272972,-0.0025897888,0.0043917396,-0.006893291,0.005406113,-0.0067599304,-0.007818361,0.008478246,0.008927544,-0.0034548715,0.0034987798,-0.0057924762,-0.008755137,-0.005493586,0.0067733116,0.0064189467,0.00942651,0.007048684,0.00673295
삼겹살,0.0012975504,-0.009781893,0.0045873397,-0.00054091035,0.006334162,0.001770766,-0.003121811,0.0077705453,0.0015599474,6.0989394e-05,-0.004631908,-0.008467274,-0.007800919,0.008670024,-0.008930619,0.009018887,-0.0092926035,-0.0002608922,-0.0019052231,-0.008964297,0.008649341,0.0067678234,0.0030070809,0.004830549,9.7749224e-05,0.0094336495,0.007018168,-0.009869985,-0.004448738,-0.0012707105,0.0030444944,-0.004327066,0.0014430387,-0.007855913,0.002759564,0.0046908855,0.0049256966,-0.0031720956,-0.0084323725,-0.009261362,-0.0007291106,-0.00731929,-0.006800408,0.0061070174,0.007175006,0.002102455,-0.007909652,-0.005685161,0.0080627315,0.003932243,-0.005241838,-0.0074033826,0.00078460434,0.0034501764,0.0020861567,0.0031022544,-0.005629356,-0.009878163,-0.0070198504,0.0002194402,0.004602167,0.0045153266,0.0018748477,0.005151206,-0.00010826494,0.0041114073,-0.009114076,0.0077248816,0.006127461,0.005133561,0.0071953624,0.008455186,0.0007368531,-0.0017165112,0.00052846206,-0.009315524,0.008405594,-0.006376048,0.008404911,-0.004244765,0.00063227117,-0.009168981,-0.009581386,-0.007817044,-0.0077203526,0.00036042638,-0.007226754,-0.0049531297,-0.005278616,-0.0042956634,0.0070267194,0.004823654,0.008682971,0.0070954873,-0.0056929183,0.007235048,-0.009289499,-0.0025725411,-0.007742374,0.004186435
올리브오일,0.0017760734,0.00707517,0.002937347,-0.0070290603,0.0077376086,-0.006060966,0.009026612,0.002966144,-0.003991315,-0.004701492,-0.004407405,-0.0061430205,0.009382182,-0.0026630498,0.0077677974,-0.009690771,0.002091598,-0.0012521498,0.0075793117,-0.009059699,0.0074537387,-0.0050901584,-0.0059805084,-0.0056588864,-0.0033645078,-0.0034059642,-0.0032395099,-0.007496696,0.00065911905,-0.00060110923,-0.001662065,0.0037574887,-0.0076178513,-0.0032334726,0.005129959,0.008569042,-0.009812867,0.007206231,0.005315827,-0.0038935796,0.008599577,-0.009217059,0.007228731,0.005341194,0.0013081343,-0.005201699,-0.004182921,-0.0033675407,0.0016313192,0.0016136745,0.0074001313,0.009983237,0.008894144,-0.0040291203,0.009635498,-0.00062358414,0.004873037,0.0025514045,-0.0006327576,0.0036842383,-0.005340119,-0.0057663964,-0.0076160715,0.0019001566,0.0065372917,0.00087778823,0.0012305422,0.0031685035,0.00811353,-0.0076914397,0.0022611222,-0.007444202,0.0037539038,0.009524067,0.007549743,0.0064314227,0.008010696,0.0065540676,0.006835997,0.0086731315,-0.0049809865,0.009202398,0.0050497027,-0.0021070188,0.008478335,0.0050966586,0.009669469,0.0028789148,0.00989357,0.0011908086,0.009178733,0.0036217298,0.0065770373,-0.003615824,0.006822993,0.007266707,-0.002125303,-0.0018726129,0.003606713,-0.007038597
생면,0.009749594,-0.0097337365,-0.00650224,0.0027338637,0.0064700544,-0.005399295,0.0028031834,0.009179755,-0.0068176533,-0.0061082537,-0.0050520017,-0.003744379,0.0018009611,0.0096743405,0.0064304913,0.00036759305,0.0024441204,0.008396938,0.009170343,0.0056126346,0.0059923204,-0.007652107,-0.0038581532,-0.0056576924,0.006155828,-0.0022601543,-0.008773145,0.0075859507,0.008342134,-0.0033166346,0.009118232,-0.00076626946,-0.0036250493,-0.00043204165,0.00017587637,-0.00350735,0.0028113492,0.005728482,0.0068881516,-0.008946778,-0.0022129335,-0.005470094,0.0075270254,0.0064944313,-0.0043548127,0.002261306,-0.005958908,0.00023299063,0.009491563,-0.002562299,-0.0051880605,-0.0074192574,-0.0029057225,-0.0008634938,0.0035307526,0.009758134,-0.0033737798,0.0019467903,0.009705231,0.0015307756,0.0009888752,0.00973971,0.009302224,0.007716667,-0.0062403427,0.010013244,0.0058766175,0.009116042,-0.0020257742,0.0033994128,0.006870095,-0.0038754055,0.0066892854,0.0025596868,0.009348811,-0.0030279504,-0.0030973167,0.0062431423,-0.0091440035,-0.0072632483,-0.0065161027,-0.00076161715,-0.0023855036,0.0068226685,0.009242926,-0.00091792626,0.00138505,0.002086871,-0.0020015398,-0.008041929,0.0074904645,-0.0042841784,0.0046265423,0.009112683,0.0030771242,0.0031563714,0.0040579685,-0.0027104805,0.0038289344,0.00031599757
묵은지,0.0056234184,0.0055656056,0.0018683854,0.0057609514,-0.008939988,0.0065140673,0.009243627,-0.004155302,0.0015952972,-0.0052334797,0.0010198952,0.0027281167,0.008115504,0.0005776716,0.0025875669,0.0012553957,0.008331228,-0.005709445,-0.0062576504,-0.0037108469,-0.0022587008,0.005012135,-0.008137397,-0.0028475176,-0.008214048,0.0051429872,-0.0025992673,-0.0090885,0.004009324,0.0090111345,-0.0030205555,-0.0058504487,0.0030013847,-0.0004337815,-0.009987921,0.008438534,-0.0073278234,-0.004945693,-0.0026797403,-0.005520752,0.0017201023,0.009725614,0.0045498097,0.008073286,-0.00045872648,0.0006125312,-0.0026734301,-0.008788784,0.0034690807,0.0021179577,-0.009438825,-0.005001424,-0.009733508,-0.0057378057,0.004083649,0.008659798,0.0041011325,0.0023895702,0.008116098,-0.0011568671,-0.0014364059,-0.008765315,-0.00013809656,-0.002619835,0.00035903658,0.0072904928,-0.007015858,-0.0039137276,-0.006696319,-0.0034901924,-0.0033519298,0.0021546772,0.0033504586,-0.004924915,-0.004549842,0.0012067158,0.0054427655,0.005390229,-0.0030308645,-0.0042667403,-0.0056220368,-0.0005634543,0.0018895578,0.0015603561,0.007363865,-0.0027277377,-8.316585e-05,-0.0055487175,-0.0011727035,-0.007721353,-0.0009344605,0.0013339256,-0.008637604,0.0087341275,-0.00919169,-0.009630715,-0.008512805,0.0073102466,0.0054695574,0.009201816
배추김치,0.0025558595,0.0008740132,-0.0025406182,0.009355569,0.0027805667,0.004044849,-0.0011859545,0.00093427504,0.0066462704,-0.0007468617,0.003351142,-0.0006551121,0.005236474,0.0036185668,0.0025912914,-0.0053414344,-0.0047491807,0.0042852713,-0.005913937,-0.00018873805,-0.00064802385,0.0035087054,-0.008431918,0.008815287,-0.0014732726,-0.0053183637,0.0040372275,-0.0019552067,-0.0077958447,-0.0045147515,-0.00040101138,-0.008965271,0.000578928,0.0024400656,-0.0032500639,0.0025988382,0.0024536843,0.010000327,0.0014144136,0.0019851583,0.002784342,-0.0020910185,-0.0087071,0.008012915,-0.0019789233,-0.009720376,-0.006548685,-0.003968144,0.003973789,0.005048311,0.0060940115,-0.006781414,0.0006935231,-0.0027951123,-0.0052268105,0.0069797137,0.0039709844,-0.0031172284,-0.008277448,-0.005168518,-0.00066362566,0.007795174,0.0060497527,-0.0084760105,-0.009599527,0.0071611265,-0.002330062,-0.0036649946,0.0057310606,-0.005826323,0.005087468,-0.000215454,-0.006833572,-0.0002986534,0.006380413,0.009331501,0.0022165393,0.005056154,-0.00502084,-0.0007887362,-0.0053249183,0.0011741561,-0.0018237802,-0.003635883,-0.00702564,0.009637463,0.002959498,-0.0022702217,-0.004143013,0.0077264556,-0.006467484,0.0031582469,0.0007798154,0.008327262,0.0068571875,-0.0028939063,0.0025257615,-0.0016747123,-0.00948061,-0.002623162
떡볶이떡,0.0013347225,0.006550901,0.009978748,0.009056467,-0.008012249,0.0064693727,-0.005712517,-0.00096285454,0.0004912563,0.0065797055,0.0044718063,0.0045877355,0.0094646495,0.0003932579,-0.0060324944,-0.0063390876,0.006413288,-0.005257845,-0.0028443653,0.004071889,-0.002277806,-0.0060294755,-0.0023330166,0.001212097,0.0021658216,0.0060697,-0.005227015,0.0030712408,0.0072327754,0.0021929904,0.0054079047,-0.0048607695,0.0061556078,-0.0075910334,0.0034865122,-0.009317094,-0.0025918912,-0.009076746,-0.0015928731,-0.00537186,-0.0039523444,0.001160201,0.0028016474,-0.0015209524,-0.008153154,-0.005921005,0.0008105228,-0.0039270446,-0.009414828,-0.0007439948,0.0066264984,0.005988884,-0.009905099,0.0031156617,-0.006000818,-0.009178788,0.0001722352,-0.00036145147,-0.006952394,-0.0062860036,-0.0024393438,0.007091531,-0.0075604427,0.0076945797,-0.00048016373,0.0010938697,0.0094928155,0.0047459537,-0.0035958092,0.0037295613,0.0035155492,0.0063447626,8.073192e-05,-0.004413788,0.001312326,-0.0054234844,0.0014165492,0.004931283,0.0051396615,0.00918868,-0.0075252573,-0.0053992453,0.0064499667,0.0013574506,-0.0066253333,0.00088314636,0.0026720122,-0.0025374086,-0.004966654,0.0050113923,0.009622286,-0.0073514357,-0.00010216635,-0.0025671618,-0.0063561522,-0.0013816121,-0.00524962,0.009070025,-0.0057863966,0.0036758317
닭,-0.00023465633,0.0042383866,0.0021116165,0.010001559,0.00062247104,-0.0054960684,-0.0011809357,0.002084257,-0.003364819,-0.007861346,-0.005612393,-0.00674906,0.006346875,0.003933233,0.008237615,0.0065097813,-0.006166903,0.0027110267,0.00847541,0.0015840561,0.0030700087,0.005824384,-0.008861204,0.009137921,0.006814238,0.00850397,-0.008230086,0.0061461516,0.0066108624,-0.001362185,-0.006309806,0.005311211,-0.006839391,-0.00533189,0.0034962767,0.0081088515,0.008687476,-0.004406675,-0.009194118,0.009562195,0.0063145473,-0.003982724,-0.008474295,-0.004721852,-0.0039525153,-0.0032821249,0.0008231705,-0.000302225,-0.0031092716,-0.0059906878,0.009424985,-0.004717677,-0.0072743953,0.0076908977,0.002510128,0.008651689,-0.004466552,-0.0069063897,0.00097279367,-0.0011900021,-0.009411316,-0.0016088234,0.0030592908,0.0065560476,0.00681418,0.003235375,-0.004438903,-0.001833237,-0.0039546387,0.0058072507,-0.0063454635,0.0021195048,-0.0013318496,-0.005805996,-0.0072224895,0.0058742054,-0.008358117,-0.00069263903,0.0028168764,0.007738232,-0.0073025934,0.0032923082,0.009808368,-0.0069825603,-0.0035383343,0.0051348237,0.005239927,0.0016311707,0.007992376,0.0008492904,0.0018796662,-0.0016133852,-0.008169358,0.003245485,0.001984817,-0.008703906,-0.00068958336,6.0144695e-05,-2.746247e-06,0.008706442
단호박,-0.0025087534,-0.0058746277,0.007490638,-0.0072433325,-0.008966696,-0.0018066185,-0.008359241,0.00041124065,0.0019436952,-0.002486614,-0.0064571314,-0.00033059623,-0.0010972742,0.003486137,0.008145683,0.0058334684,0.008431392,-0.00898093,0.009431349,-0.0023759531,0.008702498,0.0023807653,0.0035676488,-0.009588014,-0.009493653,0.008981064,-0.002902526,0.0028249435,0.0064087203,-0.00031944612,0.0097009335,-0.0010441929,-0.009660891,-0.0070690583,-0.0010447825,-0.008660215,0.0074461806,0.0036129488,-0.008744829,0.008465135,0.008931057,0.0058354717,0.006905317,-0.00958689,0.0004988157,-0.009235814,-0.003671196,0.00024241403,-0.00026009965,0.0014774527,0.0032683956,0.0021248346,0.005325278,0.0075241495,-0.005875818,0.00796514,0.0059992103,0.009800799,0.0046236794,-0.003333993,-0.003743662,-0.00064056925,-0.0016551065,0.009864732,0.001111938,0.0040259156,0.0034188055,-0.008843486,0.0067041777,0.00820979,-0.0016761059,0.0023393915,-0.0064702095,-0.006129038,0.008238427,-0.003036773,0.0067461072,0.0015620287,-0.0019975177,0.0030601118,-0.004024345,-0.0017963725,0.0013626309,0.0048913253,-0.0014139852,0.00065827667,-0.007940712,0.009496124,-0.008743417,0.007076119,0.003917331,-0.006988143,-0.005320527,-0.007934618,-0.0051051555,0.0070817648,0.00963782,0.0021454734,0.00063364295,0.009513801
아보카도,-0.004986742,-0.0012314998,0.0032804657,-0.00643945,-0.00970106,-0.009320022,0.009009657,0.00541533,-0.0047703357,-0.008344824,0.0012728927,0.002897076,-0.0012679802,0.0012632762,-0.0042997524,0.004757009,0.001436586,0.008883567,-0.0099621,-0.0052902787,-0.009095504,-0.00035011157,-0.007855291,0.0050436542,-0.006430195,-0.0059401505,0.005030728,-0.008192847,0.0014132974,-0.0072458945,0.0098584285,0.008617124,0.001772453,0.005772034,0.0045793466,-0.0059595453,0.009750634,-0.009669874,0.008026379,0.0027232063,-0.00304414,-0.003548724,0.009058054,-0.0054400135,0.008188013,-0.006067279,0.008377399,-0.00055841595,0.007968773,-0.0031582639,0.0059761014,0.008807953,0.0025554853,0.0012872295,0.005044194,0.008021366,0.008579246,0.008501689,0.007056046,0.007967347,0.008573888,-6.643226e-05,-0.0010256201,0.0016376737,-1.9910622e-05,0.0006987725,-0.008592756,-0.009592479,-0.0023425114,0.00895125,-0.003665302,-0.0069418633,0.0048833406,0.0011034212,0.0018864113,0.0036910127,0.0035139082,0.00571856,0.0011748619,0.000874213,0.0090181315,0.0027808354,-0.004717985,0.006558823,0.0052109063,0.0028456198,-0.0031521022,0.0033601979,0.0063686413,0.007095584,0.000980184,-0.008514878,0.00025064131,0.0003621195,0.0039777844,-0.009457754,0.009717868,-0.0069783772,0.0057613947,-0.009459464
스파게티면,0.009650836,0.007338801,0.0012925093,-0.0033844153,-0.00044308938,0.00040828146,-0.006402245,0.0057841237,0.0023613465,0.0037713076,-0.007279775,0.00850625,0.0005016327,-0.00022268175,-0.009072586,0.004035263,0.006772755,0.007350455,-0.006408525,-0.0078813275,-0.005491137,-0.0006059023,-0.008347869,-0.008241869,-0.0019609418,0.0011297561,-0.009557078,-0.0037328003,0.0006218427,0.006810486,0.0017091024,-0.0006311672,-0.007494765,-0.006749579,-0.0006936776,0.007479243,0.005457888,-0.0014909434,0.0011595472,-0.00963227,-0.0014005322,-0.004617973,0.005844068,-0.0023539797,-0.004739735,-0.009474315,-0.0012173504,-0.0072180266,-0.001658784,-0.004037663,-0.0023905225,-0.003250046,-0.008143528,-0.0012665475,0.0016961329,-0.004037588,-0.0076172743,-0.0035855828,-0.009025891,-0.0007577983,0.005882405,-0.0029846905,0.0031624653,0.004999812,0.008464761,0.005644239,0.009514269,-0.009606056,-0.007966996,-0.006718939,-0.0074645854,-0.007965829,-0.00778779,-0.0029236584,0.0014025876,-0.0028721304,-0.008807914,0.0050149355,0.00087597175,0.0045877406,0.0071944585,0.007639444,-0.00083816564,0.0036744415,-0.005124662,0.0019286693,0.004542024,0.009904717,-0.0031544247,0.002835456,-0.0057046935,-0.0022183028,0.008117589,-0.0038967007,-0.0011688537,-0.009277618,-0.009487356,0.008874414,-0.0057199555,0.005046969
오이,-0.0069769067,-0.0024476673,-0.008014897,0.0074968557,0.0061245193,0.0052425503,0.0083901435,-0.0006840929,-0.0093022585,0.009113381,-0.0049282406,0.007841196,0.005523395,-0.0010900255,-0.007674314,-0.0014671326,0.006254544,-0.006974777,0.0014542737,-0.00795166,0.008736924,-0.002848193,0.009425161,-0.005699786,-0.0097322855,-0.008627849,-0.004076275,0.00469098,-0.000248796,0.009226295,0.003115018,0.0037481636,0.0029896628,0.008134866,-0.002399745,0.0074246596,-0.0095423,0.002917118,-0.0006907398,0.00042267295,0.006849968,-0.002843758,-0.0023544305,-0.00011277727,-0.0004932,-0.0035858206,0.006239101,-0.0065589086,0.007897174,-8.6840446e-05,0.0026072362,0.0032109865,-0.00027857075,0.00171453,-0.0031575663,0.0047649085,0.00024697933,-0.0032887007,-0.0087282695,-0.010012503,0.00030645958,-0.005754134,-0.0011108099,-0.0042092,-0.008633512,0.0010672197,0.005914963,-0.0022049414,-0.0071689757,0.0031556098,-0.0003868786,-0.005507138,-0.0010947916,-0.0006501659,-0.003174044,-0.009946613,0.0076314243,0.0037173438,-0.002538486,0.007308183,0.00044193165,0.0071674096,-0.001551749,0.0075047873,-4.92713e-05,-0.006075435,-0.0047164336,0.00962815,0.0005747902,0.0010289146,0.008454592,-0.006292035,-0.0017693861,-0.008180545,-0.006670457,-0.008569812,0.0039271857,0.0027410774,0.005603026,0.0025679818
돼지고기 등심,0.0020883547,0.0057495614,-0.0021046095,0.003159125,0.008463746,0.00034941005,0.006291994,-0.0067197545,0.0065875915,0.0046734456,0.005058764,-0.009939223,-0.00045277973,0.003196765,-0.0058198352,-0.0066984524,0.006324848,-0.0068305773,-0.005185514,0.008126706,-0.007017456,0.008565261,0.00065850676,0.004391502,-0.0030407694,-0.005424832,-0.008973996,-0.0006434147,-0.005137284,-0.0030755934,0.008103372,-0.0076685506,-0.006306036,-0.0052877325,-0.006624539,-0.008823926,-0.0011113251,0.009447859,0.0080183875,-0.005290264,-0.008132508,-0.0022599495,-0.009286334,-0.0050799935,-0.0059424513,0.002994844,-0.0075801867,0.0012567086,0.0023301737,0.00531329,-0.0020067736,-0.009782027,0.005253762,-0.0059152828,0.0048730555,0.0019839678,0.008821597,0.0015179069,-0.0018300741,0.0064975703,-0.0070819673,-0.0084078545,0.0037997016,-0.002580298,-0.004197304,-0.0019076619,-0.009881941,0.0002772279,-0.0010744414,-0.0029495412,0.002494895,0.004715227,0.00635635,-0.00790865,-0.004981413,-0.008779672,-0.008943486,-0.003717322,-0.0012982541,-0.00821558,-0.005406324,-0.002169002,0.006304607,0.0015731492,0.008290915,-0.008321298,-0.004558948,-0.0007700305,0.008828765,0.0011125873,0.0015621806,0.0012927261,0.002924443,-0.009409243,0.0032700023,0.005478872,0.0052849264,0.004417249,-0.0080882935,-0.0040636556
차돌박이,0.008352054,-0.0005579535,-0.009439964,0.0047704787,-0.0060356697,0.0066239904,0.0053980844,-0.0050107245,0.0025778504,0.005424627,-0.003603399,-0.0015187965,0.009179148,0.0090599395,-0.009376487,0.0075333617,0.009858764,-0.0028739579,0.0024770806,-0.002841426,0.008658443,-0.0002832206,0.005647745,0.009228269,0.004106716,-0.0071350764,-0.001965748,0.0009771803,0.0019830007,0.0029039653,0.009454506,0.0044101262,0.009933601,-0.008653743,-0.005731847,0.0020316658,0.0036867927,-0.0009881943,-0.006911378,-0.0032108286,-0.008534332,0.00941394,0.0036971353,-0.007897312,0.0032137474,0.0041620927,-0.0056237294,-0.0059173657,0.0010634891,0.008997218,-0.009638024,-2.9175824e-06,-0.006871588,-0.0009413597,0.0030296617,-0.0049994956,-0.0027690558,0.0006610884,-0.0063723316,0.007300173,0.004388273,-0.008584008,-0.0021468778,0.0031634371,-0.00836301,-0.007042616,-0.008450538,-0.005495821,0.008853466,0.0071268654,0.002895215,-0.008546244,0.0057906695,0.0046753674,0.00012440617,-0.00882452,-0.0018999609,0.00018041598,-0.007783869,0.0024830273,0.00047115938,-0.007088503,-0.008329078,0.0060703754,-0.008369355,-0.0055886284,0.005577516,-0.0004718425,-0.003009079,-0.005192422,-0.0011743219,0.005284183,-0.005959636,-0.005000404,-0.0049467753,-0.0047390694,-0.007980033,-0.009776102,0.00756831,0.007967665
빨간 파프리카,-0.0043096333,-0.009259466,-0.0019020749,-0.0036831507,0.009128942,0.0028507786,-0.005933195,-0.0032926449,-0.009903446,0.0018982075,-0.0039862506,-0.00268282,0.005186369,0.0075929696,0.0044434574,-0.0068809628,0.0066657313,-0.009661315,-0.007028776,-0.008027779,-0.0022337406,0.00048248706,-0.0037378771,0.0018411136,0.0091736205,0.0066863704,-0.0011211064,0.009032125,0.0014877231,-0.0019939533,-0.006619581,0.006474221,-0.009032742,-0.0019567797,0.007703021,-0.0024886508,0.0016005947,-0.0073607946,0.0049115587,0.007328942,-0.009345189,-0.0032984589,0.00791064,0.0029444413,3.4957735e-05,0.0002879063,-0.009868617,0.009912935,-0.001999307,-0.004887104,0.0027880478,0.0010354271,-0.0059668864,0.0058146943,-0.002550438,-0.0062122038,0.007261775,0.0064409827,0.008814885,0.0011569822,0.0005167283,-0.00799776,0.0046777865,0.009337009,-0.00073736015,-0.0017052557,-0.0037966473,-0.00047322977,-0.0077035488,0.005745794,0.0014782428,0.009350348,-0.006375577,-0.0050688526,-0.006215781,-0.0072325217,0.002748333,0.0049207257,0.0012600791,0.0035754202,-0.009417987,-0.0010803652,-0.007820161,0.002905732,-0.002708932,0.00886921,-0.0034410662,0.006865163,0.0041665714,0.0014007463,-8.690635e-06,0.008227537,0.0023321214,0.008254998,0.0034080537,0.0054760217,0.0050935703,-0.0076900423,-0.0058324095,0.0012032646
돼지고기,0.00018184117,0.0021448052,0.001078123,0.007615038,-0.0044153924,0.0002841925,0.007001959,0.0022584458,0.0042558215,0.0042920983,-0.0013037913,-0.008314297,0.0030086539,-0.008902011,-0.0026488092,-0.009417931,-0.00050710316,-0.007880248,0.0074133635,-0.004884976,0.009921243,-0.009027,-0.0043052975,0.0019105553,-0.0030085486,0.0014390174,-0.0036811044,-0.0009038614,-0.00578495,-0.009824298,0.0063373586,0.00036205957,0.0065156734,-0.0074780737,0.0036806383,-0.009852216,0.007621942,0.005922678,-0.0061111213,0.008194046,-0.005585417,-0.008583757,0.0014975788,0.0031798452,-0.008081699,-0.008959356,0.009175102,0.0016359162,0.0009075809,0.002472596,-0.0034821795,0.0017226987,0.001969279,0.009797327,-0.0056264866,0.002293355,0.0063087624,-0.006693972,-0.008949446,0.008662268,0.006839015,-0.004012608,0.005763162,0.00076918147,-0.005055038,-0.0013337629,-0.004881339,0.0061759697,0.0019475888,-0.008262323,-0.00013439375,-0.0026303176,0.006624284,-0.0011314075,0.0077027283,0.001977758,-0.0038211881,0.008172642,0.0029265769,-0.0039719716,-0.0056193126,-0.0031103264,-0.0051817773,0.0034388932,-0.009298857,-0.00584887,0.0033197396,0.00018654745,0.006022155,-0.0035897035,1.2420263e-05,0.0024812764,0.0054520546,0.0016070381,0.009829987,0.0037424297,-0.007188672,-0.0014242425,-0.008398196,-0.005357521
부추,-0.0021967543,-0.009707929,0.0092981635,0.0020371482,-0.0011640785,-0.0055039567,-0.008507931,-0.009905087,0.008943866,-0.0025050598,0.00459131,-0.004517283,0.009958755,0.0036530248,0.001022841,-0.0040424243,0.001209198,-0.0026473424,0.0073575517,0.0044807424,0.0009834231,0.0034877902,0.0037103547,-0.0067868973,0.0089374455,0.0017408241,-0.005792036,0.008659401,-0.0012923112,0.008184617,-0.0015102074,0.006992805,0.0027225106,-0.0043572467,-0.0037480127,0.009194291,0.0015915155,-0.006008648,0.00035062357,-0.0019646755,0.0015868329,-0.007718758,0.0073796855,0.0013081658,0.007879354,0.004449397,-0.0043893005,0.0037498053,-0.00063991593,-0.009858439,0.00824089,0.009647771,0.009651703,-0.0038011265,-0.0084502315,0.004829248,-0.007658303,0.0085284915,0.002761903,0.0056008045,0.0061166827,0.00046523302,-0.002092053,0.0007731631,0.009837623,-0.007124944,-0.0015571394,-0.0023566184,0.004870831,0.0064517953,-0.0041316547,0.0036285173,-0.0044804495,0.0032724375,0.008169746,0.0036308614,-0.0045791343,-0.003012624,0.007867034,0.009606413,0.005818038,-0.003276416,-0.0018267231,-0.006254604,-0.00429704,0.0033726909,-0.006483727,-0.006617629,0.008111427,0.00950443,0.00813968,0.0015130696,-0.008796545,-0.0075946553,0.0015769363,-0.009527172,-0.0074139885,0.0020261193,-0.002923037,-0.009155895
낙지,0.006409088,-0.008923695,-0.007368589,-0.0017644949,0.0017146214,-0.0010729245,-0.005203893,0.006603344,0.008798713,-0.0074219326,0.009819844,0.007378828,-0.0074880808,-0.0018972803,0.0042632925,0.007043211,-0.0036832492,-0.006968155,0.004735851,-0.009049041,-0.0058400873,-0.0012768834,0.005505969,-0.005697897,0.0047922675,-0.0004219542,0.0026651942,0.0063859136,0.0013979088,0.007707152,-0.00031990567,-0.008285663,0.009191761,-0.004869267,0.0047290046,-0.0038795434,-0.007334409,-0.0065130778,0.0046818275,-0.00068338733,0.0014381808,-0.008934039,-0.0051496723,-0.0060729664,0.008423572,-0.008705649,0.0050286106,-0.00085916993,0.00021681369,0.008804449,-0.0035736847,-0.0069411253,0.0007620452,0.007734448,0.009102316,-0.0036868386,0.0027489394,0.004974758,-0.0052925865,0.0068334127,-0.0064464863,0.0020978,0.0045972094,0.0043737013,-0.0046877707,0.002659854,0.007299841,0.008613575,-0.009529337,0.0056073866,0.0049401782,-0.001572453,0.009211613,-0.0041588293,-0.0017211315,-0.0068572587,-0.0037855317,0.00024879945,-0.0032969872,-0.0054268898,0.0065599238,-0.0053041154,-0.0063426658,0.007641751,0.009649847,0.003997899,6.612345e-06,0.00079125667,-0.0009507201,0.0068698092,-0.0062418226,0.0005200677,0.004298601,-0.0021092691,0.0009228191,0.0037363688,0.009722528,0.0021818695,0.009489879,-0.005844059
다진 쇠고기,0.0047938763,-0.0036061585,-0.0042817597,0.0012264496,-0.004102929,-0.005666156,0.0031644176,0.008364135,-0.0065477164,-0.00911702,-0.0033391204,0.0075155254,-0.009712431,0.009585479,-0.0003927108,0.0022963027,-0.00188829,-0.005770681,0.0030891253,0.006206291,-0.00705784,-0.0011660189,0.0015784344,0.004252139,0.007128986,-0.0035364886,0.0072864643,-0.005599565,-0.0022255534,0.00906435,0.005387955,-0.008521088,-0.0016568775,-0.00883501,-0.0016512002,0.0056933216,-0.0073944964,0.005523292,0.006081529,-0.0037837415,-0.009657834,-0.0025273887,-0.0025820094,0.0037517247,0.008927242,0.0019774828,-0.0021224173,0.0029822006,-0.00678123,-0.0013060566,-0.0014639915,0.009613328,-0.00578129,-0.0070459135,0.0023423326,0.00264092,-0.0071171396,-0.0058826036,-0.0011954521,-0.0032990347,-0.008986213,-0.004053576,-0.0029544681,0.0064958567,0.00093947956,0.0016263959,0.00027558868,-0.00335602,0.0030787487,0.00073211483,0.0059639644,-0.00077052513,-0.008878503,0.0009030941,0.0099461535,-0.0052324347,-0.005225169,-0.0024887992,0.008549575,-0.00083086704,0.009397289,-0.008357924,0.008997361,-0.009722924,0.009200061,0.0018840734,0.0026546603,-0.005848827,0.008467711,0.00603266,-0.0054532257,-0.009458951,0.0069770366,-0.0055313394,-0.0093138805,0.0026289371,-0.0049768803,-0.007373165,0.009728476,-0.0016078253
주꾸미,-0.001499072,-0.004005945,-0.004399362,-0.0046349834,-0.0055883387,-0.005316822,-0.008013359,0.009542172,0.006403433,-0.0036076582,0.0024659818,-0.007657348,0.0075142924,0.0083097685,0.000797157,-0.006832945,-0.002983748,0.0047252756,-0.0029425614,0.0031520566,0.009418761,0.004345332,-0.0051526166,0.0054727686,-0.0029117807,-0.0063779224,0.0069928793,-0.009276461,-0.0011354927,-0.0013820993,-0.00842398,-0.0011112385,0.005590975,-0.0052731675,-0.0070255976,0.0061997892,-0.0034279153,-0.007819224,0.00028586818,-8.4289095e-05,0.007548747,0.000554124,0.007887358,-0.0098155895,0.004045659,0.006210176,0.0010174649,-0.0028295803,0.0010420214,-0.0008196091,-0.008107935,-0.0067838463,0.0012169146,-0.0020324052,0.009547043,-0.00094734866,0.006105052,0.0020458922,0.008090192,-0.009307826,0.0023892783,-0.0014778408,0.0021450317,-0.00022454456,-0.0066531645,0.009055942,-0.0028349375,0.0019270835,-0.0064617083,0.0037255695,0.009998093,-0.0011779951,0.006597568,-0.00012676208,0.007928971,0.009662334,-0.0003763281,-0.001688749,-0.009534756,0.009880063,-0.0025486466,0.002169544,-0.0017193996,0.008328787,0.008330303,0.0015369486,0.0028807123,0.006433545,0.002255804,0.006449336,0.00015736619,-0.0022935888,0.005306578,-0.0034176651,-0.0025968298,0.008784881,-0.009159742,-0.0034079258,-0.0029305166,0.0056640515
굴,0.007938072,-0.006426485,0.005799339,-0.00020395045,-0.009020133,-0.0024553828,-0.001599787,-0.00445752,-0.00078213686,-0.0052584354,0.005928471,0.009285262,-0.0016086352,0.0033494378,-0.0007428506,-0.00071706035,-0.007042609,0.0014476731,0.0038906853,0.0068697263,0.006533324,0.0035495248,0.004670843,-0.0074353456,-0.0014189157,-0.005767199,0.006786782,0.00781498,-0.004283071,0.0011491523,0.0050608395,0.0017935537,0.00079351227,-0.0067448374,0.009815226,-0.007227299,-0.006032828,-0.0056567206,-0.0063703055,-0.003519633,-0.009414505,0.0011559604,-0.0037534123,-0.0025615375,0.005794793,0.0035196352,0.0018201318,-0.0013917134,0.009906293,0.00028602942,0.0050271144,0.009013788,-0.009767959,-0.009171296,0.00990822,0.0027255076,-0.0018645213,0.004708587,-0.00431648,-0.0064050276,-0.008289612,0.007196696,-0.0024257558,-0.007555796,-0.005948106,0.006185373,-0.0024692793,-0.0061146533,-0.0016534524,-0.0014377022,-0.0032641194,-0.0020773623,0.004118357,0.00145935,-0.003482808,0.0027186333,0.0052252016,-0.009184141,-0.007593755,0.00629513,-0.008938475,0.00050571223,-0.009018701,0.00838131,-0.0042748274,-0.006627389,-0.0013940801,-0.0011052359,0.007554193,0.0091281375,-0.00033202636,0.0027158698,0.00472195,0.00016234344,-0.0057528703,-0.0005934661,0.0021877894,0.008297942,-0.0036072284,-0.009860091
칵테일새우,0.0053842734,0.00985839,-0.0070417705,-0.0005729377,-0.0050453623,0.006408574,0.009656743,-0.00032159247,0.0051499195,0.0065251514,0.00441333,-0.008039816,0.0030766642,-0.0014927695,-0.0021371325,0.0053766905,-0.0013227254,0.009913925,-0.00062876777,0.00022892616,-0.0022854293,-0.008526348,-0.009810963,0.0049353205,-0.006632798,0.0029615555,0.0027606825,-0.007001498,-0.003168669,-0.005822208,-0.008569365,9.730547e-06,0.009802693,-0.006665477,-0.0043826425,0.008359613,0.009314275,0.009819125,-0.009901746,0.0050387043,-0.006647645,0.006867094,0.006142633,-0.0033733312,0.0068771834,-0.007896153,0.004553281,0.0045812987,0.0059485375,0.0059072995,-0.0026577841,0.003896314,-0.006083654,-0.0064767827,0.0027357296,-0.009449772,-0.0002904203,0.0011061602,0.007987563,-0.007019558,-0.0023288124,-0.0041278317,-0.0052233348,-0.0004829067,0.0045882766,-0.0049630417,-0.0016364913,0.008688845,-0.0013323423,-0.0035485213,0.0074365465,0.0012334529,-0.0003220303,0.00948546,0.008133952,0.0034346387,0.003344442,-0.0022783307,0.008069707,0.00507138,-0.0054506953,-0.0061379704,-0.0006510255,-0.007911091,0.0033641749,-0.009211833,-0.001554996,0.0033463892,0.0030694567,0.0031740214,-0.009062825,0.0034319249,0.0053363633,0.0034466172,0.007810929,0.0016585957,0.006266337,0.00883161,-0.0009601928,-0.00082883495
떡볶이 떡,0.0022239082,-0.0075197504,0.0056380136,-0.004993551,-0.0032713357,-0.0018455955,0.00820656,0.0022554127,-0.000918768,-0.0028599708,-0.0021314467,-0.0012929178,-0.0050770626,-0.0041287458,0.00019765159,0.0045527965,0.0017923302,0.0069012735,0.0006447065,-0.0032325995,-0.00737849,0.006018584,0.0069630085,-0.0060589844,0.0046734028,0.009490987,-0.0063959192,-0.0028901077,-0.0090997135,0.0032262444,-0.003442102,0.0020489015,0.009446518,-0.008358306,-0.00932243,0.0017385376,-0.008038813,-0.009074177,-0.009367122,-0.00029320436,-0.0010941458,0.000735745,-0.0013346955,0.00904421,0.008784147,-0.0063625528,0.008692901,-0.00904335,-0.0013373483,0.002538797,-0.000100325335,-0.003789676,0.00045399682,0.0010090331,-0.009414274,-0.004888972,-0.007705708,0.0038089436,-0.00088911055,-0.007487971,0.0056384476,0.00023473913,0.0027084346,0.0054236553,-0.004251244,0.007851143,-0.007855469,-0.003450401,-0.0073726685,0.00097495015,-0.007401361,0.009070561,0.0055350545,-0.007220357,0.006198571,0.00661401,-0.007408426,0.0046511013,-0.007738405,0.009336189,0.004685262,-0.00023216075,-0.008954233,-0.0008951192,-0.00026819287,0.0009045501,0.008661133,-0.0027655936,-0.008668929,-0.008828601,-0.0010553959,0.001377743,7.392624e-05,-0.0021873252,0.008552434,0.00011994818,0.0064162645,0.0039900844,-0.0071991216,-0.002130795
순두부,-0.0077849417,-0.0067479694,-0.003142813,0.006636109,-0.000831542,0.008859934,-0.0023239767,-0.0052677016,0.0039255572,0.0022214388,-0.0002835761,-0.002459042,-0.0060037645,0.0040310253,-0.0075947028,-0.008937262,-0.009192266,0.00837207,0.0040087746,0.0070672515,0.009933664,-0.0072154733,0.004036982,0.0027978178,0.0061509768,-0.0033899886,0.009295512,-0.005811236,0.0070136236,0.0069543635,-0.00039413993,0.005037324,0.00665915,0.001556687,0.0073760203,0.0024480314,-0.0015305618,0.0073760534,0.0046904995,-0.0032196152,0.0016075919,-0.00016713007,0.004965688,-0.005417504,-0.0041594547,-0.0009552491,0.0038146737,-0.006613804,0.007883121,-0.0030904987,0.0057508075,0.0028785875,0.0068249404,-0.0044683535,-0.0032005005,0.003052842,-0.0027539688,0.005939425,-0.0059669986,0.002595322,-0.00072498654,-0.00060595147,0.0025539552,-0.0022111845,-0.0042804917,-0.008547461,0.0025175214,0.0053411615,-0.0058703003,0.009170412,0.004030241,-0.005192229,-0.0013014125,0.003954419,-0.0069901557,0.002075746,0.005507717,0.0062397616,0.0054023447,0.0036461859,-0.0027414167,-0.0061110007,0.0081094,-0.0073066517,-0.0016289862,-0.0032944041,0.0064538983,-0.0062904297,0.0034223143,0.0020832052,-0.004050952,-0.00822638,-0.008046538,0.0035060032,-0.009553525,0.00572076,-0.002923079,-0.009177066,-0.0051521896,0.0077296337
닭가슴살,-0.0017162154,0.006427767,-0.0092896465,-0.009169741,-0.005204797,0.000941991,-0.0071806503,-0.009442397,-0.008877139,-0.0004609202,0.0074399095,-0.008394189,-0.0053282413,0.0015130766,0.0033243222,-0.008450159,0.007840043,-0.008226068,0.0047432412,0.0094229365,0.0056618247,0.0061762724,0.008259132,0.0034527553,-0.0071678497,0.0057693077,-0.008316265,-0.0057215714,0.0058941375,-0.007938381,-0.0058595943,-0.0035694642,0.0033826227,0.005217837,0.0020562392,0.0051258854,-0.0026302533,0.0043621813,-0.0070542633,-0.0016669276,-0.0077315453,0.0001819659,0.004698063,0.0047893496,-0.004659425,0.001745015,0.00781912,-0.005575543,-0.0037599716,-0.0005994694,-0.0047161547,0.008694841,0.0075485245,0.009223527,0.009357498,-0.008440062,-0.00046353575,-0.0076178527,-0.0048196176,-0.008850986,0.0034082755,0.000112834365,-0.006921238,0.007959332,0.00095426553,0.00031224382,-0.0035606904,-0.0033356575,-0.0026393123,0.0076395716,0.0023777096,-0.005166123,0.004749558,0.0010033081,-0.0027307507,0.0077248495,-0.003956003,0.0074450215,-0.0042327703,-0.0073690806,-0.0044941516,-0.0039214734,-0.00070861605,-0.0018393558,0.005115012,0.005471669,-0.0017249915,0.003738017,-0.002015255,0.0007306672,-0.001360412,-0.002445587,-0.004720384,-0.0042649047,0.00012784256,0.0016380294,-0.009457319,0.006074492,-0.0017021092,-0.0029893639
파스타 면,-0.0048087295,-0.0042886483,-0.0048072655,-0.009809204,-0.0007786652,-0.007896833,-0.004805378,-0.007351685,0.009954085,-0.0013834116,-0.0077729276,0.005507557,-0.008134285,-0.0019484814,0.0027448544,-0.0071135946,-0.00878826,-0.0066758953,0.0074830237,0.009045872,0.004057312,0.0024317207,0.0041681402,-0.004083489,0.009751892,0.006889673,0.0040975683,0.008949996,-0.008463159,0.0009318578,0.008887347,-0.00096828095,-0.006746714,-0.0022911485,-0.0028105185,-0.0025031145,-0.0018659526,0.0072648637,-0.00031813383,0.0041876133,-0.003760162,0.008247869,-0.006508807,-0.009367908,-0.004154928,-0.007417107,-0.0048847347,0.0005041006,0.0024155225,0.0017709923,0.005025085,-0.0014148701,0.002318061,0.0003232737,0.0078194635,0.008058355,-0.0019390178,0.001248065,-0.0060216454,-0.0047862357,-0.006999006,-1.0617451e-05,-0.004930005,-0.0040854076,0.0014646839,0.0026525736,-0.009117107,0.0017996826,0.005089248,0.0042239903,-0.002944892,0.009492925,0.009491573,-1.6249724e-05,0.0008600933,-0.009217198,-0.004807111,-0.00010357312,0.003997107,0.00015859693,-0.008758175,0.005825332,-0.0074606687,0.008559587,0.0055182073,-0.006808012,0.0028347094,0.0077368496,-0.006112594,-0.006550008,0.009234856,0.0018020388,0.0096951155,-0.009931102,-0.0014829398,0.0069103525,-0.0014587202,-0.0017447906,-0.007094934,-0.00569812
카레가루,-0.006528814,0.008951601,-0.0015733815,-0.008276944,0.008041634,-0.0029979944,-0.0013196553,-0.0006364048,0.0028167693,-0.004698991,-0.00029189285,-0.002886298,0.008769949,0.0068761013,0.0011263078,-0.0061053033,0.0031273754,0.0011372318,-0.0061438596,-0.0057610427,-0.0030679519,0.0023896443,-0.008120567,-0.0049933265,0.008073049,-0.0036800636,0.007936837,0.0005269768,-0.005565282,-0.0049556918,-0.0002345929,0.0045784716,-0.006075365,-0.0055419994,-0.0068276455,0.006747931,-0.0023810822,0.004017547,-0.0016324049,-0.007436738,-0.001273697,0.00036934626,0.0035942819,-0.008667445,-0.0068078856,-0.006589745,0.00299848,-0.0037547052,0.0010442011,0.0041697975,0.0045106914,0.002355226,-0.002876505,0.0006361765,-0.0054278234,-0.0063399444,0.008730296,-0.0040639318,-0.009326391,0.0037280926,0.008461777,-0.00019632722,0.0022498737,-0.0035432018,-0.004228473,-0.008585004,-0.007827522,-0.009039349,-0.005988368,0.00853957,0.00942977,-0.0016747414,4.3923643e-05,0.007837374,0.0012635129,-0.0051120096,0.0026567883,0.0018104274,-0.003763204,-0.0048986687,0.009618739,0.007630902,-0.0085821925,-0.0055254796,0.0014111063,0.0008944019,-0.008377452,0.009347472,-0.0053868885,0.0045912247,0.009274046,0.0010917886,0.0042122384,-0.0026892666,-0.009687374,0.00063948246,-0.0010801094,-0.009912118,0.006983382,-0.0074034818
식빵,0.005111284,-0.0044292496,-0.00917377,-0.009053684,0.0062216753,-0.0052675116,0.0052477196,-0.0015710797,0.009705388,0.007155099,0.009878879,0.008412674,-0.007902486,-0.009606897,-0.005577326,-0.00080395996,0.0049881516,0.0036719705,-0.0020288723,0.0050249435,-0.0033932114,-0.0067920187,0.004723901,-0.009870849,0.00091667817,-0.0050118426,0.0075777164,-0.0036931084,0.002792274,-0.006248201,0.009625543,-0.005573088,0.0035800303,0.0032336123,0.008917658,-0.005578729,-0.004377623,-0.0062201847,0.006158465,-0.004607786,0.004800394,-0.0008909685,0.0072566415,-0.0060398504,-8.406801e-05,-0.00010258222,-0.008537524,0.008730258,-0.0020993783,0.0064660283,7.9826066e-05,0.0050035,0.0022198278,0.008840782,-0.008343325,0.008463749,0.008669567,0.0010582424,0.0044220183,0.003835519,0.004049401,-0.0029657749,0.0028458314,0.0007655265,0.004810335,0.008399764,-0.007746419,0.00014444078,-0.008760958,-0.0015472851,-0.009063008,0.0031662043,-0.0015509339,-0.0007050633,0.0064191064,-0.008088618,0.0011371585,-0.0024498191,-0.0037514013,-0.0072841295,-0.007969183,0.008305559,-0.007449373,0.0048387325,-0.0037786572,-0.001218329,0.002796256,-0.008565691,-0.005663662,-0.0077399514,-0.009383987,-0.004761802,-0.0031514687,0.0004784998,-0.0006966643,-0.007851633,-0.0037664874,-0.0027308986,-0.0063914685,-0.0063929847
대파,-0.0026138446,-0.007889754,-0.008251806,-0.0075862478,0.0035785637,-0.007614867,-0.0036901545,0.006657504,0.0074012177,-0.0064023486,0.006771813,-0.007798077,0.00012358818,0.006613882,-0.002834178,0.00920698,-0.00035295886,0.004676059,0.0069536166,-0.008558719,-0.006055727,-0.0072938036,-0.0011483915,-0.0070947185,0.00012493924,-0.008044753,0.0005049126,-0.00039434736,0.006433722,-0.008879762,-0.003185206,0.0058777896,0.009246285,-0.0017848763,0.0007613569,-0.0060947593,0.000818127,-0.008146048,-0.007639456,0.0013481381,-9.268497e-05,0.0055611217,-0.00973555,0.0016420431,0.0015676466,-0.00525008,5.7503257e-05,0.006068706,-0.006583082,0.00031306772,0.003889424,0.0017058513,0.0028694395,0.008154557,0.00670951,0.0035167073,0.007984054,-0.007661899,0.0075247246,0.0038833544,-0.0058977804,-0.0042101643,0.0063943714,0.0058032693,-0.009886332,0.0012598339,-0.00038414868,0.0008453999,0.007074986,-0.0071566505,0.009661654,-0.009462782,0.006235342,0.009488104,-0.0038221902,-0.009386613,0.00618514,-0.008971639,-0.008300945,-0.0008256179,-0.00665449,0.00874337,0.007836129,0.0008385603,0.008026185,0.009843404,0.0051959623,0.004334382,0.005396083,0.0064179767,0.0047504255,0.006389558,-0.007463318,0.008865651,0.00828092,0.009410751,-0.009038214,-0.0034625954,-0.0003466771,0.0041646515
모짜렐라 치즈,-0.008236952,0.00019202121,0.0060295737,0.009597537,-0.002853315,0.0017865108,0.0063409284,-0.0019760197,0.0019498479,-0.009335764,0.0006951909,0.004551684,0.00450572,-0.009751452,-0.005150213,0.0029708343,0.0015762734,-0.004719276,0.0058171395,0.003506221,-0.007811434,0.009849098,-0.0077100047,-0.0030340434,0.009744268,0.0011574046,-0.005569412,0.0011265338,-0.004124402,-0.0067478297,-0.0077546383,0.004753667,-0.009032265,0.004052898,-0.005546783,0.005450686,-0.004356,-0.0056026285,0.0063553774,-0.008660483,0.0013506381,-0.0021177805,-0.006701381,-0.007674615,0.006758265,-0.0044903867,0.0046070805,-0.009677752,0.0019335612,-0.0019804677,-0.0058991825,-0.002779509,-0.008666143,-0.003473111,-0.0025803505,-0.002293855,-0.005100476,-0.009204265,0.0053251553,-0.0012866122,0.006152696,0.0030741894,0.00856463,-0.0035298555,-0.008911603,0.0013437918,-0.008988226,0.006055602,0.008456215,0.000521969,0.0077256393,0.008534113,0.004217361,0.005436652,0.009167587,0.0011480222,-0.00827065,-0.008321812,-0.001786778,-0.00063707004,0.0087950565,-0.009328928,-0.0025897499,0.00913406,-0.0014651064,-0.009081378,0.0020048383,-0.005837085,-0.005459505,-0.006334595,0.00014573697,0.007250209,0.0041175988,0.008131316,0.008863941,0.0045611705,-0.0060633426,0.0070566046,-0.009528406,-0.004793039
현미밥,0.007974969,0.0079257,-0.005435865,-0.00796276,0.008080009,-0.0038498314,-0.0040711793,0.0072124964,0.00543737,0.0038189953,-0.0012328343,0.008682073,0.008446251,0.0069714226,0.00907923,-0.005811934,0.00096700963,-0.0016346466,0.0063408534,0.00978226,0.0051645846,0.004056433,0.006548729,0.005870687,0.00010337181,-0.008369312,-0.0022075248,0.00906567,-0.0051121274,0.0010026128,0.004879848,-0.0069494615,0.008202324,0.0014744382,0.002423621,0.008334522,0.0014595093,0.00089046976,-0.009434206,0.009836443,-0.009882367,0.008547304,0.005050599,-7.7262186e-05,-0.007873367,0.009312176,-0.0013893815,0.0053441226,-0.0030067472,-0.0049002455,0.00016010876,-0.008030899,-0.0066303476,-0.009454394,0.005356974,0.0004354552,-0.00090268534,0.005068839,-0.0019542377,-0.0073790397,0.0028679238,-0.0059926948,0.00048431993,0.009468836,-0.00094460964,0.0061334423,0.004489534,-0.0035251963,-0.005247968,0.008911423,0.0020844585,-0.00044486756,0.00092622463,-0.0049120965,0.003543176,-0.0030723389,0.004215135,-0.0045744902,-0.00081015565,0.003910225,-0.007172472,-0.0025503756,-0.008748,0.0015688756,0.001988457,0.0023920317,0.0010581503,8.405193e-05,0.0022119423,-0.00095020846,0.0059316056,-0.002943472,-0.0051072338,-0.005349906,-0.009650305,-0.008104382,0.0021162417,0.0039626765,-0.0057821753,-0.00971032
콩나물,-0.0061638667,0.004666977,-0.009064645,0.005087327,0.0063478295,0.0061119497,-0.007628521,0.0028324798,-0.005451065,0.009059963,-0.0043201037,-0.0023582107,0.0052103726,-0.0008242026,0.0050979173,-0.004212714,0.004984859,-0.009796231,0.006082897,-0.0012526533,-0.0056013837,-2.6546486e-05,-0.0012156456,-0.00072423986,-0.0017486372,-0.009270275,-0.007797379,-0.0067841434,-0.008626325,-0.0045319838,0.009202686,-0.0018005272,-0.007600101,-0.005887754,0.0036056102,-0.0027380064,-0.0015639599,-0.0042612655,0.0059810635,-0.007833388,-0.0074900948,0.00752244,-0.006969922,0.002147739,0.00037155196,0.009658896,0.004231168,0.0020709774,0.0027508873,0.0023138376,0.0021940744,-0.0027327607,0.0040935543,0.006101825,0.008948587,-0.0007451675,-0.0012237407,0.006469679,-0.008466369,-0.0006551079,-0.0066726,0.00478538,-0.008944163,0.003246298,0.009011725,-0.0020764158,-0.008820263,-0.0081807,0.0032520664,-0.0053351233,0.0064464435,-0.0012058441,0.007852326,-0.0005088561,-0.0062357965,-0.005696685,0.0007731245,-0.004796372,0.0065751984,-0.003523069,-0.0056319404,0.0009535587,-0.0048635923,-0.00820929,-0.0052494393,-0.0018583147,0.00043274413,0.0036276875,0.0068663633,0.006718125,0.0058617904,0.0003086545,-0.0058119087,0.009000863,-0.00065051694,0.0047053955,-0.0014254131,0.0058092442,0.00529824,-0.007304739
모닝빵,-0.0027402593,0.00011607085,0.002044412,-0.0092926845,0.0048442828,0.003373025,-0.00017977168,-0.003489597,-0.0076096305,0.0075813015,-0.008608707,-0.0073829093,0.004456421,-0.00851505,-0.003278729,-0.0020919745,-0.0019002552,-0.0068414877,0.0043018274,0.000990112,0.003656513,-0.001317602,0.0069372696,-0.009539926,0.005834711,-0.005141714,0.0016889927,-0.006936526,-0.002483249,-0.006423082,-0.0033544688,0.009730095,0.0026877504,0.00159402,-0.006099853,0.0055990666,-0.008135347,-0.0023074048,-0.0064796438,-0.0063856007,0.0023017186,-0.0033063951,0.0024325293,0.0039289556,-0.0062589482,-0.0017469251,-0.0027541327,-0.009814185,-0.009831689,0.0011144767,0.0043919254,0.00025173146,-0.0048732953,0.0036236749,0.0016635545,-0.009437624,0.007183292,0.00778582,-0.0077426126,-0.0007751715,0.006038544,-0.0027814852,-0.00032315333,-0.0042315186,0.0061031673,0.006994144,0.0020959356,-0.0046944,-0.0018350381,-0.003990222,-0.009784396,0.007823836,-0.0006140321,-0.00059595064,0.0070990063,-0.009021732,0.0063317143,-0.007559543,-0.005358194,0.0050914767,-0.0035101813,-0.003497537,-0.006327016,-0.0039040684,-0.002669367,-0.0040928554,0.009446184,0.009466507,-0.0003643439,-0.0002853522,-0.005642348,0.007926429,-0.004953451,0.005906544,0.009120843,0.005766578,-0.0009486834,0.0055362517,0.0069457674,-0.0038825653
파스타면,0.00065973593,0.006548843,0.0058721784,-0.00019175044,0.0023830323,-0.006554684,-0.009351371,-0.0048995037,-0.005393837,0.0005763239,-0.0039519006,-0.00037748602,0.0075799646,0.009742728,0.007891488,0.0023734055,-0.0027473911,0.002410963,-0.0026614752,-0.008978394,0.0069138072,-0.008683934,0.0038093403,-0.003939009,-0.00558798,-0.0010421008,-0.006558476,0.008595902,-0.0068843416,-0.00898095,0.005745337,0.0044553666,0.00470365,0.0024316192,-0.003733749,-0.005132566,0.0017854467,0.008344165,-0.0056573185,-0.0024038237,0.0018429949,0.0067355786,-0.0063904678,-0.0045212978,-0.0026272738,0.0013074877,0.0053656613,0.005538072,-0.008698388,0.007311967,-0.0025028859,-0.0028454287,-0.008847965,-0.0057912134,0.009464369,0.0030773352,-0.008047649,0.0028096102,-0.0071146023,-0.009098157,0.0038397624,0.0020021463,0.0012180627,0.008824745,0.0062667266,-0.005065375,0.0027626224,0.0025889117,0.0023828151,0.008366743,-0.0069519295,-0.0022649558,0.0010342007,0.006388291,-0.0006651708,0.0079924725,-0.004639261,-0.009041197,-0.007087681,-0.0041192747,0.009574324,-0.0051411423,-0.0049036406,0.008183958,-0.007454222,0.0020108384,0.0057074837,-0.007516501,-0.00026313422,-0.0023625013,0.0055930824,-0.004530194,-0.006635669,0.009889278,-0.004591651,0.007583349,-0.008470747,0.007026453,-0.0033878966,-0.007843181
훈제연어,-0.0011726845,-0.0023692122,-0.0018354233,-0.0011517471,-0.0065143644,-0.0035566734,-0.003166917,0.007740993,0.005860575,-0.0008908573,-0.004818499,0.0052830637,-0.008839978,0.0016539877,0.003997662,-0.0019633302,-0.0045126854,-0.008221547,-0.008292146,0.0071021463,0.0036632381,-0.00039991023,0.009741566,-0.008548214,0.0005854106,-0.0004634911,-0.008093187,-0.009090822,0.007163967,-0.0036400177,-0.007908059,0.007950052,-0.006238177,-0.0031311032,0.0017676057,-0.0033355427,-0.007962398,-0.0039348844,-0.009032344,0.0013859012,-0.004633673,-1.7080629e-05,0.0027266059,-0.0023907812,0.008830396,0.007049778,-0.0005522472,-0.0006536404,0.00084034295,0.0067735696,0.008939782,-0.001948249,-0.0016068307,-0.0029610416,0.00051289535,-0.006496136,-0.0018712984,-0.008657436,0.00064367166,0.0014386186,0.0037233632,-0.002909923,0.005930173,-0.0070704073,0.009814237,0.00053363596,0.0023157105,0.00436916,0.00040595097,0.0026183068,0.0015980277,-0.009613404,-0.0031339098,-0.0025936991,-0.009288022,0.0034418572,0.004772656,-0.0020907992,0.0074202344,-0.0012115291,-0.0002769815,0.005781832,-0.0085262535,-0.0069102556,0.007342801,-0.006565013,0.008468546,0.005345323,-0.0080473265,0.008397851,0.00633416,-0.0067072916,-0.0084898,-0.008848993,0.0038312345,0.006315464,-0.002146265,0.0013222119,-0.008384226,-0.00515956
오리 가슴살,0.004704237,-0.009063847,-0.009237208,0.0010081172,-0.00858489,-0.006937902,0.00475309,0.008005556,-0.007359179,0.008106104,0.0093793655,0.0047118985,-0.004407264,0.009670248,-0.0077272262,-0.0038907623,0.0019339907,-0.007631515,-0.009873724,0.0028640972,0.0081810905,-0.005113397,-0.004290998,0.003909358,0.0006926203,-0.008534969,0.0065537454,-0.0031516338,0.0035830652,0.0031526624,0.008877898,0.008738623,0.0073114396,-0.008287576,0.0012087619,-0.0009641659,0.00087712647,0.008923398,0.004769644,-0.008924442,0.009811819,-0.00089119433,0.0003984976,0.004956163,-0.0062149502,-0.0004048431,0.0013757646,0.0070512546,0.0042809453,-0.0019390512,-0.008467414,-0.0038789595,0.008779056,-0.009491138,0.009846863,-0.00015376807,-0.001130408,0.009604236,0.009572595,0.008271392,0.008999089,-0.009984637,0.007504798,-0.009362416,-0.0077125942,-0.008828121,0.0021575845,0.007182187,-0.006305046,-0.0027143038,-0.0023575975,-0.004477767,-0.0013120138,0.004856006,0.003712654,-0.0032402086,-0.0037125517,-0.0023401594,-0.0032285023,0.003952539,0.009742404,0.007854058,-0.007559663,-0.0064487197,-0.009131934,-0.005930103,0.0036352968,-0.006019263,0.0016953301,0.008886543,0.0033359646,0.0011908842,0.00892278,0.006413332,-0.0014395047,-0.0062111234,-0.0010565401,0.007275797,0.007480532,-0.0040329886
소고기,0.009940382,0.0023985566,0.0051153116,-0.0056799627,0.004383002,0.00024275862,-0.009608107,0.005091155,-0.008994827,-0.006475859,0.0027766447,0.009279697,-0.0021225153,0.006983103,0.0050734226,0.0040669516,-0.006205685,0.0050804596,-0.008292402,-0.0043271556,0.0054647992,-0.008134489,0.005727767,-0.003479413,3.3159384e-05,-0.007347167,-0.0062552835,-0.0033116129,0.008591461,0.0053463136,-0.0097041875,-0.0065790694,0.0034439703,-0.008534272,0.0066432445,0.006170134,-0.009309466,0.008647726,0.00785161,-0.0017939933,0.0017978321,-0.0057023824,0.0061991736,0.0076901973,0.0040595173,-0.008865179,0.0049513825,-0.0030744579,-0.0021925569,0.006106758,0.0018391212,0.0046251924,-0.006281765,0.0052175797,-0.0035285943,-0.00038324518,0.006225809,0.0040685465,0.0074678343,-0.003925491,0.0035430249,0.0073040826,-0.0032937287,0.005769714,-0.009423694,0.008856683,0.0037658357,0.005305431,0.004659623,0.0045919917,-0.0033013278,-0.0062252018,-0.002275565,0.0013864699,-0.0029350503,-0.008457745,-0.006285582,0.00833217,0.009358511,0.0059611034,-0.0041093794,0.00066292525,-0.008586059,0.0066624708,0.0004436665,0.0073615527,-0.0053688874,-0.0028447856,0.0028641843,0.0034564037,-0.0065409364,-0.0073615857,0.0020330164,-0.009018606,0.005789512,0.0054689725,-0.003812156,-0.0056347162,-0.0083320495,-0.00189422
냉동참치,0.0069818916,-0.00020734234,-0.00795249,0.008879995,-0.008560214,0.0055598263,0.006456226,0.0009974191,-0.008691211,0.0061782347,-0.007839097,-0.0050328905,0.00961919,-0.008282924,-0.007643099,-0.004891828,0.0034671414,0.0019179032,-0.005580596,-0.0032842606,0.008606344,0.009768735,0.009931438,0.0010384086,0.004040674,0.0013726366,0.0016756043,0.004841944,0.0022103605,0.0002990746,-0.0031604657,-0.0065292874,0.008005531,-0.005979475,0.0027814542,-0.00093129,-0.0036395788,-0.004951857,0.0032251137,-0.0058601988,-0.0075076665,-0.0026358967,0.0046949578,0.006039678,-0.0014494626,0.007314774,-0.0076020947,-0.00473373,-0.007859195,-0.0060335603,0.007307822,-0.00928086,-0.00864674,-0.009827544,0.009208321,-0.002672891,0.0009983255,-0.006107397,-0.0025335148,8.545212e-05,-0.002507667,-0.0073713334,-0.006195011,0.002536798,-0.009486543,0.001142315,-0.002001229,0.008280498,-0.0003873748,0.0062136967,-0.0070916642,-0.0075705904,0.0055425046,0.00093085,-0.005098033,-0.002658439,0.008794921,-0.009191299,-0.0036870143,0.0009989333,-0.0002114487,0.009521062,-0.0019283199,-0.0071042865,-0.007671352,-0.009902259,-0.007820992,-0.0060248086,-0.0059597865,-0.0014020042,-0.00051748607,-0.0047355015,0.0021435362,0.003870964,0.009038422,-0.0046561505,0.005137719,0.00724639,-0.0037553145,-0.007438009
된장,-0.003343782,-0.0068664905,0.006504297,0.009399589,0.008302099,-0.008619323,0.005097496,0.0051535484,0.005628735,-0.008369036,1.125782e-05,-0.006876149,-0.008981397,0.002461021,0.009938998,0.006516266,-0.0071363174,0.0023476172,-0.003908189,0.009908609,-0.008794719,0.009760242,-0.006502695,-0.007028862,0.0015829465,-0.00065757096,-0.008524873,-0.0006117193,-0.00042631215,-0.0062792487,0.0057211407,0.0031523658,0.008431533,0.0073782103,-0.006679547,0.0047884095,0.005739945,0.005804391,0.0051754313,-0.004823713,0.0043245824,0.0013455156,6.294763e-05,-0.0064977226,0.0015403454,0.0052236556,-0.009220551,0.008632851,0.0030155748,-1.1552709e-05,-0.0033669935,0.00030882683,0.0061250976,0.0047726915,-0.0059632948,0.0078896675,-0.000634385,-0.008184367,0.008879634,0.0050754035,0.0036122259,0.007874857,-0.007532584,-0.00585347,-0.0020088532,-0.004066619,-0.0015896191,-0.0005372834,-0.008433507,0.0019564445,0.0025399367,-0.0007978903,0.004921274,0.0014911921,0.006002767,-0.0022183636,0.008512867,-0.0015685157,0.003036087,-0.0038314671,0.0061100116,0.003068349,0.00048251983,0.008783416,-0.007865019,0.009726397,0.0007856243,-0.0023473343,-0.004110651,-0.009083441,-0.0021911492,0.0027011756,0.0065506753,0.0090749115,-0.008735355,0.009062176,-0.008860023,0.0037245126,0.008023495,-0.0025585913
청국장,-0.007859052,-0.008330675,0.0011554572,-0.0007610052,-0.0095049245,0.0030865604,0.0022710087,0.004455034,0.0044270703,0.003232487,-0.009819831,0.005742536,0.0042516836,-0.00776539,-0.0021188043,0.00036006683,-0.0006398149,-0.00097114017,-0.0055402857,1.8829425e-05,0.00442006,-0.00067904446,0.00079730735,0.0020807828,-0.003978023,-0.007865621,0.009168771,-0.009794196,-0.0024887952,-0.0012656522,-0.0076744584,0.0017704628,0.007953417,-0.0015141491,0.008111272,0.00030112028,-0.005765214,-0.0019726132,-0.000731616,0.006245804,0.007119687,0.0061914464,-0.00598793,-0.0069777602,0.0060921577,0.0024627664,0.0053433017,0.00046182988,0.007866228,-0.008884012,0.0098755,-0.00824036,-0.001695963,0.0062836614,-0.009236842,0.004320828,-0.006971601,-0.006840845,0.0022987975,0.0017416236,-0.0027869197,0.007877987,-0.0070159878,0.0004645629,0.008728319,0.0020378376,-0.0068429597,0.003550244,-0.0050274907,0.00059102214,0.002853306,0.0075799795,0.0073838937,-0.0048906724,0.009522044,-0.005481371,0.007630043,-0.007971698,-0.00783483,-0.0011138218,-0.008153705,-0.003466282,-0.0005037072,-6.2121e-06,-0.009969309,-0.006519407,-0.0074185533,-0.00039224487,0.0051981956,-7.914345e-05,0.0099749565,-0.003888458,0.008046536,0.006093983,0.008262323,0.00010422014,-0.00042628715,0.0018926606,-0.009926036,0.0090511935
찹쌀가루,-0.0024043072,0.007564489,0.002028427,0.0028996982,-0.0012405007,-0.0099263815,0.0014085426,0.0029062042,-0.0098061,-0.0038933684,-0.0023498985,-0.0050757434,0.0039496156,0.0021046046,0.00434951,-0.0064705852,-0.006015337,0.004725249,0.0067768423,0.0055143046,0.0047937003,-0.007249257,0.008214536,-0.0069668666,-0.007668407,0.008531158,-0.0024848967,-0.009415997,-0.0031160964,0.0059793326,-0.0028795386,0.004936683,0.00013438961,0.004061962,0.0012037654,-0.009317783,-0.0036527729,0.008854192,0.0015489887,-0.005899316,0.0070218183,0.007466699,0.0072524813,5.895914e-06,-0.009150586,-0.0034972103,0.0051446077,-0.0065269154,0.009766281,-0.00976591,-0.008137736,-0.0053459397,0.0060352474,-0.00768199,0.008660537,-0.009879204,0.0035112947,0.0032997213,4.916899e-05,0.009556319,0.0051133763,0.00026460356,0.0048046685,0.0064328266,0.0030052867,0.009438691,-0.0013334012,-0.008373713,-0.0044979043,-0.0014484046,-0.007286867,-0.0015773331,0.0079723485,-0.0050081993,0.0051078172,0.00436887,-0.0006948406,0.0010824336,0.0057151406,-0.006646636,0.0039001212,0.008903894,-0.0035143932,-0.0076111136,-0.009213111,-0.0090288725,0.0038781764,0.0051141097,0.0070493435,-0.0014340655,0.0009985247,0.0030393582,-0.009889148,-0.009451006,0.004590044,-0.008387846,-0.0031778214,-0.0043095774,0.005902756,-0.0034437922
비엔나소시지,0.009971009,0.000578047,-0.005167746,-0.0036164555,0.0012671836,-0.0054017664,0.0073884437,0.009055611,0.0043040086,-0.0073658964,-0.0059653358,6.495329e-05,-0.0010410455,-0.005528687,0.007963941,0.006215977,-0.0042137434,0.002369594,0.0051434417,0.00239251,0.008591782,-0.0012884109,-0.0065236413,-0.0008244873,-0.008343481,0.009820533,-0.008656028,-0.0015351919,-0.0028833838,0.0031381757,0.0049608503,-0.00826863,-0.00438761,0.0005004414,0.0040020566,0.0051529547,-0.0013652864,-0.0006061823,-0.007841956,0.0045393393,-0.007678749,0.003272835,-0.0034131336,-0.0078017362,0.006889168,-0.00047737113,-0.009551931,-0.00938807,0.0005989589,-0.008157517,0.0037430946,0.0034858251,0.0033695109,-0.0056198356,0.007976499,-0.009000629,0.007480109,-0.0006530853,-0.0014791493,0.0039590932,-0.0025004207,-0.0044101365,-0.0024205819,-0.0062053767,-0.00039163974,-0.0053934557,0.0046124477,-0.009510018,-0.004362064,-0.009134345,-0.009628237,-0.00075400795,-0.008067092,-0.0056662415,0.002801406,-0.0014255097,0.0030985263,0.008283178,-0.0096403975,0.0060904333,-0.007969273,0.0065219295,0.007430976,0.008577143,-0.007965865,0.003307857,-0.0078483205,-0.0012440315,-0.005203965,-0.008529026,0.0049474947,0.0044508562,-0.0040717553,-0.007780408,0.0035734905,-0.0039126715,-0.008899199,-0.004392376,-0.0021896365,0.008747517
메밀면,-0.0064614927,0.0073547927,0.00612772,-0.004905788,-0.0017612347,-0.0025206392,0.0031319037,-0.00044135423,-0.0027580482,-0.009044841,0.0064305067,-0.009615839,-0.008671319,0.0013779738,0.0029742925,-1.0312696e-05,0.00035428067,0.0025742487,0.0018125923,0.0075417906,-0.0034411512,-0.0072405315,-0.00788255,0.007926347,0.0019245426,-0.005820683,0.0063845115,0.008457326,0.007937333,-0.0068531213,-0.0051421397,-0.0020233102,-0.0066238907,0.0047411467,0.0056622843,-0.005990366,0.007198358,-0.0076575866,0.0061998935,-0.0046555316,0.0019626399,-0.0032769525,0.0033888065,0.007730894,-0.0013824786,-0.004994697,-0.008565489,0.0036393886,0.004236897,0.0067116246,-0.00429234,-0.009737383,0.0068371347,-0.0045349244,0.00441966,0.008065192,-0.0039472394,0.0016300135,-0.0036019234,-0.006630117,-0.00569152,-0.00014206131,-0.00752218,-0.0020091315,-0.0024865551,0.0066991705,0.0013697612,0.0058843163,0.0038132116,-0.0035065128,-0.0051022973,0.009679343,0.0070847734,-0.009025476,0.0052544787,0.0082198735,0.009198587,-0.008054573,-0.0020245553,0.0010923472,0.0029034705,-0.0016275839,-0.0047259536,0.006467657,0.006944947,-0.0003918355,-0.00583963,-0.0043718345,-0.005139507,0.004266929,0.0005122947,-0.002347385,-0.009098969,-0.0014915948,0.006446105,0.006325643,0.0042147846,-0.002873349,0.009065133,0.0005822814
우유,0.0011095791,0.006204786,-0.00660104,0.006545638,0.009801095,0.0036508162,0.003431477,0.0042228666,-0.0019435656,-0.008092409,0.001477438,0.00090942,-0.006806572,0.001953832,0.005453686,-0.007200392,0.002512074,0.0077716648,-0.008631281,0.003486034,-0.0085645085,-0.007956793,0.0071125715,-0.0075819665,-0.0013702773,-0.007929401,-0.007887187,-0.0071262633,0.0003783477,0.0018008729,-0.007916099,-0.008058687,-0.003155126,-0.0018248743,-0.0061716656,-0.004220492,0.0036106245,0.0030715954,0.00657169,0.0042249733,-0.0008940249,0.0027714306,0.0090467995,0.0018970098,0.0018280928,0.001112145,-0.009285935,0.005336555,0.0050445553,2.0208294e-05,0.009234875,-0.0057026013,0.0032511875,-0.007817188,-0.008933178,0.0020042488,0.0047560153,0.0061017605,-0.008717978,0.004354857,0.0023825904,0.0041438597,-0.00067655783,0.0055354466,0.007289565,-0.008378088,-0.009936144,0.0070277383,-0.00097655755,-0.00937156,-0.00409688,0.0011949511,0.008429086,-0.0016663823,-0.001021696,-0.0073575308,-0.0076584565,0.0014701622,-0.000484934,-0.007688933,0.0008561442,-0.009006252,-0.0025102308,0.0042349133,0.0011090226,0.007832782,0.0065679085,-0.0011959588,0.0049680653,0.0061343918,0.008759037,0.009086232,0.0049049878,0.004607563,0.0072079324,-0.0015667913,-0.0056614135,0.008870358,0.0011944339,-0.005073438
칼국수면,-0.0008528624,-0.0052156905,0.009125508,0.003412362,0.0042797006,0.006501951,0.008184163,-0.0047638817,-0.006343397,-0.003737945,-0.0037251606,-0.009460021,-0.0006101411,-0.008110126,0.0097701745,-0.0034048911,-0.006325353,-0.008100941,-0.0035595773,-0.009550293,0.00078898,0.0054057455,-0.0028812666,0.0076652924,-0.0018917351,-0.007281984,-0.0031357252,-0.0031343647,-0.0070897066,-0.009690925,-0.0040846434,-0.0015982209,0.00499773,-0.007611378,-0.0049829874,0.0013862433,-0.0016459639,0.0035545288,-0.0018843596,0.004322102,0.007984675,-0.0079159485,0.0037756797,0.0059542847,-0.000570722,0.0067772577,-0.005426693,-0.004584587,-0.00785516,0.009489235,-0.009409774,-0.0032487032,-0.00043562203,-0.004844273,0.009470696,-0.0068297517,-0.008026751,0.009235452,-0.008323341,0.009700811,-0.0041096774,0.0056547183,-0.00040622524,-0.0040004537,-0.007508574,-0.00627854,0.0068697412,0.0063319597,0.00016735645,0.006416701,0.0038569134,0.003821862,0.0026821238,-0.009712438,0.0092567215,-0.008205506,-0.003018767,0.0014246737,0.005243615,-0.009212036,0.0017016472,0.006365579,-0.008787554,0.009548571,-0.0052119764,0.009565196,-0.0065246006,0.006597206,0.009385532,-0.009241456,0.00030980396,-0.0077328854,0.008123593,0.009577322,-0.0060525844,0.0008367595,-0.0022669903,-0.007774162,0.0008184188,-0.009929705
명란젓,0.002627566,-0.00769429,0.0056922385,0.007581295,-0.0025494797,-0.0040227873,-0.009603003,0.004938321,0.002917881,0.008760399,0.0032955832,-0.0029122045,0.0035696325,0.008620578,0.009243337,0.007655021,-0.008559009,-0.007585526,0.0072697876,-0.0074660536,0.0032634682,0.008017533,-0.0031993925,0.0067654937,-0.008168349,0.0064758165,0.005605061,0.003341019,-0.008128233,0.009152692,0.008246454,-0.0015708358,0.0041211913,0.0063836356,-0.0017308025,0.0054844115,-0.0040121484,-0.0012915469,-0.0012194881,-0.0041851527,-0.00072121527,-0.007707913,0.0036401248,0.009064686,0.0047876257,0.006399719,-0.004735835,0.0048679383,-0.006684852,-0.00494091,0.009869528,0.0063901837,-0.00498211,-0.0060773017,0.007215176,0.0027173662,0.0066017476,-0.0067658196,-0.0009927533,-0.0009412154,-0.00022319275,0.0022129223,-0.0067380792,0.0043848474,-0.0027663896,0.008375753,-0.001030395,0.00915043,-0.0008511683,0.005225922,-0.0075917584,-0.009103199,-0.00032248726,-0.0022602142,0.009983392,0.0045339325,-0.0055443463,0.0073673506,0.0005752306,-0.009570887,0.005716424,-0.002010873,-0.009440361,0.008696918,0.0072456566,0.0085650375,0.00036576187,0.0076835356,0.005197602,-0.00693925,0.009290673,-0.003564158,-0.00974441,0.008548268,-0.0053059123,0.008411158,-0.007853489,0.009258548,-0.005915861,0.0040073553
모시조개,0.009768233,0.0042126826,-0.002122687,-0.004962599,-0.009705439,0.0041628326,0.0074497336,-0.004700011,0.005919677,0.0068388814,-0.009050235,0.002084074,-0.0068879006,-0.0043501775,0.0008492761,-0.0070438744,-0.0041658613,-0.007530027,-0.007022717,-0.0069666686,0.00993276,0.00832275,-0.000180918,-0.0026209785,0.0062153633,0.0013665715,-0.009004097,-0.007101479,0.0009989751,0.007948772,0.0032001843,0.009830451,0.006557285,0.00028740268,0.008640378,0.009004711,0.008063699,0.0093889525,-0.009401976,0.0034601262,-0.007818374,-0.0071715056,-0.008424187,0.0032051266,-9.973355e-07,-0.006364304,0.0055440096,0.007907249,0.004308113,0.007844401,-0.0042879046,-0.0064224154,0.003983898,-0.0029301702,-0.0071883253,0.0036665935,-0.003317539,-0.0051818117,0.0026289278,0.006840694,0.006391147,0.00012386747,0.008661983,0.0029339707,0.0065500196,-0.00086370594,0.0021319652,0.006190588,-0.0098383315,0.0058653643,0.0012466696,0.006105922,-0.0014176235,-0.0026970047,-0.0055710226,-0.0028317985,-0.0025677516,-0.0051349374,0.0009185638,0.00800367,0.005139182,-0.007660325,-0.007463135,-0.0028908865,0.0038879558,-0.009336556,0.006110633,0.0031253851,-0.0028126822,0.009198513,0.008094134,0.0007240477,0.0048216144,-0.009297256,-0.00879348,-0.0029555424,0.009288352,0.0032314374,0.005615303,-0.0067901043
쇠고기 갈비,0.004244654,0.000394243,-0.00090871094,-0.0032468843,0.0049649705,-0.009100075,0.005117242,0.005664798,-0.0024323857,-0.0042004953,-0.0073921587,-0.0063741268,-0.005107111,0.0031485604,-0.0047958507,-0.0011987113,-0.0089231245,-0.0035099043,-0.0007830262,-0.007943585,0.0032513393,0.009753894,0.004390236,0.0018677425,-0.004867737,-0.0011340642,0.0022439922,0.0017373741,0.008812662,-0.0009337044,0.0069941627,0.0057853553,0.0030407237,0.0073225284,-0.004943963,-0.0039574946,0.006975311,0.008612566,0.0031548513,-0.004095361,0.0076402687,0.0027224899,-0.00022880554,0.008863419,0.004306618,0.0039514434,-9.162426e-06,-0.0089243995,-0.0031200552,0.0024350178,-0.0056078015,0.0071219015,0.0074460246,-0.008948368,-0.005382278,-0.0059847534,-0.0006573653,-0.0017979312,-0.002043196,-0.002209046,0.0035696542,0.009614757,-0.0045907237,-0.008283211,0.003741573,-0.00646013,0.0066858972,0.0026641977,-0.007862444,-0.0077554975,-0.009249691,0.0023520815,0.0027388847,0.002620188,0.00017423868,0.0010435843,0.003072989,-0.0015613401,-0.008032918,-0.000622654,0.0037065744,-0.0025938987,-0.0021317697,-0.0022502996,0.007268865,-0.003040421,0.009443572,-0.0038816214,-0.009971809,-0.006550921,-0.0043728175,0.0012447893,0.005123422,0.002129345,0.0090438975,0.00090072275,0.00563388,0.00016108275,-0.002117108,0.0062181307
바지락조개,0.0020196803,0.008274525,-0.008292252,-0.008759001,-0.00054677745,-0.0019290621,-0.0023289493,-0.0005974491,-0.005059884,-0.008045542,0.008238172,-0.0033506656,-0.0028675753,-0.0016817128,-0.0012323561,-0.009200391,-0.0017979555,-0.0013456817,0.008668641,-0.007990422,-0.0047548437,-0.001864531,0.0028758214,-0.0060059316,-0.0055485177,-0.007958476,0.005505364,-0.008724617,-0.0032738533,0.00029002674,0.0014175196,-0.009945165,0.008678114,-0.002063213,0.00032865955,-0.008775265,-0.0081713,0.003744277,0.004005453,0.0029824243,0.005851963,-0.0069402293,-0.0012457743,-0.002757662,-0.0013991027,0.0044605336,0.0013603333,-0.007462595,0.0032338968,0.006269688,-0.006112686,0.0032181973,-0.004308878,0.008846876,0.0041409787,0.0020386784,-0.0010300596,-0.009132339,0.008664351,-0.0018167398,0.007360087,0.0037613136,-0.008252678,-0.00064519333,0.002737489,-0.0025685343,0.009738448,-0.004984004,-0.007183402,0.0038175543,-0.003561733,-0.006865749,0.002043289,0.00527319,-0.005485576,-0.0043737413,-0.007194983,0.0015336635,-0.004786231,0.008441119,0.0007052879,0.0018631853,-0.0033425232,0.0074125784,-0.00065714784,-0.008223331,-0.0073547643,0.00021806627,0.007741478,0.0030899723,-0.0053053848,-0.00674459,-0.009852234,0.0039407443,-0.009485686,0.0032084836,0.0016594897,-0.00081032125,-0.0099557405,0.0058644526
비엔나 소시지,-0.00010971814,-0.009933838,-0.007516911,0.008568761,0.0018966038,-0.008208295,-0.0008122943,0.005423925,-0.009340514,-0.0068720314,-0.0010452861,-0.009797106,0.0004718932,0.0019297898,0.008550673,0.00097610464,0.0012904506,0.004873405,-0.004288297,0.0072248364,0.00018557707,-0.0006795515,-0.009703108,0.000512933,0.0067689964,0.001771801,-0.008101117,-0.0033514127,-0.0060741184,0.0060154754,-0.00647672,0.005248971,-0.005254548,-0.0068360595,-0.0075845923,0.0038310685,-0.008807592,-0.0057031857,-0.00707741,-0.0043348833,-0.00402756,0.0014843534,0.0065012774,-0.0012009692,-0.005486896,0.0015554691,0.0056243935,-0.0052651805,-0.005332301,0.005176309,0.0062779076,-0.00776503,0.008233253,-0.009864166,-0.0074387956,-0.0058811144,0.001811059,5.751009e-05,0.003468987,0.007007746,0.0047793854,-0.003222007,-0.0064442866,-0.008257306,-0.0004925755,0.009736405,-0.00766428,0.003680095,0.0043766103,-0.0043297475,-0.006974533,-0.005446081,-0.005035843,-0.0070003583,0.005939595,-0.007760737,-0.0029365122,0.0043968386,0.00018847485,-0.0076929913,-0.004717717,0.0035873945,0.0025186725,-0.0019650722,-0.0007251465,0.002529665,0.0014231537,-0.0026316931,0.0053495564,-0.0076692086,0.0064002774,-0.01000651,-0.0022574237,0.0066884593,-0.003598489,0.0065449052,0.0054237344,-0.0074070944,-0.00024429132,-0.0045030694
다진쇠고기,-0.008075482,-0.00086715363,0.0064079156,0.0087134065,-0.005019751,-0.0027287158,-0.006039925,0.0012030272,0.0026866249,-0.009860937,0.0023959936,-0.008805914,0.00038451928,0.00475155,-0.005241693,0.00024014407,-0.0022096229,-0.008730302,-0.0024145364,0.004434278,-0.00855654,-0.0059426026,-0.00050448795,0.008026652,0.001378064,0.009743776,-0.0077118333,0.008986212,-0.00476177,-0.0063745733,-0.007846613,0.0018244127,-0.0027437583,0.0075606424,-0.00050884765,0.002576454,0.005961578,-0.008651891,-0.002074614,-0.004819398,-0.008694709,0.00340972,0.0024049392,-0.0023990879,-0.0019113382,-0.0067532766,-0.0032482992,0.0012793893,0.007773838,0.0071088094,-0.0036072023,0.0035945878,-0.0025607564,-0.004763488,-0.0036363108,-0.006136548,0.0035267936,-0.007809433,-0.0075269886,-0.0045098187,0.007398564,0.0018046765,0.0054826373,0.008205181,-0.0062830597,-0.0046179933,0.0077026566,0.0049503734,0.004623615,0.009050051,0.0087942425,-0.0026492241,0.0010890904,0.0055183,0.008934299,0.009909856,-0.008255289,-0.005138013,0.004944072,0.0009603238,0.00014551211,0.0074806386,0.00635856,-0.0072357496,-0.0026158406,-0.008475244,0.007046828,0.002793732,-0.0021884788,0.001882375,0.0076901256,0.008134422,0.0061701774,0.0031601328,0.0015868684,0.008169378,0.0012756606,0.00041661857,-0.009564829,0.0025003422
크림치즈,-0.0084584085,0.0064659393,-0.0057889996,-0.001749748,0.00097571133,-0.0018810487,-0.0091232415,0.0039836857,-0.006571071,-0.008791465,0.0039116726,-0.0007597363,0.006510582,-0.007014059,0.0007800031,-0.0006863701,0.0057431636,-0.009730659,0.005930355,-0.0089796325,-0.0077836933,0.0007277668,-0.0026636957,-0.0038921558,-0.0053031812,0.004110781,-0.009324772,0.0011857295,0.004207884,-0.0002808547,-0.00049731135,0.0071674027,-0.009568313,-0.009012912,0.0044411705,0.008716597,-0.0077953767,-0.008309468,-0.0006421447,-0.009035908,0.0021205782,0.009235348,-0.006115714,-0.006756551,0.008912509,-0.0007598078,-0.0037440455,-0.002710942,-0.008751236,-0.0046275486,-0.004152931,0.0002486384,0.00069055316,0.0076253996,0.006827029,-0.001513685,-0.0099773165,0.0025944256,-0.0061124684,0.009107871,0.003804723,-0.0010059155,0.006605178,-0.0034930361,-0.0036861014,-0.00033020615,0.008414149,0.005936984,0.0015718043,0.0037699973,-0.0029827296,0.009259501,-0.007131692,-0.0032376682,-0.0053001177,0.008723732,-0.0031250536,-0.0023866785,0.007148211,-0.009705806,-0.0029008472,0.0028879035,-0.0062631345,0.008761252,0.0011675155,-0.005229591,0.0049298774,0.007981528,0.00092825294,0.0068175136,-0.006826265,-0.003618877,0.009936986,0.0056760465,0.0015955901,-0.0034937453,0.0044165375,0.002532475,0.00835822,-1.5807152e-06
채끝살,0.008586333,-0.0058470103,-0.0076200194,-0.0013915978,0.0029763065,-0.0020032774,0.00588306,-0.008387902,-0.009009511,0.0075695384,0.006351764,-0.0040732487,-0.004013719,-0.003572839,-3.31144e-05,0.009050772,0.0009463244,-0.0020457336,-0.003408554,-0.0020854801,-0.009197543,0.0068290653,-0.009034795,-0.003086155,-0.0071437326,0.009076667,0.0057773883,-0.00048712073,0.003915682,-0.002465225,0.0097883465,-0.0036169535,0.004864356,-0.0037954403,0.009570214,0.009528704,0.006235662,-0.00023500338,-0.0017109524,-0.008649757,0.009338218,-0.008455899,-0.006539042,0.005583733,-0.0022826528,0.007962952,-0.007873359,0.009199135,0.0022522237,-0.008563509,0.0039559477,-0.004955414,0.0063694525,0.006590453,-0.0087688435,0.0064503644,0.0052572354,0.0064846464,-0.007055127,-0.0065614567,-0.00885868,0.005269165,-0.0040170024,0.0048006102,0.0047693737,0.008115105,0.0022380166,-0.0010701147,0.0014452493,0.0029884344,-0.008774009,-0.005962715,-0.0009466194,0.0048991493,-0.00014424033,-0.009667695,-0.0006187744,0.007157135,0.0063203946,0.0034931193,-0.0045898193,-0.0037279392,-0.0020999408,-0.0060113682,-0.008592395,-0.0005681677,0.0018141078,0.004837302,0.0036222956,0.00857394,-0.006754456,0.009294306,-0.0033324065,0.0008089959,-0.0042518373,-0.004052396,-0.001481208,-0.0075210487,0.00896776,0.0045491057
꼬막,-0.0022590507,0.0019135146,0.007812958,-0.005617245,0.0038120318,0.000703001,0.0029002724,-0.0021388792,-0.009873773,0.0058846856,-0.001424395,-0.00831694,0.0007114091,-0.006171629,0.007680476,-0.0063978764,-0.0016495766,-0.00039420728,-0.004290446,-0.0034270405,0.007348787,0.0018474826,-0.009378862,-0.00027817435,-0.0095332395,-0.0031646492,0.0049610217,0.0037002163,-0.005738564,0.0014566426,0.005813973,-0.007501427,-0.0033781496,-0.0024586753,-0.008895292,0.002099962,0.006508678,0.0024415615,0.0023730134,-0.000805464,-0.0008093634,-0.0062648333,-0.0004970757,0.0065997024,0.0029672608,0.0005451198,0.007829965,0.0028002274,-0.0074195024,0.0073112734,0.009550955,-0.009081289,0.007231589,-0.007595164,-0.00035931522,0.0046117185,-0.0057418086,-0.007952833,-0.0072914665,-0.009891857,-0.0066696582,0.009553905,0.0029288393,-0.009063731,0.008501989,0.007215077,0.007863098,0.009611616,-0.0086760735,-0.0021946037,0.0020973848,0.0024135835,0.0048337877,-0.0077284733,0.004807907,0.009935536,-0.008957904,0.007893405,0.003207538,-0.00416028,-0.0015419212,-0.008511617,-0.0074822926,0.0055171694,-0.0031354958,0.009991883,-0.008015979,-0.007045518,0.0061422456,0.007878881,0.003685258,0.007235136,0.0064911186,-0.0057775723,0.008698277,-0.0063346797,-0.0028724358,-0.0059826258,0.0060911244,-0.004384386
스파게티,0.0030793685,-0.0015779523,-0.0012005151,-0.0058386168,-0.0057528745,-0.003611785,0.00030995137,0.0014929074,-0.0033152213,0.0019219951,-0.0056724674,0.009971498,-0.00083554,-0.0069504757,-0.0018403638,0.007942165,-0.0011211444,-0.005149335,-0.008056647,-0.005877557,-0.0032009848,0.0077307615,-0.0072193374,0.0014203523,-9.1396876e-05,0.0039380956,-0.007985193,0.007956508,-0.0028079078,0.005292282,-0.009516098,0.0050633075,-0.008232485,-0.0032597396,-0.001191771,-0.003617898,-0.0007130657,2.9294233e-05,0.0045099137,-0.0022617052,-0.0040177736,-0.0061739846,0.008334463,0.004593017,0.009118711,0.005477157,-0.0046283198,0.008281366,-0.0069494634,0.0030533907,-0.0033414643,0.0002709972,0.0037655665,-0.002827416,-0.0044086888,-0.0019499611,0.00053631293,0.00644675,-0.0058620186,0.004659797,-0.0037196,-0.007960859,-0.0056174775,0.0018370586,0.008759377,0.007874325,0.009192149,0.006902603,-0.002977725,-0.002387123,0.008801981,0.006506996,0.006025885,0.0069100154,0.0016638403,0.0023996015,-0.00821215,0.007543555,0.009410085,-0.0070742597,0.0011749364,0.008730993,0.0036196227,0.0070034754,0.0076184906,-0.0019037615,0.008852482,0.005986698,-0.00188505,8.6396976e-05,0.009711338,0.005837484,-0.006701102,-0.0034922068,-0.00347192,0.003134363,0.0010724494,-0.008611689,0.00217947,0.009604658
소분한 소불고기,0.0023373642,0.0043136547,0.00198446,0.008118995,0.008899806,0.0031369545,-0.0024375287,0.0036185503,-0.00772941,0.007998484,-0.004018433,0.009917193,-0.009609903,-0.0025771407,0.008901198,-0.004106003,-0.0019777212,0.005036908,0.009296972,-0.0003872404,-0.006797287,0.010007551,-0.009521367,0.0012442599,0.0055290633,-0.007829183,-0.0056494274,-0.00914805,-9.760977e-05,0.0049949884,-0.008232289,-0.0030983426,0.008399855,-0.0044658794,0.0031736412,0.003536928,-0.0035828643,-0.005168677,0.008321441,-0.0025557776,0.008962534,-0.0024268117,0.003066052,0.005606975,0.00056857325,0.004378645,-0.0059553487,0.008390451,-0.0016254685,-0.0044119246,0.005112361,0.009915868,-0.0056524854,0.00082094735,0.0043233363,-0.0027438356,0.0006653836,0.008805781,0.0077393255,-0.0064755925,-0.0032188045,0.009208926,-0.0003094692,-0.009592672,-0.00075214263,-0.00679553,0.0009327458,0.0008450098,-0.0044225785,-0.0045445743,0.008776141,0.0045977496,0.0026029043,0.0018750996,0.008233704,-0.004970079,0.006117917,-0.000983607,-0.007710244,-0.009689406,-0.0016879517,0.00811188,0.002177534,-0.008966751,0.0012281724,-0.0036390207,-0.0040692845,0.008152808,0.00585039,0.00036966437,0.0024598357,0.00089803286,-0.009943144,0.0029905387,0.0072004828,0.004007946,0.0024714654,-0.003549802,0.002331101,-0.007647363
위스키,0.004194874,0.0024267412,-0.0004116889,-0.00062710984,0.0026379526,0.002155755,0.0014956911,0.009166394,0.0035589382,0.0013637493,-0.0029087174,-0.0060591265,-0.009319062,-0.0032526478,0.0043819635,0.0075665223,0.0006309677,-0.004802389,0.0036067597,-0.003940233,-0.00073319953,0.00885509,0.008198083,-0.00040899572,-0.005976821,0.003696784,0.009784559,0.008661273,-0.0019706937,0.0071284305,0.009309448,-0.0095661655,0.008888376,5.51463e-06,-0.005194511,0.0037117836,0.008978056,-0.007253531,0.0068598217,-0.006475467,-0.0077868653,0.005507552,-0.004603321,0.0047491887,0.0073923105,0.009641244,0.0057355165,-0.00888588,0.003253053,-0.0089775035,-0.0003498687,0.009794283,-0.005106124,0.004123551,-0.0057402253,-0.008051332,0.008022332,0.0032155167,0.007349698,0.0029140867,0.0011567642,0.0036979862,-0.008429766,0.0066050477,-0.004494361,0.0046266676,-0.0054457956,0.0010350225,0.0040120683,-0.0024099993,-0.0075338264,-0.006025564,-0.009910209,0.009715451,-0.004382815,-0.0010092206,-0.009026989,-0.0045650457,-0.004956552,0.003020007,0.005629448,0.003481521,0.009837084,0.0019113655,0.00985402,0.0075636073,0.0027576392,0.0021794562,-0.007498872,-0.0023586429,0.005681099,-0.008130981,0.0022598603,-0.0076019075,0.009673701,-0.00010220392,0.0009066784,-0.0048029018,0.0060905498,-0.0071347007
쇠고기 불고기용,-0.007434741,0.00665385,-0.003360403,-0.00089387887,0.005373483,0.0045147114,0.0062397523,0.007083521,0.0056077586,-0.008946514,0.005131141,0.009121809,-0.0039962386,0.0010985538,-0.0032426547,-0.0034356548,0.008659359,-0.0002843468,0.0033919073,-0.0055492553,0.0057852375,-0.0033670482,-0.0049646012,0.0021809593,0.009689658,-0.006129086,0.0035213828,-0.0010364262,-0.0072366376,-0.004340639,-0.008240347,0.005570213,-0.0027310706,-0.0052000647,0.0009994258,0.004646046,0.009522022,-0.009742944,-0.00029550915,-0.001277865,-0.002700255,-0.00053760665,0.008112829,-0.0018809771,0.009335961,0.00035491065,-0.0010657624,0.006910358,0.006962756,0.00046346654,-0.0002886688,0.0063369465,-0.0038541476,0.0045791334,-0.00012667329,-0.006055389,0.0064493413,-0.004036959,0.0022138557,-0.0068771765,0.0026867,0.005582591,0.0050939554,-0.008094414,-0.0059648426,0.007152514,0.003116141,0.0011261026,-0.006241972,-0.0013654301,-0.009253496,0.0012984475,-0.0045471163,0.0007691563,0.004521998,0.0024205658,-0.0071350555,0.0008698155,-0.0067767487,-0.0038675207,0.0019030637,0.007970541,-0.00653329,0.0023476325,0.008151037,0.009904741,0.006129535,-0.0073827594,0.0038887502,0.008839805,0.004182851,0.0025478075,-0.0016069971,0.0035939678,0.004203624,0.008863848,-0.0038350185,-0.008776544,0.0065164706,-0.0062544653
시금치,-0.0006229165,0.0014609628,-0.0011941071,-0.004036927,0.00087756023,-0.009782722,0.0014268572,-0.004114326,-0.0057442295,0.0037573946,0.0014670645,0.0036354256,0.000864327,-0.009529247,0.010000294,-0.0035158126,-0.00226292,0.007151312,9.67155e-05,0.0030435598,0.002247532,0.0023937386,0.0068054553,0.0094593465,-0.0006053718,-0.0034278028,0.0045640944,-0.0083774235,0.008418307,0.0023970134,0.0059590647,0.0027684013,-0.0013008434,0.000981219,-0.004841522,0.0091211395,0.005060251,0.00363173,-0.005044527,-0.008692447,0.007968806,0.0029788339,-0.004271614,-0.008744484,-0.0039385604,0.0013543685,-0.009179541,6.287612e-05,0.0028380146,-0.009915482,-0.00014340288,-0.006100882,-0.003541436,-0.0016322017,-0.009994619,-0.003613986,-0.0069987737,-0.0073654735,0.0015923448,0.0023258512,0.009268283,0.008843335,-0.0064075263,-0.009249083,0.007875498,0.0054669883,0.0069397376,-0.0029265864,-0.005266054,-0.00452541,-0.008344734,0.00592048,-0.0034044224,0.008665421,-0.0056765443,0.009686861,-0.0045071794,0.008677973,-0.0054850755,-0.0075490316,0.007636076,-0.009791181,-0.008825299,0.0049828836,-0.009774538,0.0052842097,0.0036647955,-0.007005482,0.0032007014,0.0014820747,0.008690482,0.0029094422,-0.005170395,-0.0023257807,0.006889737,-0.0066040587,0.009281465,-0.003211497,-0.0046402933,-0.004378436
마라소스,0.0030799531,-0.00985507,0.003213998,-0.004502896,0.009679796,-0.0050649387,-0.008017958,0.00352897,0.008983564,0.002741784,-0.002277974,0.0035056735,-0.008920782,-0.0041692355,-0.004397267,0.0018888591,-0.0063112224,-0.0076013263,-0.006522577,0.0053106453,0.0027706036,0.008804087,0.0023284054,0.0052982406,0.0043392777,0.0046440247,-0.004965289,0.0014064274,0.00026768894,0.0052499864,-0.006617868,-0.0007071165,0.004017019,-0.004875252,-0.008520577,0.0055983583,-0.0008560035,0.0003394823,-0.0060869157,0.008512128,0.0009145494,0.0017329972,-0.0003814599,0.0006696281,0.005793065,-0.009234272,0.0023451762,-0.005603413,0.009473504,0.004375888,-0.005501473,-0.0012227001,-0.0055344356,0.008502093,0.009096601,0.0023049589,0.009661038,-0.0047298158,0.0028176415,-0.005094004,-0.008787695,-0.00417748,-0.0014101351,-0.005662311,-0.0045715417,0.00064478157,-0.0001287945,-0.008305386,0.0069455877,0.0015759622,-0.009515513,-0.0014451747,-0.007581316,0.0075824196,-0.0010301359,0.007839787,0.00505978,-0.0040582214,-0.009093882,-0.0061560776,0.008864496,-0.0015628728,-0.00032108848,0.00015010173,-0.008268097,0.0042057,-0.008212786,0.009443508,-0.008116747,0.007887623,-0.0019619812,-0.0020501057,-0.0022996156,0.00097623543,0.0024532657,0.0016435258,-0.0005856065,0.007600927,-0.00645483,-0.007905646
만가닥버섯,-0.00718507,0.0063404515,-0.001958247,-0.004775141,0.0049864436,-0.007929385,0.0029144078,0.00966657,0.006934116,-0.0030689703,0.0024117737,0.0049587316,0.009570237,-0.00273216,0.0013479186,-0.004213314,-0.003210908,0.0008437278,0.0022149237,-0.0053631146,0.0042567383,-0.0051163714,-0.0045824866,-0.008957814,0.007639735,0.00428505,-0.0022212286,0.008458899,0.0019341416,-0.009910092,-0.007785575,-0.004254848,-0.007308209,0.00738901,0.0050430275,0.0020536005,-0.0006349465,-0.007442622,0.0061051827,-0.005243053,-0.0027125336,-0.0058253957,-0.0021787994,-0.009333426,0.0032832122,-0.0074548847,0.00673037,-0.0074471473,-0.005882127,0.0001286411,-0.007955637,0.0053440533,-0.004226324,0.00034108164,0.007790015,0.0031293735,-0.00018496612,0.007679817,-0.00016697716,0.0056029917,0.005991794,-0.008042391,0.0019167102,-0.009497896,-0.001393405,0.0086342925,-0.002434743,-0.004752147,0.0027738628,0.0073147956,0.0065661236,-0.0064809737,0.0070550265,0.007604933,-0.0053501544,-0.0011487361,-0.00059566274,-0.009426154,-0.0024292555,0.009792952,-0.0026497946,-0.0076635005,-0.0043290546,-0.009498111,0.0019597341,0.0060248645,0.00072048686,-0.0034519506,0.009528918,-0.009387463,-0.00450562,-0.009742752,0.009570854,-0.001851601,-0.005324104,-0.00790816,0.00823002,-0.0029671744,-0.005822938,0.003698187
