,0,1,2,3,4,5,6,7,8,9,10,11,12,13,14,15,16,17,18,19,20,21,22,23,24,25,26,27,28,29,30,31,32,33,34,35,36,37,38,39,40,41,42,43,44,45,46,47,48,49,50,51,52,53,54,55,56,57,58,59,60,61,62,63,64,65,66,67,68,69,70,71,72,73,74,75,76,77,78,79,80,81,82,83,84,85,86,87,88,89,90,91,92,93,94,95,96,97,98,99
밥,-0.00055358117,0.00028430624,0.0051094415,0.009057931,-0.009270186,-0.007202169,0.006511348,0.009137347,-0.005145913,-0.0037429568,0.007355638,-0.0016251327,-0.004582935,0.0066042845,-0.0048887692,-0.0018731641,0.0028751153,0.0010103476,-0.008377317,-0.009603733,0.0073639215,0.0050959685,0.006733328,0.00075901335,0.00635548,-0.0034542475,-0.0009828112,0.005708539,-0.007589914,-0.003984383,-0.0075503644,-0.0008454728,0.009673767,-0.007411162,-0.0023591537,-0.0018473922,0.008024933,-0.0059486777,-3.7580583e-05,-0.0048195757,-0.009553147,0.004936922,-0.008783475,-0.0043671336,8.834582e-05,-0.0003894732,-0.0076322067,0.009540895,0.0050513656,0.009246859,-0.008147937,0.004462416,-0.0040778345,0.00084275374,0.008461876,-0.004462939,0.004505219,-0.0068883607,-0.003644028,0.009479013,-0.0015103542,0.00032674326,-0.0041223336,-0.007734577,-0.0016235902,0.0025242472,-0.0008375119,0.0056299334,-0.0028785144,0.0023284545,0.0054868446,0.008390611,-0.0014633144,-0.009234354,0.0044248356,0.0006213326,0.007418849,-0.00079232873,-0.002675365,-0.008735636,-0.0008748847,0.0027852284,0.0052853087,0.0070995074,-0.0057884064,0.0019010901,0.0061104535,-0.004704451,-0.0030795482,0.006832225,0.0017456772,0.00017139656,0.0035146647,0.0002967525,0.0097380765,0.005110627,-0.008918243,-0.007138663,0.0009505525,0.006419405
감자,-0.008635374,0.0036759202,0.0051581548,0.0057553877,0.007478698,-0.0061669606,0.0011267085,0.006086565,-0.0028470797,-0.006159973,-0.00041056125,-0.008372339,-0.005608102,0.007132912,0.0033266544,0.0072054686,0.006781749,0.007579646,-0.0038375177,-0.00058663473,0.0023378083,-0.0045178984,0.008355834,-0.009838671,0.006735843,0.0029236285,-0.00493089,0.0043634907,-0.0017494558,0.006721865,0.009947283,-0.0043459944,-0.0005583599,-0.0057324083,0.0038451764,0.0027933777,0.006884868,0.006127297,0.009545758,0.009229548,0.007922832,-0.007003863,-0.009172716,-0.00035017513,-0.0030514994,0.007893427,0.005944037,-0.001561631,0.0015166744,0.001773679,0.007804509,-0.009517048,-0.00018136391,0.0034797187,-0.0009520563,0.008378302,0.008982491,0.0064893514,-0.0007511558,0.007738204,-0.008544836,0.0031876918,-0.0046193833,-0.0051079723,0.0035435224,0.0053793504,0.007783964,-0.0057279835,0.007414432,0.0066934368,-0.0036826367,-0.008758505,0.0054213973,0.006490655,-0.0007502112,-0.006707614,-0.0070818723,-0.0024852497,0.0051314523,-0.0036715115,-0.009392229,0.003799161,0.004833612,-0.006416239,0.0011716341,-0.0020921521,4.9342743e-05,-0.009867276,0.00269634,-0.0047529754,0.0011190029,-0.001609775,0.0022082997,-0.0078681875,-0.0026948694,0.0027086532,0.005359423,-0.0024102146,-0.009512611,0.004546033
달걀,9.406241e-05,0.0030729824,-0.0068572257,-0.0013145066,0.007674315,0.007318376,-0.003623635,0.0027117587,-0.008368606,0.0062217377,-0.004641628,-0.0031717273,0.009291558,0.00089848763,0.007466449,-0.0061223707,0.005173764,0.009958163,-0.008525942,-0.0052041053,-0.0070509757,-0.004839607,-0.003770332,-0.008538779,0.007935068,-0.0048524756,0.008415715,0.0053121313,-0.0066507324,0.0039566616,0.0054460717,-0.0074424255,-0.0073287454,-0.0025207044,-0.008666133,-0.0015453404,-0.00042923936,0.0033131547,0.0014032637,-0.00092999876,-0.005642593,0.0017030864,-0.00092598924,0.006807949,0.00407664,0.0045337407,0.0014393762,-0.00276283,-0.0043317084,-0.0009992727,0.0014106093,-0.002654606,-0.0070435726,-0.007804876,-0.0091368165,-0.005926658,-0.0019024629,-0.004378232,-0.0065188957,-0.0036624805,0.0043241763,-0.0037635048,0.008423614,0.0014996132,-0.0072951335,0.009472496,0.0076019955,0.0055330996,-0.006904546,0.005861945,0.0040440494,0.005197746,0.0042841015,0.0019247517,-0.0031241467,0.008371223,0.009645235,0.0037583034,-0.002827272,-4.970766e-05,0.0011700613,-0.0085385805,-0.008350979,-0.00020387808,0.001212655,-0.0057638106,-0.004735391,-0.0073374966,0.008388239,0.00010916519,-0.004428633,0.005656416,0.009256412,-0.004073439,0.008021021,0.0053881877,0.005883672,0.0004665591,0.008256333,-0.0070511545
새우,-0.008243367,0.009297866,-0.00019905102,-0.0019726441,0.0046112295,-0.004096103,0.0027520542,0.006937237,0.00606693,-0.0075132404,0.009378126,0.0046639103,0.0039696223,-0.00625295,0.008456662,-0.0021482978,0.008831492,-0.0053473227,-0.0081335595,0.0068126735,0.0016749813,-0.0021959448,0.0095086675,0.0094840955,-0.009765289,0.0025097367,0.0061467555,0.0038643095,0.002016321,0.00042444974,0.0006849746,-0.003812174,-0.00713919,-0.0020892108,0.0039223763,0.008808459,0.009253415,-0.005973772,-0.0094029065,0.009760095,0.0034293623,0.0051604416,0.006289801,-0.0028057068,0.0073275557,0.0028280248,0.0028724745,-0.002391502,-0.0031319028,-0.0023587863,0.004269859,6.4069085e-05,-0.009582852,-0.009660042,-0.0061589614,-0.00012300399,0.0019865313,0.00942095,0.0055736513,-0.004293541,0.0002820187,0.00497488,0.007716247,-0.0011412572,0.004320375,-0.005814513,-0.0008077958,0.008103055,-0.0023534952,-0.009667072,0.0057837926,-0.003934899,-0.0012215867,0.009981903,-0.0022527673,-0.004756203,-0.005336539,0.0069826595,-0.005707283,0.002119009,-0.0052622044,0.006111475,0.004341059,0.0026100706,-0.0014922224,-0.0027425343,0.008988374,0.0052195927,-0.002162423,-0.009479634,-0.0074149724,-0.0010612516,-0.00078994915,-0.0025603822,0.009695196,-0.00044892865,0.005870401,-0.0074561806,-0.0025141633,-0.005552956
김밥용 김,-0.007150152,0.00125118,-0.007209815,-0.0022203352,0.0037449913,0.005799819,0.001200393,0.0021779793,-0.0041442267,0.0072750715,-0.006342847,0.004624027,-0.008236559,0.002047887,-0.0050075934,-0.0042903693,-0.0030783284,0.0056425226,0.005771409,-0.0050175586,0.0007884626,-0.008481849,0.007823583,0.00926994,-0.0027364807,0.00080060837,0.00076904806,0.0054605124,-0.008634382,0.00061596633,0.0068853647,0.002214531,0.0011631612,-0.009344307,0.00845365,-0.0062572565,-0.0029579387,0.003496514,-0.0007961246,0.0013662889,0.0017765104,-0.006886513,-0.00973182,0.009047196,0.0062199305,-0.0068804054,0.0034042024,0.00019078102,0.0047815205,-0.0071378592,0.00401755,0.0043020803,0.0099705765,-0.0044720257,-0.0013948657,-0.007293486,-0.009729434,-0.009111668,-0.0010552374,-0.0064682276,0.004854537,-0.0061696665,0.0025346628,0.0007451061,-0.0034055226,-0.0009392923,0.010021551,0.009186308,-0.0044881194,0.009138297,-0.0056456355,0.0059399474,-0.003088343,0.0033875224,0.0030281858,0.006894139,-0.0023876019,0.008787722,0.0075776163,-0.009566426,-0.008048583,-0.007674959,0.0028712805,-0.002763941,-0.006951845,-0.008132793,0.008293695,0.0020043764,-0.009327394,-0.00481531,0.0031791765,-0.0047046323,0.005301092,-0.004227472,0.002670166,-0.008050384,0.0062690075,0.0048168777,0.0007834087,0.0030222316
오징어,-0.008746769,0.0021783519,-0.0008495728,-0.009329593,-0.009396868,-0.0014610584,0.004486756,0.0037813282,-0.006604051,-0.0069045313,-0.0050142035,-0.002325955,-0.0072883093,-0.009596433,-0.0027616245,-0.008346849,-0.006038214,-0.0056833713,-0.002395909,-0.0018474562,-0.008999039,-0.0007058572,0.008183167,0.007658141,-0.007263629,-0.003640735,0.0030818938,-0.009627795,0.0014462312,0.006561944,0.00573364,-0.00872663,-0.004475065,-0.008165647,9.151144e-06,0.009357573,0.005951326,0.005083361,0.005011031,-0.0033130047,0.009621477,-0.007405211,-0.0072663585,-0.0022584398,-0.000752856,-0.0032230795,-0.00058978423,0.0074486234,-0.00066312024,-0.0016150812,0.0027602185,-0.0084059695,0.00790707,0.008582392,-0.009643951,0.002472143,0.009936479,-0.00770095,-0.007054242,-0.007677568,0.008408396,-0.00066323637,0.009189601,-0.008219521,0.0037053432,0.0026405142,0.00072772737,0.0023650012,-0.0075388555,-0.0093636885,0.0023947791,0.006164827,0.008005833,0.005772089,-0.00071848056,0.008315022,-0.009370541,0.0033739249,0.00025862746,0.003879238,0.007419591,-0.0067614075,0.005536023,-0.00952921,-0.00081895845,-0.008685609,-0.005107822,0.00941762,-0.0018238873,0.0029578912,0.009193203,0.009018653,-0.008218148,-0.0029527876,0.009925264,0.0051602367,-0.0015632573,-0.00877132,0.002967988,-0.00668362
전복,0.008144738,-0.0044267178,-0.0010778088,0.0010019353,-0.0001744248,0.0011207088,0.0061440044,3.2536227e-05,-0.0032545244,-0.001534518,0.0058927964,0.0014896903,-0.0006993649,0.009350539,-0.0049622776,-0.0008504524,0.00921551,0.00675555,0.0014944946,-0.008902661,0.0011634637,-0.0022702427,0.009369328,0.0012254382,0.0014904272,0.0024354912,-0.0018530376,-0.0050293277,0.00019610937,-0.0020096062,0.0066069933,0.008959999,-0.000661089,0.0029711307,-0.0061309263,0.0017154046,-0.006923918,-0.008693152,-0.0059063523,-0.009026143,0.007292,-0.005811497,0.00829147,-0.0072631068,0.0034285716,0.009695595,-0.007809355,-0.0099688,-0.004309638,-0.0026861124,-0.00027207105,-0.008845947,-0.008612176,0.0027959694,-0.0082165385,-0.009039737,-0.0023409212,-0.008646479,-0.007095836,-0.00841705,-0.00029042168,-0.004566416,0.006652251,0.0015225799,-0.003358558,0.006151773,-0.006025739,-0.0046372167,-0.0072247805,-0.0043426226,-0.0018155859,0.006479098,-0.0027591854,0.0049231676,0.006934034,-0.0074680545,0.004555146,0.006131429,-0.0029737686,0.0066459547,0.0061306604,-0.006457993,-0.0067997985,0.0025490618,-0.0016141185,-0.006066145,0.009516563,-0.0051133204,-0.00654831,-0.000114409915,-0.0026598938,0.0004497823,-0.0035325647,-0.00039688047,-0.000695295,0.0008411778,0.00820556,-0.005764494,-0.001666804,0.0055969884
쌀,0.008179259,-0.004393156,0.008978115,0.008282131,-0.0044307658,0.0002698685,0.0043142904,-0.0038884175,-0.005607337,-0.0065199835,-0.0006765653,-0.00034074896,0.0044559394,-0.0024758673,-0.00020437912,0.0024506676,0.0048624626,-2.6430358e-05,-0.0063738534,-0.009332056,6.599704e-05,0.0066509005,0.001433546,-0.008973368,-0.00795811,0.00655419,-0.0038042944,0.006220651,-0.0066974075,0.008465101,-0.0065568057,0.0033441074,-0.0010161541,-0.006809078,-0.0033090622,-0.0011288908,-0.0054909,-0.0012013641,-0.007600037,0.0025963401,0.009112729,-0.0023663552,-0.00095447,0.0035204785,0.008737096,-0.0059592165,-0.006881163,-0.0029594814,0.009155595,0.00087646657,-0.008693417,-0.001454505,0.009515131,-0.0075582415,-0.005356342,0.009333734,-0.008987224,0.0037706525,0.00061235554,0.006667335,0.008334618,-0.0028549111,-0.0039561694,0.008848029,0.0020345259,0.006252422,-0.009462378,0.009635599,-0.0014089962,-0.0060141613,0.003025544,-0.00044714878,0.004703962,-0.0022769026,-0.004108965,0.0023055957,0.008342826,-0.0050041606,0.002644716,-0.007984297,-0.0067816447,-0.00050024345,-0.008807238,0.0028203807,0.001577327,-0.0022953427,0.005025406,0.009794273,0.008464472,-0.0018734835,0.0021060253,-0.004011583,-0.0082678795,0.006300873,-0.0019137852,-0.00066206296,-0.0017612188,-0.004556228,0.0040619886,-0.004248951
쇠고기(불고기용),-0.009578361,0.008965886,0.0041689393,0.009239119,0.006639429,0.0029092685,0.009815889,-0.0044045616,-0.006827425,0.004236295,0.003709637,-0.0056760386,0.009698686,-0.0035483115,0.009532342,0.0008115841,-0.0063348417,-0.0019724362,-0.007392779,-0.0030076837,0.0010488401,0.009489911,0.009354752,-0.006589811,0.0034766544,0.0022697947,-0.0025109295,-0.009245038,0.0010120119,-0.008160782,0.0063179433,-0.0057802373,0.0055593606,0.009823091,-0.00015931689,0.004546205,-0.0018258432,0.007363984,0.003924155,-0.009036913,-0.0023951407,0.003608705,-9.642911e-05,-0.0011992828,-0.0010387722,-0.0016918727,0.0006018587,0.0041537313,-0.0042549158,-0.0038295502,-6.26321e-05,0.0002545335,-0.00014464934,-0.004780383,0.004311811,-0.0021658482,0.0020890152,0.0006409678,0.005953579,-0.006845824,-0.006805753,-0.004487686,0.009439425,-0.0016017319,-0.009427531,-0.00054281787,-0.0044320677,0.006014941,-0.00961396,0.0028725239,-0.009249474,0.0012578248,0.0060013863,0.007394923,-0.007606092,-0.006037691,-0.006848522,-0.00791967,-0.009493539,-0.0021274837,-0.00084710115,-0.0072698756,0.006761063,0.0011330941,0.005802261,0.0014696963,0.0007844877,-0.007356478,-0.0021752706,0.004326457,-0.0050623645,0.0011226005,0.0028762724,-0.0015509062,0.009939092,0.008349677,0.0024260592,0.0071214484,0.005902443,-0.0055726697
다진 돼지고기,-0.0051854383,-0.006673558,-0.0077769575,0.008331385,-0.001968004,-0.0068516308,-0.004148932,0.0052274982,-0.0028896776,-0.003732364,0.0016126466,-0.0027646,-0.0015874295,0.0011186969,-0.0029874358,0.008526212,0.00393591,-0.009968785,0.0062666824,-0.0068169693,0.00074370403,0.004389209,-0.0051127863,-0.0021082142,0.008118927,-0.004270487,-0.0076418496,0.009254013,-0.0022028629,-0.004719541,0.008559603,0.0042838007,0.0043772957,0.009279185,-0.00846733,0.005291968,0.0020150226,0.0041822977,0.001673671,0.0044125845,0.0044907625,0.006077857,-0.003209262,-0.0045917444,-0.00038723578,0.0025291187,-0.003245439,0.0060532857,0.004156556,0.0077960514,0.0025628086,0.008139105,-0.0013994909,0.008101015,0.0037143924,-0.008023414,-0.0039420635,-0.002464119,0.004854614,-0.0008779949,-0.0027986162,0.0078007197,0.009369419,-0.0016176988,-0.0052016545,-0.0047030956,-0.004806641,-0.009581963,0.0013417935,-0.0042212065,0.002566329,0.005655828,-0.004092378,-0.009615412,0.0016121169,-0.006710202,0.0024852187,-0.0037653318,0.0070929043,0.0006399335,0.003594143,-0.0027681286,-0.0017563459,0.0076687206,0.0014051269,-0.0058688247,-0.00782859,0.0012760622,0.0064800293,0.0055754683,-0.008948619,0.008600612,0.0040492755,0.0075091645,0.009764752,-0.0072462023,-0.009056076,0.00580054,0.009434318,0.0034896717
바지락,0.0070940484,-0.0015382939,0.007954092,-0.009482986,-0.008021183,-0.006657538,-0.0039909626,0.004998848,-0.0038455126,-0.008310846,0.008394667,-0.0037599776,0.008600449,-0.0048848977,0.0039048952,0.0049120644,0.0024074866,-0.002814067,0.0028366966,-0.008304719,-0.0027757364,-0.002583119,0.0072553125,-0.0034706646,-0.0066248183,0.0043441844,-0.00047700596,-0.0036108466,0.0068544038,0.0038668655,-0.0039089806,0.0007785587,0.009172357,0.007744833,0.006352209,0.004680313,0.0023773497,-0.0018417523,-0.006379918,-0.00032645938,-0.0015592638,-0.0005833107,-0.0062645446,0.0074454,-0.006563559,-0.007242328,-0.0027510484,-0.0015373781,-0.007640256,0.00070421485,-0.005344942,-0.0012717148,-0.0073531433,0.0019663584,0.0032599494,-2.3616281e-05,-0.0054584704,-0.0017502803,0.0070634102,0.0037368063,-0.008866785,-0.0034126788,0.0023543886,0.002144679,-0.009474293,0.004574975,-0.008655617,-0.0073712273,0.0034614222,-0.0034446972,0.0035719338,0.008901516,-0.003581828,0.009331504,0.001735546,0.009854881,0.005687424,-0.009139275,-0.003316712,0.006529655,0.0055897944,0.008700458,0.0069079543,0.008029327,-0.00982743,0.004295666,-0.0050156964,0.0035439362,0.006058394,0.00440298,0.0075302934,0.001478623,-0.0012705454,0.0057622218,-0.0056303036,4.5204964e-05,0.009470182,-0.0054903193,0.0038189732,-0.008120512
마늘,0.009779647,0.008180741,0.001279259,0.005093012,0.0014181061,-0.006468856,-0.0014034971,0.0064658104,-0.004647289,-0.003985999,0.004926971,0.0027168947,-0.0018453092,-0.0028660172,0.006002155,-0.005716006,-0.0032258576,-0.006493826,-0.0042528515,-0.008616648,-0.0044591636,-0.008493979,0.0014052688,-0.0086207185,-0.0099185845,-0.008193336,-0.006776486,0.006672561,0.0037743065,0.00036037818,-0.0029627916,-0.0074203657,0.0005454399,0.0004995424,0.00019314309,0.00086946,0.00078058796,-7.64336e-05,-0.008021093,-0.005882192,-0.0083810175,-0.0013359827,0.0018236968,0.0074234037,-0.0019393673,-0.0023216573,0.009487377,6.881112e-05,-0.0024043128,0.008610099,0.002687421,-0.0053379885,0.0065892567,0.0045123417,-0.0070485543,-0.00034137387,0.0008375609,0.0057481066,-0.0017492399,-0.0027953465,0.0017524132,0.0008545208,0.0011896342,-0.0026192514,-0.005984904,0.007342174,0.007587186,0.008299603,-0.008624642,0.0026624172,-0.0035594455,0.009599327,0.0028947918,0.004643061,0.002389605,0.006606671,-0.0057415715,0.00789118,-0.0024017233,-0.0045621796,-0.0020609957,0.00973541,-0.006887844,-0.0021950346,0.006998242,-4.6929083e-05,-0.00627621,-0.0063741063,0.008961821,0.006435633,0.004790345,-0.0032688123,-0.009263138,0.0037967972,0.0071453704,-0.0056225527,-0.007846395,-0.0030053677,-0.0049235933,-0.0023207704
닭다리살,-0.001959016,-0.005229014,0.009439072,-0.009314082,0.004540931,0.0053570345,-0.0013765342,0.0091239335,0.009828096,-0.005447976,-0.0060424684,-0.0068159318,-0.007931994,-0.002992298,-0.005616302,-0.008369935,0.00080260006,0.003002767,0.006336215,-0.002726199,-0.0044309115,0.0012884103,0.00038581327,0.008136836,0.000189205,0.0072380225,-0.008299368,0.008378922,-0.0019226095,0.008711923,-0.007615699,0.0018085835,0.0011262477,2.1700637e-06,-0.005113124,-0.009176412,-0.0072635473,-0.00796589,0.0018853972,0.00039003926,-0.0017942425,0.007074224,-0.0024771832,-0.0013648847,-0.0088673,-0.009944042,0.008967082,-0.005777012,-0.0063403887,0.0052284477,0.0066755307,-0.006883983,0.0009877455,-0.0059895026,0.0016015559,-0.0042541334,-0.003446151,0.0021192716,0.008583698,0.006729751,-0.009670295,-0.0056145824,0.007913849,0.001927346,-0.004316566,0.000635903,0.009536469,-0.0010688071,-0.009520198,0.0016459826,0.0062298696,0.006308998,0.004127196,-0.005671615,-0.0003479316,-2.0776868e-05,0.0045217094,-0.008044399,-0.008053167,0.00028409177,-0.0086261155,0.005772046,-0.00048571054,0.009986833,-0.005406206,-0.00042433018,0.0077422583,-0.004037111,-0.004982072,0.0016313972,0.0027137967,-0.0025533305,0.0064632585,-0.0076413243,0.0034450586,0.0005081895,0.008738609,0.0059007206,0.0068181376,0.007818852
알새우,-0.009505649,0.009621026,-0.0077912854,-0.0026214446,-0.0048932238,-0.004985948,-0.007994713,-0.007715523,-0.004635688,-0.0012744591,-0.0051083914,0.0060824477,-0.0095221205,-0.005297238,0.009429588,0.006965408,0.0076783984,0.004226261,0.00045630717,-0.006052939,0.0060134036,0.0026646852,0.0076995813,0.0063778516,0.007923452,0.008651223,-0.009921966,-0.006800829,0.0013156504,0.006443264,0.007352771,0.0055221794,0.0076935096,-0.0051442753,0.0065718316,-0.0040339823,-0.009057395,0.009156954,0.0012861291,-0.002814696,-0.0024362158,-0.0042536147,0.0048151975,0.004438111,-0.0026203843,-0.0073559335,-0.0035502792,-0.00034468315,0.0061276713,-0.0028421313,-0.00013360409,0.00083228556,-0.0070445463,0.0020637177,-0.001472662,0.0028262273,0.004837591,-0.0013836527,-0.0028308274,0.007759872,0.005087693,0.006704994,0.004542652,0.008607559,0.0074701747,-0.0010667188,0.008756854,0.004678504,0.00535108,-0.0013653935,-0.0020498068,-0.0044109183,-0.0084906025,0.00302615,0.008899565,0.008941627,-0.0019832875,0.0060773734,0.0037505897,-0.0042844214,0.0020387124,-0.0055172825,0.008159883,0.005449338,0.0031586315,0.004122701,0.008639286,0.0072991,-0.0008132274,-0.007033092,0.008444935,0.0072770757,0.0017260704,-0.0013069403,-0.0058361553,-0.004526081,0.008658915,-0.0031708663,-0.0063171103,0.009873726
베이컨,0.0076922146,0.009146597,0.0011500376,-0.00831378,0.008455417,-0.0037157985,0.005759506,0.004421281,0.009699186,-0.009292546,0.0092055015,-0.009306492,-0.0068980567,-0.0091201905,-0.005578514,0.0073581133,0.009187159,-0.0033138816,0.0037150981,-0.0036535428,0.007913505,0.005892333,-1.5071493e-05,-0.0036370023,-0.00724074,0.004772017,0.0014420103,-0.0026350922,0.007823199,-0.0040806374,-0.0091579035,-0.0022387207,0.00014439283,-0.006638667,-0.0054935077,-0.008487078,0.009250022,0.007421965,-0.00030880613,0.0073377197,0.007970927,-0.0007960774,0.0066245706,0.0037739319,0.0051275394,0.0072562145,-0.0047207624,-0.0021968132,0.0008955558,0.0042365887,0.003286231,0.005088673,0.0045975964,-0.008455267,-0.0031997806,-0.0072307684,0.009676179,0.004992911,0.00013894131,0.00412094,-0.0076669515,-0.0062946235,0.003116066,0.00654047,0.003954944,0.0060236217,-0.0019763038,-0.00331843,0.0001962224,-0.0031658134,-0.005518341,-0.007802811,0.0065389886,-0.00108865,-0.0018735949,-0.0077997847,0.009319658,0.0008331608,0.0017726681,0.0025178771,-0.007408157,0.0016219735,0.0029431575,-0.0085754,0.0049315924,0.002437559,0.0075063873,0.005072763,-0.0030136162,-0.007170377,0.0071714083,0.0019149589,0.0052025802,0.0063977377,0.001938034,-0.0061217677,6.6322236e-06,0.008251932,-0.006104427,0.009450469
생면,-0.007204566,0.004241104,0.0021754468,0.007441,-0.004875576,-0.004585937,-0.0060769813,0.0033471778,-0.0045386716,0.008512525,-0.004276551,-0.009147593,-0.0048117363,0.0064276233,-0.006399425,-0.0052642543,-0.00729968,0.0060216393,0.0033298363,0.0027918385,-0.003137974,0.006066286,-0.006127925,-0.001987799,-0.005982362,-0.0010163563,-0.0020247714,0.008495797,6.187321e-05,-0.008615787,-0.0054723234,-0.006836745,0.0027545101,0.009442295,-0.005862754,0.008298502,0.008529335,-0.0070893546,-0.008927336,0.009445897,0.008381272,-0.0047055734,-0.0067592068,0.007836485,0.0037861003,0.008109534,-0.0075601507,-0.009550217,0.0015540982,-0.00977878,-0.004923463,-0.003463044,0.009610054,0.00861444,-0.0028357056,0.005803272,0.008234298,-0.0022980783,0.009513607,0.007199056,0.0020280955,-0.0038490235,-0.005063631,-0.0030837238,0.0078602005,-0.0062028766,-0.0029224607,0.009215158,0.0034246584,0.0060947663,-0.008008843,-0.0007162698,0.00552513,-0.0047059893,0.00755004,0.009317684,-0.0004059239,-0.0021005957,-0.0006186996,-0.0057949787,-0.008391342,-0.0015092633,-0.0026089652,0.0043927245,-0.006896247,0.0054482124,-0.0067756283,-0.0078114513,0.0084930705,0.0089150965,-0.0034429734,0.0035113895,-0.0057738237,-0.008741989,-0.00547612,0.006787103,0.006422718,0.009425962,0.007082298,0.00672877
올리브오일,0.0013045555,-0.009809303,0.0045917714,-0.0005593165,0.006340035,0.0017577423,-0.0031307803,0.007798971,0.0015428923,5.3418727e-05,-0.004644398,-0.008463351,-0.0077579706,0.008671054,-0.008952456,0.009021471,-0.00927001,-0.00028554667,-0.0018983184,-0.00898229,0.008649962,0.0067742444,0.0030294626,0.004837643,9.97537e-05,0.009430396,0.0070133875,-0.009854986,-0.00445098,-0.0012924692,0.0030326024,-0.00432043,0.0015016957,-0.0078522675,0.002765765,0.004723619,0.004941381,-0.0031664304,-0.00846044,-0.009267042,-0.0007149448,-0.007333297,-0.00682045,0.0061285286,0.007215703,0.0021229128,-0.007895152,-0.0057191313,0.008080183,0.003922977,-0.005260504,-0.00739963,0.00079335,0.0034698977,0.002077093,0.0031394025,-0.0056156763,-0.009899735,-0.0070427493,0.00023687811,0.004635775,0.004538934,0.0019069951,0.005167782,-0.0001343588,0.0041169547,-0.009132675,0.0077379085,0.006128388,0.0051253918,0.007213052,0.008456888,0.0007560739,-0.0017013677,0.00054262375,-0.009315701,0.008364977,-0.006363205,0.008411054,-0.0042434707,0.0006492892,-0.009194635,-0.009590108,-0.007828453,-0.0077291694,0.00038763383,-0.00722039,-0.004938382,-0.005263659,-0.004279957,0.007072296,0.0048371353,0.008695495,0.0071197716,-0.0056843893,0.0072298697,-0.009295133,-0.0026050527,-0.007742233,0.004187548
삼겹살,0.0018075563,0.007032595,0.0029447118,-0.0069679613,0.007722857,-0.0059869927,0.008984632,0.0030131442,-0.0040243994,-0.00469467,-0.004421224,-0.0061640763,0.009347971,-0.002649497,0.0077617727,-0.009680758,0.0021199705,-0.001246136,0.0075429804,-0.00907561,0.007402368,-0.005085983,-0.0060217245,-0.0056363684,-0.003365572,-0.0033849746,-0.0031975259,-0.0075042667,0.0007033352,-0.0005855557,-0.0017073731,0.0037352038,-0.007599768,-0.0032480333,0.005122773,0.00855872,-0.00976596,0.007171941,0.00530277,-0.0038936909,0.008578581,-0.00924274,0.0072333934,0.005347953,0.00132722,-0.0052182325,-0.004159243,-0.0033666089,0.0016269112,0.0015999257,0.0073803198,0.009989865,0.008860214,-0.004011913,0.009635287,-0.00062482216,0.0048781,0.0025316558,-0.0006447874,0.003684033,-0.005310962,-0.005744205,-0.0075833653,0.0019037953,0.0065276376,0.00093444204,0.0012595616,0.0031710088,0.008127371,-0.0076624434,0.0022614163,-0.007442519,0.0037055188,0.009510932,0.0075482284,0.0064372523,0.00799732,0.0065519214,0.0068496284,0.008672875,-0.004935278,0.009176196,0.0050254646,-0.0021129285,0.008491385,0.0050916793,0.009666714,0.0028489137,0.009881719,0.0012078485,0.00914441,0.0035821588,0.0065859226,-0.003600381,0.006811192,0.00724855,-0.0021255824,-0.0018855555,0.0036126976,-0.007032614
묵은지,0.00972093,-0.009817398,-0.006528635,0.0027849034,0.006448469,-0.0053852377,0.0027629826,0.009180577,-0.006860532,-0.006079533,-0.0049907505,-0.0037095814,0.0018228492,0.009694464,0.0063859574,0.00037985865,0.0025013767,0.008466001,0.009103429,0.0055464827,0.005963858,-0.0076170876,-0.00386165,-0.0056872424,0.006189134,-0.0022549157,-0.008809743,0.0075632962,0.008384202,-0.0033163943,0.009086013,-0.00072593894,-0.0035938614,-0.00043034344,0.00020123324,-0.0034961763,0.002832837,0.0057357782,0.0068533653,-0.008973351,-0.0021469954,-0.005529838,0.0075543383,0.0064859358,-0.0042872345,0.0022850642,-0.0059431973,0.00023025925,0.009513444,-0.002592091,-0.0052008363,-0.007431437,-0.0028866867,-0.00085338746,0.0035154973,0.00978127,-0.003409503,0.0018531347,0.009610846,0.0015758461,0.0009895191,0.009805019,0.009337384,0.0076941103,-0.0062118145,0.010007399,0.005887835,0.009117402,-0.0020362644,0.00338793,0.0068219053,-0.0038928245,0.0066556246,0.0025473025,0.00933204,-0.0030231215,-0.003135849,0.0062466944,-0.009092616,-0.0072466317,-0.006533303,-0.0007838562,-0.0023926497,0.0068530007,0.009224893,-0.0009006525,0.0014002976,0.002051227,-0.002006008,-0.008012305,0.0074882554,-0.0042833975,0.0045975107,0.009117082,0.0030699736,0.00314244,0.004077128,-0.0027587505,0.0038336043,0.00036986684
신김치,0.0056144283,0.005553385,0.0018126043,0.005751049,-0.00896996,0.006540537,0.0092703495,-0.0041758465,0.0015530196,-0.0052037016,0.0010324476,0.0027326373,0.008131881,0.0005532534,0.002547639,0.0012667819,0.008384589,-0.0056885914,-0.0062955813,-0.003678787,-0.0023044248,0.005048419,-0.008142454,-0.0028184608,-0.008184945,0.0051351488,-0.002596189,-0.009136699,0.0040413146,0.0089831455,-0.0030745952,-0.0057982947,0.0030731475,-0.00046685725,-0.009981679,0.0084611,-0.0073660044,-0.004925319,-0.0026814353,-0.00550642,0.0017607621,0.009704376,0.0046030055,0.008100113,-0.00044728853,0.00059607776,-0.0026828134,-0.008789893,0.0034680811,0.0020837882,-0.0094055105,-0.005001311,-0.009686101,-0.0057275533,0.004050159,0.00866621,0.004107194,0.0023419617,0.008111344,-0.0011179843,-0.00138759,-0.008746641,-0.00010693814,-0.00258453,0.00035615667,0.0072672623,-0.0070046475,-0.0039275824,-0.006713236,-0.0035306397,-0.003322988,0.0021436124,0.0033337364,-0.004973214,-0.00452751,0.0011784692,0.0054364004,0.0053727133,-0.0029714708,-0.004260713,-0.005660431,-0.0005799238,0.0019275135,0.0015510445,0.007289909,-0.0027298122,-6.490139e-05,-0.005486608,-0.0011814415,-0.0077135926,-0.00092984375,0.0013178758,-0.008599563,0.008753237,-0.009166292,-0.009622389,-0.008514977,0.0073021865,0.00544427,0.009268584
닭,0.0025742874,0.0008571414,-0.002535482,0.009368689,0.0027476072,0.004068052,-0.0011749425,0.00094239844,0.006620405,-0.00073434477,0.0033450464,-0.00068024575,0.005264662,0.0036651387,0.002578348,-0.00532864,-0.004703649,0.00428562,-0.0059134495,-0.00018999146,-0.0006226913,0.0035241349,-0.008463132,0.008830708,-0.0014402888,-0.0053323195,0.0040364894,-0.0019451393,-0.007783003,-0.004507064,-0.00039397852,-0.008936593,0.00057488354,0.0024361701,-0.0032369778,0.0026003225,0.0024786463,0.009984262,0.0014317284,0.0019908336,0.002783515,-0.002087095,-0.008684558,0.008011813,-0.0019652518,-0.009697291,-0.00656306,-0.0039624674,0.003965624,0.0050330553,0.0060951253,-0.006789677,0.00070313,-0.0027769727,-0.0052099517,0.006979309,0.0039745825,-0.0031221323,-0.00829869,-0.0051489165,-0.0006545706,0.007819849,0.0060356017,-0.008487868,-0.009590657,0.0071678865,-0.0023290766,-0.0036896542,0.0057393615,-0.005838574,0.0051049907,-0.00024220516,-0.0068625202,-0.00033725478,0.006364826,0.009312356,0.0022044037,0.005045656,-0.0050072167,-0.00079469476,-0.005311664,0.0011893824,-0.0018253141,-0.0036030074,-0.007024847,0.009683703,0.0029629176,-0.0022910333,-0.004174968,0.007738323,-0.0064783166,0.0031245241,0.0007773044,0.008343771,0.006877934,-0.0028867924,0.0025230416,-0.0016844785,-0.009475434,-0.0026161107
단호박,0.0013140508,0.006522565,0.01000159,0.009086591,-0.007999087,0.0064624473,-0.005716913,-0.00093493314,0.00047952292,0.0065965233,0.004458639,0.004573054,0.009482728,0.0004033726,-0.006071911,-0.0063468423,0.006459371,-0.005245372,-0.0028694181,0.0040488536,-0.002289807,-0.0060259565,-0.0023108409,0.0012060703,0.0021845442,0.006102259,-0.005218777,0.003062903,0.0072278045,0.002206897,0.0054001356,-0.0048308587,0.0061802343,-0.00761708,0.0034698984,-0.00932329,-0.0026066224,-0.00909604,-0.0016054149,-0.0053919014,-0.00392329,0.0011067512,0.0027956557,-0.0015046317,-0.008153738,-0.0058903326,0.0008266214,-0.003963016,-0.009407196,-0.00076616876,0.006640147,0.005974638,-0.00991529,0.0031026683,-0.0060130446,-0.009183919,0.00014241958,-0.00038926574,-0.0070163584,-0.0062840637,-0.002420057,0.0070909765,-0.0075283456,0.0076898932,-0.00049775257,0.0011158596,0.009482899,0.0047563175,-0.0035769579,0.0037401011,0.0035391531,0.0063548386,7.59065e-05,-0.00443368,0.0013452802,-0.005393358,0.0014074191,0.0049194717,0.0051566535,0.0091814175,-0.0075400313,-0.0054306807,0.0064530065,0.0013745844,-0.0066084373,0.0008863054,0.0027027589,-0.0025213182,-0.004937985,0.005014625,0.009668156,-0.007370063,-0.00011129449,-0.002529944,-0.0063582207,-0.0013636339,-0.005235378,0.009025952,-0.005771026,0.0037093137
오이,-0.00023606585,0.004215564,0.0021124377,0.010016475,0.0006315388,-0.0054859724,-0.0012002963,0.0020965715,-0.0033739342,-0.007844101,-0.0056101447,-0.006734199,0.0063487277,0.003937893,0.008226559,0.006512816,-0.006131058,0.0027108397,0.008465924,0.0015614934,0.0030653384,0.0058397665,-0.008858706,0.009149401,0.0068154573,0.008512425,-0.00824061,0.00617798,0.006629226,-0.0013599099,-0.0062938607,0.005327336,-0.0068430942,-0.005336198,0.0035084633,0.008086113,0.008709449,-0.004415972,-0.009206439,0.009599768,0.006298656,-0.0039666323,-0.008463634,-0.0047330977,-0.0039421534,-0.003262536,0.0008232931,-0.00030885567,-0.0030956897,-0.00601278,0.009441984,-0.0047153,-0.007262143,0.0076787407,0.0025288118,0.008637841,-0.0044695605,-0.006904876,0.0009706925,-0.001159265,-0.009398985,-0.0016080178,0.003044384,0.0065722414,0.0068550985,0.0032226075,-0.0044510677,-0.0018395336,-0.0039510634,0.005786072,-0.0063759615,0.0020922062,-0.0013429816,-0.0058358205,-0.0072457395,0.005875618,-0.008375492,-0.0006710386,0.0028109907,0.00773292,-0.0073054875,0.0032697737,0.009800226,-0.006958531,-0.0035554038,0.005149871,0.005224984,0.0016236781,0.00799001,0.0008324654,0.0018914887,-0.0016204579,-0.008152181,0.0032838844,0.0020011887,-0.008735059,-0.00067900907,6.609125e-05,-2.4286705e-05,0.008712361
배추김치,-0.0025139889,-0.0059278267,0.0074813496,-0.0072482,-0.008978857,-0.0018165444,-0.008383495,0.0004607419,0.0019412019,-0.0024460375,-0.0064780726,-0.000336281,-0.0011059801,0.0035239293,0.008117509,0.005835,0.0084373765,-0.008995725,0.009436091,-0.0024086281,0.008693863,0.0023759229,0.0035629615,-0.009589777,-0.009490791,0.008986143,-0.0028917554,0.002808479,0.006400966,-0.0002981108,0.00973063,-0.001038342,-0.009629737,-0.0070738513,-0.001042913,-0.008660517,0.007458107,0.0036234206,-0.0087836515,0.008460916,0.008953673,0.0058296532,0.0068938825,-0.009582653,0.00049759337,-0.0092258165,-0.00363921,0.0002523659,-0.00024200112,0.001473528,0.0032857263,0.0021286977,0.005334319,0.007525189,-0.0058689457,0.007976805,0.0060075014,0.009783712,0.004592074,-0.0032910702,-0.0037437852,-0.00062432047,-0.0016550063,0.009884861,0.0010908275,0.004036587,0.0034408527,-0.008837313,0.0066930614,0.008220302,-0.0016579144,0.002339744,-0.0064706067,-0.006160088,0.008247248,-0.0030676601,0.0067376834,0.0015518155,-0.001975518,0.0030625113,-0.0040431772,-0.0017875641,0.0013541642,0.004895702,-0.0014328748,0.00064457045,-0.007928342,0.009519498,-0.008720052,0.007098004,0.0039324565,-0.007006536,-0.0052665807,-0.007916792,-0.0050934474,0.0070797293,0.009626653,0.002130357,0.00066376687,0.009513471
차돌박이,-0.0049773953,-0.0012425558,0.0032738731,-0.006400274,-0.009668181,-0.009286655,0.009042556,0.0054436713,-0.0048295096,-0.008340376,0.0012949142,0.0028356276,-0.0012481946,0.0013096939,-0.004319912,0.004776585,0.0014787982,0.008884998,-0.009997449,-0.00532599,-0.009114311,-0.00033839146,-0.00785369,0.00502678,-0.006407333,-0.0059370315,0.0050795563,-0.00818914,0.001423312,-0.0072284094,0.009845419,0.008644943,0.0017951059,0.005736368,0.0045819893,-0.0059441975,0.009739731,-0.009701787,0.008062093,0.002737571,-0.003026095,-0.0035905628,0.009071808,-0.005413708,0.00821297,-0.0060005956,0.00838924,-0.0005837452,0.007984774,-0.0031600392,0.005979156,0.008792885,0.0025561252,0.001310749,0.0050288,0.008010209,0.008571545,0.008500576,0.0069835573,0.008013524,0.00863006,-4.0563373e-05,-0.001004001,0.0016713919,-2.3290191e-05,0.00069858314,-0.008572391,-0.00957531,-0.0023652797,0.008953793,-0.0036259997,-0.0069922507,0.004888549,0.0010670458,0.0018818512,0.0036566164,0.0035101632,0.0057098246,0.0012429884,0.000848988,0.009035243,0.0027602166,-0.00474081,0.0065605603,0.0051763714,0.002873839,-0.0031142274,0.0033633132,0.006388778,0.0070913015,0.0009992423,-0.008531546,0.00026925633,0.000393054,0.0039700693,-0.009456984,0.009717541,-0.0070263366,0.0057865856,-0.009433621
아보카도,0.009627877,0.0073469616,0.001235846,-0.0033690822,-0.00044342407,0.000435469,-0.006430058,0.0058203237,0.0023381365,0.0038262638,-0.007269272,0.008521123,0.00051202415,-0.00018787666,-0.0090969,0.00397854,0.0068009775,0.0073530944,-0.0064570447,-0.007912012,-0.0055557094,-0.00058739225,-0.008348287,-0.008248991,-0.0019093602,0.0011484398,-0.009508243,-0.00377224,0.0006019187,0.0067977225,0.0017214133,-0.0006604485,-0.0074070645,-0.0067786565,-0.0006841698,0.0075338995,0.005476509,-0.0014707313,0.0011425304,-0.009655788,-0.0013715513,-0.004680467,0.0057854173,-0.0023311311,-0.004764994,-0.009501802,-0.0011741667,-0.0072142403,-0.001629302,-0.004085403,-0.002344847,-0.0032800748,-0.008131342,-0.0012633167,0.0016818212,-0.0040126885,-0.007607226,-0.0036340342,-0.009096029,-0.0007221354,0.0058931033,-0.0029555087,0.0031821774,0.004975195,0.008458724,0.005634622,0.00953287,-0.009616848,-0.00801446,-0.006748666,-0.0074765487,-0.008011721,-0.007771232,-0.0029662352,0.0013926338,-0.0028650705,-0.008845689,0.004998157,0.000885951,0.0046142503,0.007200188,0.007588479,-0.00084661617,0.003672018,-0.0051533463,0.0018891429,0.004517503,0.00992276,-0.0031821856,0.0028689562,-0.0056707147,-0.002193666,0.008150946,-0.0038891113,-0.0011491516,-0.0092859045,-0.009476623,0.008887502,-0.0056916424,0.005060219
스파게티면,-0.00697472,-0.0024260073,-0.007998242,0.0075001367,0.006144212,0.005246244,0.008404466,-0.00068343634,-0.009334046,0.009096141,-0.0049228277,0.007822098,0.005531262,-0.0010674435,-0.00765921,-0.0014653228,0.0062549626,-0.006974981,0.0014065683,-0.007984983,0.008741529,-0.002830972,0.00941433,-0.00575411,-0.009739296,-0.008632752,-0.004089968,0.004672573,-0.00025850855,0.0092252735,0.0031062665,0.0037499487,0.0029975018,0.008147975,-0.0023954997,0.0074589998,-0.009526213,0.002923492,-0.0006951716,0.00043515753,0.0068549984,-0.0028535423,-0.0023536456,-0.00010043797,-0.00045793457,-0.003550512,0.0062564984,-0.0065770857,0.0079102265,-7.02822e-05,0.0026070515,0.0032009457,-0.0002689475,0.0017105144,-0.0031594667,0.0047810264,0.00024041357,-0.003288007,-0.008752298,-0.009994926,0.0003152689,-0.0057216133,-0.0010818578,-0.0042115645,-0.008652871,0.0010797671,0.005903188,-0.0022031143,-0.007192884,0.0031621594,-0.00037318387,-0.005503899,-0.0010653961,-0.0006282276,-0.003166245,-0.0099488795,0.0076300814,0.0036966484,-0.0025376983,0.0073320656,0.00044389168,0.007154528,-0.0015705876,0.007486988,-6.334023e-05,-0.0060456316,-0.0047367276,0.009628131,0.0006179843,0.0010376504,0.008481537,-0.006271635,-0.0017668754,-0.008169327,-0.0066611604,-0.008562799,0.003923532,0.002699069,0.005625073,0.002571964
돼지고기 등심,0.0021098077,0.005712215,-0.0021172229,0.003190998,0.008456405,0.00037280834,0.006281913,-0.0067287716,0.006586885,0.0046874876,0.0050768126,-0.009903667,-0.00043799277,0.0032126443,-0.0058246586,-0.006689743,0.0063727447,-0.006837931,-0.0051869075,0.008113902,-0.007011519,0.0085565895,0.00066235417,0.004409309,-0.0030146781,-0.005419449,-0.008948357,-0.00061870884,-0.0051005282,-0.0030813112,0.008105032,-0.0076473583,-0.0063091964,-0.0052674776,-0.0066051837,-0.008837314,-0.0010976463,0.00944743,0.008030218,-0.005291983,-0.008147061,-0.002261056,-0.0092659565,-0.005049327,-0.005955175,0.0030362871,-0.0075765527,0.0012452959,0.0022899671,0.005309901,-0.0020110633,-0.00976506,0.0052337893,-0.0059236493,0.0048822775,0.0019669028,0.008821992,0.0015310345,-0.0018331513,0.006497953,-0.007077512,-0.008397957,0.003789012,-0.0025770818,-0.004188515,-0.001920643,-0.009879009,0.00028479603,-0.0010566266,-0.002957766,0.0024966733,0.0046951775,0.0063497336,-0.007920409,-0.004976961,-0.008783653,-0.008958471,-0.0037375242,-0.0012933444,-0.008232033,-0.0053740875,-0.0021723167,0.0063470574,0.0015574939,0.008318137,-0.008329854,-0.004584645,-0.00081240205,0.008812543,0.0011034932,0.001555555,0.0012884332,0.0029299594,-0.009394,0.0032554273,0.0054717865,0.005282615,0.0044554947,-0.0080951825,-0.0040616114
떡볶이떡,0.008356009,-0.00056095386,-0.009455761,0.0047827344,-0.0060312874,0.006672421,0.0053997035,-0.0050219884,0.0025714494,0.0054177037,-0.0035903996,-0.0015297331,0.009172361,0.0090743285,-0.009421335,0.007541716,0.009917841,-0.0028376498,0.0024271708,-0.002819309,0.008635158,-0.0002625332,0.0056476765,0.009207098,0.004121904,-0.0071142917,-0.001934489,0.0009566892,0.0020158552,0.0029666503,0.009450661,0.0043927315,0.009927691,-0.008658572,-0.00577012,0.0020022213,0.0036675013,-0.0009851841,-0.006922386,-0.0032468413,-0.008519745,0.009395544,0.0037213208,-0.007885341,0.003189664,0.0041839904,-0.0056251325,-0.005941783,0.0010395002,0.0089690555,-0.009671377,-3.047227e-05,-0.006867376,-0.00092589814,0.0030209764,-0.0050309775,-0.0027870575,0.0006685477,-0.0063954066,0.0072830664,0.0043990924,-0.008556403,-0.0021406976,0.0031501974,-0.008318574,-0.0070439703,-0.008432702,-0.005496838,0.008831111,0.00707021,0.0029015932,-0.008570474,0.0057598026,0.004637145,0.00013064836,-0.008848797,-0.0019001969,0.00019414652,-0.007761975,0.002471676,0.0005114658,-0.007067377,-0.0082969675,0.0060377363,-0.008345823,-0.0055676554,0.0055862986,-0.00048993784,-0.0030613116,-0.0051860022,-0.0011731811,0.0052905087,-0.005947829,-0.0049788966,-0.00495139,-0.0047557345,-0.007964309,-0.009766604,0.0075691207,0.008007538
부추,-0.0042956574,-0.009313927,-0.0018667605,-0.0037215569,0.009091913,0.0029326382,-0.005965453,-0.0033587678,-0.009907867,0.0019491176,-0.0039916034,-0.002707894,0.005178773,0.007589692,0.0043835146,-0.006807181,0.0066983043,-0.009627945,-0.0070022484,-0.008021552,-0.0022643714,0.00048651127,-0.003768377,0.0018503763,0.009197456,0.006686152,-0.0010573673,0.009080873,0.0015582683,-0.0019854729,-0.006596488,0.0064887153,-0.009061805,-0.0018939857,0.0076961336,-0.0025723162,0.0016053156,-0.0073409323,0.004973066,0.007383286,-0.009288748,-0.0032739986,0.007887866,0.0029254633,1.5462421e-05,0.00032430474,-0.0098667275,0.009945073,-0.0019999275,-0.004891365,0.0027486163,0.001020217,-0.0059260535,0.005796464,-0.0025109602,-0.0061821905,0.0072368723,0.0064617475,0.008827666,0.001174191,0.00051272823,-0.007936271,0.004645829,0.009356969,-0.00067056064,-0.0017780113,-0.0038052907,-0.00049497886,-0.007625127,0.0057004383,0.0014800234,0.009300348,-0.006429279,-0.005084945,-0.006236308,-0.007280586,0.002756373,0.0049000788,0.0013402455,0.0035540604,-0.009392818,-0.001063381,-0.0077474494,0.002939131,-0.002696985,0.008884339,-0.003432561,0.006856591,0.0041139415,0.0013639317,-3.8636343e-05,0.0081843315,0.0023571153,0.008258823,0.003333039,0.0054283594,0.0051057,-0.007638503,-0.00578972,0.0012478731
굴,0.00020378327,0.0021417835,0.0011000898,0.007621933,-0.0043873005,0.00030976598,0.0070182304,0.0023224063,0.0042289747,0.00432127,-0.0012969445,-0.008355022,0.0030434057,-0.008869445,-0.0026828542,-0.009416701,-0.00046505913,-0.007846132,0.0074079568,-0.0049408255,0.009930149,-0.009045315,-0.0043297876,0.0019318181,-0.0029902149,0.0014379661,-0.0036812539,-0.0009120198,-0.0057825893,-0.009808572,0.0063220123,0.00040186706,0.006570496,-0.0075165704,0.00366001,-0.009884396,0.00761168,0.0058860127,-0.0061569135,0.008194323,-0.0055723176,-0.008594674,0.0014813564,0.0032062412,-0.008044229,-0.008945984,0.009185728,0.0016344097,0.00090362475,0.0024978877,-0.0034970073,0.0017406128,0.0019661603,0.009810572,-0.005610629,0.0022737328,0.0062818457,-0.006715616,-0.0089956755,0.008675731,0.006865506,-0.004012672,0.0057592858,0.00078918383,-0.0050282762,-0.0013327491,-0.004862429,0.006188629,0.0019382011,-0.008296928,-0.00016066343,-0.0026505708,0.0065927864,-0.0011971628,0.007682303,0.001988863,-0.00383365,0.008153567,0.002980511,-0.0039880606,-0.0056172237,-0.0031216661,-0.005187073,0.0034393421,-0.00932028,-0.005822143,0.0033799796,0.00023239409,0.0060074884,-0.0036029613,4.34514e-05,0.0024517851,0.005483003,0.0016719319,0.009836709,0.0037307837,-0.0071818396,-0.0014238575,-0.00834504,-0.0053284797
카레가루,-0.002226315,-0.00971828,0.0093052555,0.0020529719,-0.0011544217,-0.0055311364,-0.008507068,-0.009840826,0.00894396,-0.0024776133,0.004597231,-0.00454729,0.009975913,0.0036677318,0.0010349076,-0.0040555727,0.0012397709,-0.0026317572,0.007364212,0.004457468,0.0009954438,0.003504974,0.0036812893,-0.0068043726,0.008958996,0.0017363835,-0.0057638744,0.0086544845,-0.0012868827,0.00818737,-0.0015300324,0.0069882045,0.0027324099,-0.0043895077,-0.0037531024,0.00920219,0.0016269878,-0.0060382523,0.00033085965,-0.0019762996,0.0016274798,-0.0077117225,0.0073860693,0.0012846998,0.007872818,0.004424123,-0.004383207,0.0037413724,-0.00063398824,-0.009868275,0.008249681,0.009631985,0.009643185,-0.0037831806,-0.008473853,0.0048462227,-0.007653102,0.008521482,0.0027521988,0.0056302925,0.006144585,0.00045540466,-0.0020705063,0.00077033753,0.009818476,-0.007088727,-0.0015375379,-0.0023429033,0.004841117,0.0064595477,-0.004135348,0.0036295683,-0.004473949,0.0032435188,0.008182555,0.00362995,-0.004601796,-0.0029825855,0.007838774,0.009622415,0.005806603,-0.0032908784,-0.001825963,-0.0062447023,-0.0043301303,0.0034128337,-0.0065053785,-0.006595361,0.008115129,0.009527856,0.008174346,0.0015112237,-0.008811349,-0.0075653256,0.001620355,-0.009543855,-0.007402224,0.0020034912,-0.002947794,-0.009146927
주꾸미,0.0064195343,-0.0089531895,-0.0073555517,-0.0017564083,0.0016918024,-0.0010593398,-0.0052276086,0.0065986044,0.008763639,-0.007404447,0.009767323,0.0073477724,-0.007478137,-0.0018981159,0.0042350227,0.0070399335,-0.0036693746,-0.0069938553,0.004713889,-0.009062374,-0.0058554285,-0.0012792917,0.005475374,-0.005701862,0.0047776964,-0.00042064683,0.0026742346,0.006413315,0.0014136807,0.007730137,-0.00031529093,-0.008268986,0.009210261,-0.0048722685,0.0047127814,-0.0038834966,-0.0072993375,-0.0065128957,0.0046610427,-0.00068044505,0.0014488619,-0.008947018,-0.0051788725,-0.0060282834,0.00843694,-0.008710706,0.005058244,-0.0008856155,0.00019912829,0.008784497,-0.0035760426,-0.0069350465,0.00078225945,0.0077418233,0.009113416,-0.0036681835,0.0027603605,0.004942402,-0.0053047882,0.0068677557,-0.006455365,0.0021305932,0.004568062,0.004372687,-0.00467379,0.0026485028,0.0073211063,0.008637532,-0.009539944,0.005600918,0.0049596364,-0.0015905743,0.009192482,-0.0041777017,-0.0017334742,-0.0068534133,-0.00382649,0.0002627731,-0.0032718664,-0.005431533,0.006559153,-0.0053212857,-0.006316045,0.0076548327,0.009647172,0.004002238,2.434516e-05,0.0007958354,-0.0009539004,0.0068751657,-0.0062385793,0.00051190885,0.0043096934,-0.0021220937,0.00090234017,0.0037049025,0.009742164,0.0021752259,0.009542012,-0.0058105355
낙지,0.0047958456,-0.0036443267,-0.0042637577,0.001207969,-0.004114831,-0.0056510647,0.003140655,0.008369024,-0.0065771663,-0.009122468,-0.0033348177,0.007508721,-0.009695957,0.009605698,-0.00042307843,0.0022855238,-0.0018422819,-0.0057700733,0.0030912315,0.006152388,-0.0070430445,-0.0011533253,0.001563336,0.0042543416,0.0071595544,-0.0035361017,0.007269315,-0.005599327,-0.0022211296,0.009072957,0.005378952,-0.008475946,-0.0016495825,-0.008846931,-0.0016226913,0.005653839,-0.007415144,0.005499222,0.0060803783,-0.0037934643,-0.009638444,-0.0025288286,-0.002539411,0.0037493855,0.008947103,0.001998159,-0.0020924234,0.002975219,-0.0067681093,-0.0012871289,-0.0014820945,0.009588137,-0.0057971627,-0.007050056,0.002360207,0.0026566342,-0.00716104,-0.0058710785,-0.0012189877,-0.003289464,-0.008964966,-0.004029392,-0.002969522,0.0065055154,0.0009651464,0.0016260204,0.00027996223,-0.003352827,0.0030910939,0.0007275332,0.0059749233,-0.00079075556,-0.008879584,0.00089147344,0.009935664,-0.0052456805,-0.00521422,-0.0025177603,0.008579763,-0.00082868984,0.009413882,-0.008359291,0.008970243,-0.0096995905,0.009198701,0.0018943385,0.0026643227,-0.005849062,0.0084586665,0.0060605495,-0.0054443586,-0.009503816,0.0069857193,-0.005508999,-0.009316381,0.002603388,-0.004955251,-0.0073898067,0.00973325,-0.0015777213
칵테일새우,-0.0015039126,-0.0040089088,-0.0043984763,-0.0046183174,-0.005597959,-0.0053358935,-0.008014679,0.009604444,0.0063520167,-0.0036183954,0.0024799355,-0.00767719,0.007531838,0.008320469,0.00078012905,-0.0068509295,-0.0029549375,0.00472775,-0.0029428047,0.0031151685,0.009416671,0.00436753,-0.005164409,0.0054619885,-0.0028687892,-0.006395353,0.007001128,-0.009306489,-0.0011643636,-0.0013930592,-0.008440694,-0.0010794753,0.005653774,-0.005308219,-0.007029667,0.0062467665,-0.003444162,-0.007832629,0.00028086788,-0.00011000233,0.0075620892,0.0005775967,0.007890454,-0.009837021,0.0040942887,0.006198319,0.0010198115,-0.0028324148,0.001058628,-0.00084486685,-0.008114752,-0.0067961244,0.0011997463,-0.0020173632,0.009562376,-0.00092751527,0.006132898,0.0020138852,0.008060424,-0.009266498,0.0024028656,-0.0014390317,0.0021440908,-0.000244439,-0.0066761845,0.009073227,-0.0028319547,0.0019336359,-0.00649121,0.0037354066,0.010005075,-0.0011927076,0.0065843314,-0.00014627558,0.00794584,0.009648452,-0.00039345393,-0.001717788,-0.009545056,0.009891672,-0.002512271,0.0021618,-0.0017377671,0.00834028,0.008331246,0.0015521164,0.0028988349,0.006473751,0.0022610854,0.0064874645,0.00018547461,-0.0022877636,0.005295914,-0.0033795326,-0.0025859803,0.00881967,-0.0091800755,-0.003484309,-0.0029133693,0.0056615737
빨간 파프리카,0.007945486,-0.006443752,0.0057901493,-0.00023726274,-0.009016413,-0.0024583184,-0.0015724505,-0.0044200853,-0.0008122924,-0.005237939,0.0059257145,0.009288292,-0.0015777517,0.0033883357,-0.0007882805,-0.0006927412,-0.0070085167,0.0014556783,0.0038895889,0.0068392465,0.006554227,0.0035681867,0.004630647,-0.0074374885,-0.0013617971,-0.005791184,0.0067650964,0.007819795,-0.004309252,0.0011197765,0.0050830925,0.001833931,0.00081439415,-0.006753777,0.009835393,-0.007216457,-0.006048452,-0.005672985,-0.0063726683,-0.0035466019,-0.009390478,0.001164057,-0.0037375127,-0.002562899,0.005838547,0.0035419813,0.0018320853,-0.0013702185,0.009897988,0.00031437547,0.005026983,0.009051139,-0.009755334,-0.009159984,0.009923947,0.0027660516,-0.0018873836,0.0046945726,-0.0043489025,-0.006401914,-0.008233466,0.0072358237,-0.0024352244,-0.007572094,-0.005952222,0.0061907833,-0.0024749346,-0.0061178682,-0.0016495748,-0.0014508428,-0.0032535086,-0.0020786265,0.004113958,0.0014279026,-0.003456926,0.002687735,0.0052034147,-0.009208882,-0.007585094,0.0063267597,-0.008948834,0.0004879642,-0.009054271,0.008415287,-0.004308684,-0.0066086547,-0.001400484,-0.0010682103,0.00754349,0.00910664,-0.00030413887,0.0027017996,0.004756652,0.00018996403,-0.0057123834,-0.00059547665,0.0021833032,0.00826536,-0.0036044023,-0.009854186
파스타 면,0.005397768,0.009833472,-0.0070867096,-0.0005836117,-0.005090024,0.0064061773,0.009678523,-0.00028715533,0.005085252,0.0065429695,0.004408987,-0.00807615,0.0030767068,-0.001452661,-0.002183292,0.00539347,-0.0013118656,0.009945516,-0.0006652653,0.0001941807,-0.0023022892,-0.008494391,-0.00983263,0.0049561765,-0.0066106417,0.0029760788,0.0027750437,-0.0070628654,-0.0031667189,-0.005817389,-0.008593326,7.034359e-05,0.009837613,-0.006699344,-0.0043643084,0.0083937505,0.009296004,0.009816671,-0.009918492,0.004993166,-0.006588303,0.006866881,0.0061454186,-0.0033849988,0.0069432673,-0.007895563,0.004555525,0.004566528,0.0059556747,0.0058636866,-0.0026669747,0.0038797494,-0.0060727275,-0.0064706714,0.0027170086,-0.009443261,-0.00030148512,0.0010476036,0.007955288,-0.0069944263,-0.0022966282,-0.0041109254,-0.005225642,-0.00050118077,0.0045961803,-0.004951207,-0.00164399,0.008681367,-0.0013377263,-0.0035581365,0.0074281623,0.0012294102,-0.0003372757,0.00945657,0.0081537785,0.003440708,0.0033484197,-0.0022682904,0.00809641,0.005080065,-0.005409576,-0.0061451728,-0.0006387895,-0.007918956,0.0033309476,-0.009208995,-0.0015150663,0.0034175706,0.0030777426,0.0031909843,-0.009023833,0.003444086,0.0053276443,0.0034832023,0.007813413,0.0016850753,0.006265702,0.00880013,-0.00093013886,-0.00081143447
식빵,0.0022188735,-0.0075378814,0.0056182225,-0.0049973885,-0.0032589457,-0.0018523005,0.008210626,0.0022827024,-0.0009341749,-0.0028263903,-0.0021120128,-0.001307668,-0.0050955536,-0.004115862,0.00018420216,0.004531469,0.0017983876,0.0069188466,0.0006183735,-0.003249204,-0.007379537,0.0060125897,0.006961251,-0.006052986,0.0046963515,0.009501763,-0.0063727284,-0.0028997287,-0.009124741,0.003238448,-0.0034616766,0.002038235,0.009475059,-0.008391055,-0.009321251,0.0017403534,-0.008040756,-0.009060585,-0.009360026,-0.00031088234,-0.0010982326,0.000745845,-0.0013568789,0.009051202,0.008808627,-0.0063874144,0.008706382,-0.00902707,-0.0013149295,0.002542704,-0.00010612057,-0.003831801,0.00047717977,0.0010001197,-0.00941658,-0.004880291,-0.0076990174,0.003793228,-0.00090339105,-0.0074561015,0.005654641,0.00022002369,0.002699932,0.005414437,-0.0042480663,0.007874397,-0.007849129,-0.0034269027,-0.007394381,0.0009895051,-0.0073801302,0.0090692,0.005535881,-0.00724266,0.0061849495,0.006613773,-0.00741616,0.00464229,-0.0077296104,0.009304951,0.00469239,-0.00024966066,-0.008965055,-0.0008836748,-0.00029693532,0.0008975035,0.008666191,-0.0027594243,-0.008662263,-0.008810902,-0.0010329994,0.0013748993,9.3414565e-05,-0.0021895105,0.008581952,0.000108126274,0.0064132256,0.0039682523,-0.007194634,-0.0021301245
닭가슴살,-0.007795468,-0.006720816,-0.003144877,0.006631089,-0.0008394819,0.008864761,-0.0022585576,-0.0052580507,0.003883982,0.0022195936,-0.00029350823,-0.0024817563,-0.0060213553,0.0040661176,-0.007633327,-0.008932062,-0.009162633,0.008393544,0.0039739097,0.00703122,0.009896162,-0.0072080083,0.0040164557,0.0028184727,0.0061446545,-0.00339804,0.00932011,-0.0058326107,0.0070185172,0.0069646216,-0.00040527264,0.005087022,0.0066780224,0.0015231854,0.0073519405,0.002429678,-0.0015366074,0.0073954747,0.0046722284,-0.003206727,0.0016605961,-0.00015127448,0.0049693324,-0.0054192017,-0.0041514467,-0.00094494683,0.0038245688,-0.0066050543,0.007872627,-0.0030849173,0.0057170824,0.0028410826,0.006854085,-0.004480248,-0.0032044172,0.003048746,-0.0027719194,0.0059113256,-0.0059886468,0.0025895631,-0.0007296728,-0.0006075367,0.0025618898,-0.0022258547,-0.0043105264,-0.008545202,0.0024938416,0.0053637056,-0.0059013586,0.009131439,0.004052523,-0.005179144,-0.0012922494,0.0039247302,-0.0069869435,0.00207786,0.0055030896,0.006244162,0.0054200063,0.0036631222,-0.002756432,-0.0061015007,0.008135483,-0.0072663487,-0.0016330248,-0.0032618758,0.0064889495,-0.0062688733,0.0034146328,0.0020614206,-0.0040598204,-0.008253828,-0.008040895,0.0035124898,-0.009532757,0.0057427445,-0.0029215016,-0.009198799,-0.0051335567,0.007758972
현미밥,-0.0016909547,0.0064298115,-0.009312924,-0.009137225,-0.0052271835,0.00092716917,-0.007177804,-0.00941151,-0.008904031,-0.00042955443,0.0074006,-0.008391428,-0.0053329286,0.001543032,0.003305604,-0.008476353,0.007899626,-0.008210549,0.0047167195,0.009383562,0.005663294,0.0061875186,0.008245774,0.0034786,-0.007144154,0.005768087,-0.008328593,-0.00575221,0.005900931,-0.007932607,-0.005908542,-0.0035469355,0.0034347915,0.0051795566,0.0020433427,0.0051501263,-0.002635074,0.0043496713,-0.007071707,-0.0017016816,-0.0077291206,0.00016142562,0.00469559,0.004820003,-0.0046357852,0.0017444851,0.00782603,-0.005594123,-0.0037843958,-0.00061669265,-0.0047316793,0.008702186,0.007546579,0.009226006,0.009387943,-0.008423807,-0.0004823607,-0.0076074386,-0.0048243436,-0.008810597,0.003435441,9.4204544e-05,-0.0069329212,0.007985138,0.0009565428,0.00032551325,-0.0035632616,-0.0033211121,-0.0026531403,0.007648286,0.0023999957,-0.005181578,0.0047196657,0.0009691002,-0.0027234415,0.0077110673,-0.0039772377,0.0074357,-0.0041823387,-0.0073754606,-0.004495225,-0.0039103753,-0.0007263424,-0.001832078,0.0050634113,0.005458015,-0.0017088747,0.0037659942,-0.002017118,0.00072414015,-0.0013227771,-0.0024739956,-0.0047098226,-0.004244352,0.00012684628,0.0016396403,-0.009430375,0.0060883593,-0.0016805342,-0.0029857017
모닝빵,-0.004795421,-0.004292391,-0.004794647,-0.009801868,-0.0007670881,-0.00781501,-0.004809111,-0.007358772,0.00991298,-0.0013527487,-0.007742407,0.0055147423,-0.00807275,-0.0019000518,0.0027491418,-0.007075732,-0.008751234,-0.0066430336,0.0074625807,0.009049584,0.004009009,0.0024042006,0.0041466225,-0.0040670154,0.009761486,0.006889485,0.0041052853,0.008952841,-0.00840842,0.00093828916,0.008881144,-0.0009313989,-0.006737427,-0.002277917,-0.0027993605,-0.0024986921,-0.0018512389,0.007285153,-0.0003030132,0.0042031966,-0.0037441903,0.008230389,-0.0065125963,-0.00933337,-0.004130911,-0.0073850793,-0.004887875,0.0004987973,0.002407742,0.0017468974,0.005022493,-0.0013974949,0.0022906703,0.00034100338,0.007854682,0.008022746,-0.0019705908,0.0012321142,-0.006036636,-0.0047493884,-0.006969028,3.974134e-06,-0.0049278573,-0.0040741055,0.0014827087,0.002603464,-0.0091048,0.0017502949,0.0051071714,0.0041811294,-0.0029113148,0.009482495,0.009436208,-3.6075584e-05,0.0008509467,-0.009245728,-0.0048029963,-0.00010850145,0.0040335185,0.00015359608,-0.0087247025,0.0058174464,-0.007441587,0.008536995,0.005510544,-0.006776157,0.0028253677,0.0077134557,-0.0061055403,-0.0065451665,0.0092129,0.0017985124,0.009706997,-0.00990353,-0.0014872323,0.0069081495,-0.0014750637,-0.0017805088,-0.0070886393,-0.005671384
순두부,-0.0065399953,0.008978752,-0.0016241539,-0.008322339,0.008021401,-0.002997124,-0.0013007708,-0.00063815253,0.0027241232,-0.0047004903,-0.00024584882,-0.002854936,0.008788815,0.006899522,0.0010981159,-0.006118901,0.003156312,0.0011711507,-0.0061855973,-0.005830285,-0.0030761724,0.0024060758,-0.008144735,-0.00496327,0.008106961,-0.0037209752,0.0079614865,0.0004896326,-0.005582265,-0.0049652304,-0.00024793742,0.0046469085,-0.0060838633,-0.005550486,-0.006834793,0.0067858556,-0.0024518503,0.0040287864,-0.0016564459,-0.007506294,-0.0012412595,0.00040900457,0.003612781,-0.008685464,-0.0067511545,-0.0065980693,0.0030028897,-0.003729606,0.0010237751,0.004157543,0.004533742,0.0023467056,-0.0028478843,0.0006112528,-0.005421289,-0.0063649607,0.008703565,-0.004088078,-0.009363962,0.0037625502,0.008481289,-0.00017070406,0.0022651828,-0.003607226,-0.004250892,-0.008601352,-0.007851547,-0.009061086,-0.0060529797,0.008509453,0.009449749,-0.001662956,1.1173274e-06,0.0078544635,0.0012664794,-0.0051056063,0.0026389873,0.0018224518,-0.003746324,-0.0048767803,0.009620108,0.007594526,-0.00865306,-0.005514815,0.0013700112,0.0009176273,-0.008340202,0.009381572,-0.005359856,0.004638206,0.009269791,0.001072792,0.0042052604,-0.0026937553,-0.0096307425,0.0006250906,-0.0010685271,-0.0100026475,0.0070298878,-0.0073971325
떡볶이 떡,0.0051174415,-0.0044083213,-0.009195029,-0.009056811,0.006244484,-0.0052478933,0.005272069,-0.0015687277,0.0096799815,0.0071621006,0.009887262,0.008376503,-0.007873294,-0.009582845,-0.005585046,-0.0008065464,0.005003145,0.0036708214,-0.0020429846,0.00504975,-0.0034065617,-0.0068121455,0.0047113784,-0.0098577505,0.0008907254,-0.0050031724,0.00757964,-0.003734836,0.0028012476,-0.006243768,0.009625261,-0.0055916947,0.0035806405,0.003236665,0.008922968,-0.005567277,-0.004384129,-0.006197574,0.006146167,-0.0046064653,0.004808275,-0.00090287894,0.0072642174,-0.006034867,-9.756758e-05,-0.00010198745,-0.008536608,0.008736543,-0.0020905752,0.0064373272,8.94601e-05,0.0050102486,0.0022256116,0.008858451,-0.00832915,0.00845196,0.008641086,0.0010465983,0.0044103228,0.003836197,0.0040421872,-0.002953207,0.0028397236,0.00074050465,0.004826414,0.008396743,-0.0077402107,0.0001655763,-0.008739185,-0.0015785632,-0.009023829,0.0031683946,-0.00157392,-0.0007046884,0.006417465,-0.008093456,0.0011378361,-0.0024229833,-0.0037344848,-0.007278987,-0.007987895,0.008283306,-0.0074503524,0.0048188036,-0.0038042215,-0.0012282204,0.0028094368,-0.008573832,-0.005654326,-0.0077275317,-0.009399277,-0.0047635427,-0.0031542715,0.0004920283,-0.0006993781,-0.007873563,-0.0037836747,-0.0027559146,-0.006388184,-0.006373355
돼지고기,-0.0026259196,-0.007857639,-0.008222748,-0.007572429,0.0035638048,-0.007621556,-0.0036745388,0.0066611506,0.007308981,-0.0064096223,0.006789213,-0.007829317,0.000117036696,0.0066331206,-0.0028218126,0.009211857,-0.00034042442,0.004684527,0.006891775,-0.00860222,-0.0060703238,-0.0072584148,-0.0011757736,-0.007111828,0.0001047145,-0.00803482,0.00047772733,-0.00041694357,0.0064219376,-0.008886686,-0.003193248,0.0059135775,0.009283858,-0.0018046924,0.00076044473,-0.006065086,0.0007931233,-0.008132718,-0.0076808194,0.0013522682,-6.6152075e-05,0.005549737,-0.009739677,0.0016871209,0.0016037326,-0.005296689,6.8406014e-05,0.006037103,-0.0065960176,0.00030967031,0.003869998,0.0016856365,0.002920374,0.008164093,0.0066740974,0.0035119483,0.0079599945,-0.0077301315,0.007467824,0.0039167353,-0.005881025,-0.0042117247,0.006377702,0.0057223006,-0.00990126,0.0012448742,-0.00036906952,0.00089236116,0.0070483955,-0.0071236505,0.009680901,-0.009449767,0.006230965,0.009477787,-0.0038100367,-0.009349095,0.006167078,-0.008989382,-0.008325945,-0.0008341705,-0.0066798558,0.008743704,0.0078015774,0.0008916589,0.007950714,0.009880335,0.0051669185,0.0043558045,0.0054039774,0.006434512,0.004788023,0.006402353,-0.0074487925,0.008867573,0.0083455695,0.009425899,-0.009003853,-0.0034839602,-0.00032426984,0.0041585257
모짜렐라 치즈,-0.008209268,0.00019431842,0.0060235388,0.0095934635,-0.0028418177,0.0017972331,0.006329018,-0.001975208,0.0019353625,-0.00933316,0.0007201618,0.004587821,0.004496145,-0.00973101,-0.00513378,0.0029533494,0.0016092876,-0.0047015767,0.0058060572,0.0034738344,-0.007820521,0.009892583,-0.0077467244,-0.0030332422,0.009758929,0.0011247033,-0.0055758436,0.0011208262,-0.004097523,-0.006754488,-0.0077863503,0.004768058,-0.009027567,0.0040645855,-0.0055403626,0.0054673753,-0.004393037,-0.0055930894,0.006336271,-0.008680421,0.0013304722,-0.0021208643,-0.0066786516,-0.0076539926,0.0067859925,-0.0044718385,0.0045768465,-0.0096760625,0.0018942459,-0.0019492008,-0.0059204604,-0.0027795676,-0.008645125,-0.0034818375,-0.0026038934,-0.002298491,-0.005107911,-0.009221052,0.0053131445,-0.001285598,0.006172397,0.0030773054,0.00853686,-0.0035370146,-0.008906447,0.001333098,-0.009016431,0.006037909,0.008427597,0.0005215897,0.007701859,0.008565742,0.0042082015,0.005420127,0.009135261,0.0011651847,-0.008260704,-0.008350777,-0.0017973053,-0.00062965177,0.008837334,-0.009329744,-0.0026322715,0.009133453,-0.0014603337,-0.009050817,0.0020018523,-0.0058324393,-0.0054703346,-0.0063349945,0.00013352206,0.007229747,0.0041137915,0.0081570605,0.008890731,0.004532187,-0.0060583726,0.007054862,-0.009533873,-0.0047980254
다진 쇠고기,0.007989568,0.007923792,-0.0054308916,-0.007989694,0.008099117,-0.0038372786,-0.0040740934,0.0072223525,0.005418849,0.003834317,-0.0012517011,0.008665017,0.008457529,0.0069932253,0.009073425,-0.005779291,0.00102054,-0.0016217628,0.0063281157,0.009754446,0.00515585,0.0040743747,0.0065216073,0.005861531,0.000117354364,-0.008358444,-0.00217218,0.009067185,-0.0051181023,0.0010095866,0.0048779324,-0.0069434918,0.00819679,0.0014699519,0.0024170252,0.0083211595,0.0014581506,0.0008904499,-0.009425676,0.009838211,-0.009857908,0.008530701,0.0050498103,-5.8947575e-05,-0.007848456,0.009357227,-0.0013806386,0.005329803,-0.0030006608,-0.0048803245,0.00015305876,-0.008041854,-0.00663507,-0.009459578,0.005349035,0.00046351744,-0.00091875833,0.0050854413,-0.0019869893,-0.007389242,0.0028888443,-0.005939211,0.00051701284,0.009465326,-0.00097320945,0.0061542243,0.0044644037,-0.0035318753,-0.005229009,0.008863923,0.0021179763,-0.0004440459,0.0008983799,-0.0049293223,0.003576306,-0.0031103813,0.0041989004,-0.004544375,-0.0008049303,0.0039138454,-0.0071359132,-0.0025341832,-0.0087415865,0.0015574987,0.0020203185,0.0024044025,0.0010652129,7.952065e-05,0.002231611,-0.000947784,0.005961445,-0.0029215452,-0.005075154,-0.0053096605,-0.009669598,-0.008108061,0.002128884,0.003984189,-0.005784722,-0.009690233
대파,-0.0061735814,0.004673187,-0.0090901125,0.005095505,0.006358166,0.0061149625,-0.0076205,0.0028642507,-0.0054582744,0.009040505,-0.0043061925,-0.0023722365,0.00522291,-0.00081909064,0.0050912863,-0.004216426,0.004995339,-0.009801484,0.0060719294,-0.0012650667,-0.0056042853,-1.3790697e-05,-0.0012249396,-0.00070924556,-0.0017515111,-0.009274661,-0.0078028757,-0.0068090796,-0.008637775,-0.004544583,0.009186334,-0.0018015933,-0.007585572,-0.0059012854,0.0036206301,-0.00270967,-0.001549586,-0.00426132,0.0059415763,-0.007852781,-0.007506863,0.0075186975,-0.00696903,0.0021665262,0.0003920795,0.009672962,0.0042480165,0.0020679268,0.002770994,0.002299506,0.0021946349,-0.0027275542,0.004099143,0.0061264774,0.008928728,-0.00074926746,-0.0012218279,0.006465112,-0.008479907,-0.0006528412,-0.006659458,0.00478129,-0.008930966,0.0032512601,0.008991735,-0.0020613617,-0.008841119,-0.008161277,0.003245034,-0.0053380304,0.006452976,-0.0011786729,0.007865659,-0.00050315144,-0.0062262462,-0.005689535,0.00076911686,-0.0047978405,0.0065630707,-0.0035172717,-0.005635256,0.00094352657,-0.0048647327,-0.008222114,-0.0052490584,-0.0018685218,0.0004319176,0.0036666568,0.0068709007,0.006728892,0.0058895904,0.0003268314,-0.005821049,0.009037563,-0.00063542405,0.004731608,-0.0014168994,0.0057810186,0.005310113,-0.0072851074
콩나물,-0.002753532,0.000117898686,0.0020245262,-0.009275812,0.0048440294,0.0033567771,-0.00015393614,-0.0034582864,-0.007602594,0.007600456,-0.008609402,-0.0074006524,0.0044584074,-0.008499786,-0.0032828243,-0.0021106903,-0.0018960271,-0.006846162,0.004286787,0.0009603312,0.0036555051,-0.0013158561,0.0069292593,-0.009528454,0.0058278437,-0.0051318263,0.0016954246,-0.00695567,-0.0025176804,-0.0064329836,-0.0033391886,0.009736708,0.0026961337,0.0016124289,-0.0060995226,0.005599967,-0.008127887,-0.002301606,-0.006474293,-0.006383314,0.0023235148,-0.003309963,0.002441148,0.0039355075,-0.0062663173,-0.0017306082,-0.002763788,-0.00980721,-0.009823115,0.0011117546,0.0043807877,0.00021618871,-0.0048478525,0.0036354666,0.001670441,-0.009438346,0.007216143,0.0077911266,-0.0077737966,-0.00075854483,0.0060592615,-0.002773678,-0.00032946962,-0.0042388593,0.0060881376,0.0070134895,0.002086348,-0.0046743713,-0.0018272023,-0.004000581,-0.009745411,0.007807643,-0.0006068896,-0.00060640805,0.0071118283,-0.009031602,0.006345262,-0.007556639,-0.0053632664,0.0050830543,-0.003484731,-0.0034984662,-0.006340076,-0.0039045648,-0.0026718471,-0.0040782774,0.009466451,0.009473173,-0.00036161486,-0.00027812133,-0.005615775,0.007939655,-0.0049464856,0.005930472,0.00912339,0.0057938867,-0.00093679724,0.005542763,0.0069436505,-0.0038845679
크림치즈,0.00066869735,0.0064887833,0.0058700074,-0.00017737626,0.0023800994,-0.006513871,-0.009360355,-0.004947617,-0.005387889,0.0005870259,-0.003968233,-0.00036958815,0.0076345527,0.009735687,0.007875881,0.0023892177,-0.002713331,0.0024317193,-0.002689917,-0.008950145,0.006893041,-0.00864854,0.0037876796,-0.0039562345,-0.005543058,-0.0010435808,-0.0065629804,0.008584109,-0.0068779336,-0.008960546,0.005766258,0.0044640074,0.004731456,0.0024269414,-0.0037255073,-0.005117301,0.0017721546,0.008346565,-0.0056522763,-0.002382443,0.0018483603,0.0067221927,-0.0063973977,-0.0045277537,-0.00263857,0.0013348305,0.0053712786,0.0055493726,-0.008709503,0.0072726095,-0.0025022244,-0.0028426396,-0.008858556,-0.005775082,0.0094486065,0.0030875301,-0.008042767,0.0028074014,-0.007072759,-0.009057885,0.0038657845,0.0020369685,0.0012546491,0.008846326,0.0062607015,-0.0050706305,0.0027278292,0.0025451027,0.0023978257,0.008333056,-0.0069134166,-0.0022994315,0.0010089492,0.0063777566,-0.0006487334,0.007928119,-0.004651916,-0.009031399,-0.007054099,-0.004137695,0.009583299,-0.0051272656,-0.004848361,0.0081734825,-0.007456185,0.0020097601,0.0057160435,-0.0075303363,-0.0002629769,-0.0023681892,0.005565623,-0.004560453,-0.0066047884,0.009891739,-0.0046231486,0.007604263,-0.008454762,0.0070173442,-0.0033897674,-0.00781486
빵가루,-0.001158589,-0.0023615945,-0.0017960592,-0.0011519829,-0.0065041566,-0.0035579198,-0.0031761262,0.007731722,0.005867002,-0.0008961109,-0.0048104194,0.005297575,-0.008849663,0.0016605081,0.004007779,-0.0019527777,-0.004519416,-0.008223555,-0.008294926,0.007109473,0.0036444839,-0.0003784185,0.009717091,-0.008546925,0.00057401194,-0.00041524527,-0.008073511,-0.009085359,0.0071856603,-0.0036244954,-0.007903513,0.007945386,-0.006251163,-0.003123465,0.0017632659,-0.003362067,-0.007954698,-0.003922559,-0.009035544,0.0014009108,-0.0046242145,-3.6699574e-05,0.0027317784,-0.0023631905,0.00882763,0.007040569,-0.00054157403,-0.00065995124,0.000872289,0.0067623598,0.008955967,-0.0019407037,-0.0015790001,-0.0029905564,0.00049419934,-0.006458463,-0.0018817874,-0.008668262,0.0006296696,0.0014338505,0.0037237979,-0.0028766484,0.005954817,-0.007092444,0.009824301,0.0005494298,0.002294875,0.0043834243,0.00042198083,0.0026044361,0.001602257,-0.009632858,-0.00314932,-0.002596976,-0.009248762,0.003453144,0.004788613,-0.0020817753,0.0074300286,-0.0012033319,-0.0002848865,0.0057687084,-0.008499093,-0.0068986947,0.007336591,-0.0065823537,0.0084642265,0.0053409967,-0.008037738,0.00839744,0.006342826,-0.0067129806,-0.008465011,-0.008824626,0.0038639423,0.006327294,-0.0021129474,0.0013444724,-0.008427656,-0.005121586
된장,0.0046688463,-0.009070501,-0.009227375,0.0010216065,-0.008584109,-0.006977292,0.0047784983,0.00806958,-0.007391964,0.008121976,0.009368668,0.0046908283,-0.004399309,0.009709421,-0.007730401,-0.0039329496,0.0019586897,-0.0076478743,-0.009915063,0.0028031773,0.008191722,-0.0051123686,-0.0043096775,0.00391722,0.0006942217,-0.008536003,0.006553414,-0.0031850776,0.0035482177,0.0031304637,0.008813218,0.008772163,0.0073814057,-0.008309807,0.0012151793,-0.0009324412,0.00090255647,0.008918513,0.0047428156,-0.008962568,0.009836905,-0.00088675035,0.0003926032,0.0049590585,-0.0061781523,-0.00040090026,0.0013794691,0.0070509547,0.0043117157,-0.0019068632,-0.008486035,-0.0039000167,0.008829611,-0.0095367115,0.009861485,-0.00013141845,-0.0011135701,0.009596851,0.009564972,0.00831302,0.009007831,-0.009989243,0.0075480044,-0.00940383,-0.0077784727,-0.008824894,0.0021635147,0.0072622113,-0.0063317847,-0.0026862263,-0.002341344,-0.004514187,-0.0013070966,0.004845119,0.0036904665,-0.0032601038,-0.003746241,-0.0023573516,-0.0032372102,0.003966977,0.009752368,0.00785014,-0.0076362733,-0.0064660897,-0.009175478,-0.005894679,0.003636446,-0.0059864875,0.0017362385,0.008900449,0.0034090069,0.0011722017,0.008935799,0.0064640855,-0.0014297742,-0.00620557,-0.0010489738,0.0072346427,0.0074942023,-0.0040602987
소분한 소불고기,0.009941097,0.0024289687,0.005122338,-0.005654702,0.004376046,0.00022566075,-0.009568839,0.0050875894,-0.009053765,-0.006463291,0.00277989,0.009273538,-0.0021293096,0.006998948,0.005065545,0.0040671146,-0.0062007154,0.0050747693,-0.008333985,-0.004368523,0.005466343,-0.008143815,0.0057050986,-0.0034956355,3.421118e-05,-0.0073754834,-0.0062449696,-0.0033491433,0.008598658,0.0053290105,-0.009721194,-0.0065545496,0.0034463531,-0.008556191,0.006663908,0.0062030335,-0.009310613,0.008674132,0.007826011,-0.001813152,0.0018098719,-0.005709968,0.006217584,0.007700083,0.0041044904,-0.008909749,0.004950608,-0.0030593814,-0.0021906183,0.0060863653,0.0018476427,0.004633219,-0.0062490865,0.00523639,-0.0035369126,-0.0003711649,0.006215653,0.004042978,0.0074303057,-0.0039088894,0.003564543,0.0073119886,-0.0032955362,0.0057335543,-0.009418575,0.008839919,0.003793997,0.0053408244,0.0046152063,0.0046017533,-0.0033158467,-0.0062211705,-0.0022971176,0.0013617227,-0.00293102,-0.008469713,-0.0062956046,0.00835288,0.009346905,0.005972535,-0.004117881,0.0006821809,-0.008601528,0.0066865175,0.0004339597,0.007382877,-0.005370568,-0.0028110368,0.0028636244,0.0034804451,-0.006521243,-0.0073679695,0.002021133,-0.009001083,0.005822514,0.0054851277,-0.0038138733,-0.005674909,-0.00832883,-0.0018823288
양파,0.0070131733,-0.00015400165,-0.007919982,0.008902289,-0.008547048,0.0055261394,0.006519074,0.0010422851,-0.008744742,0.0061781555,-0.007843674,-0.0050840974,0.009623942,-0.008263011,-0.0076444848,-0.004928774,0.0034564687,0.001926684,-0.0056003495,-0.0033593173,0.008602947,0.0098109925,0.009904492,0.0010562737,0.0040688086,0.0013921128,0.0016553794,0.0048028585,0.0021711963,0.0002967076,-0.0031688279,-0.006498988,0.0080555435,-0.006008164,0.0027520503,-0.0008730919,-0.0036411996,-0.004942596,0.003201269,-0.0059350953,-0.0075029316,-0.0026617376,0.0047171493,0.006027156,-0.0013972186,0.0072651,-0.007598981,-0.004772638,-0.007860623,-0.006032721,0.007293781,-0.00931606,-0.008643292,-0.009806611,0.009187342,-0.002651992,0.0009906088,-0.006233666,-0.0026242419,0.00010949427,-0.0025015748,-0.0073636738,-0.0061915256,0.0024701983,-0.009542227,0.0011869635,-0.0020028932,0.008331307,-0.0004621934,0.0062494925,-0.0071013565,-0.0075670574,0.0055631176,0.0009345405,-0.005067539,-0.0026323288,0.00876058,-0.00921469,-0.0036965515,0.0009994459,-0.0002082952,0.009480922,-0.0020132742,-0.007053484,-0.0077284025,-0.009859848,-0.007816059,-0.0059702285,-0.005936501,-0.0013962092,-0.00050301506,-0.004721982,0.0020999596,0.0038786905,0.009121756,-0.004593385,0.0051469193,0.0072160754,-0.0037686613,-0.007441366
가지,-0.0033387006,-0.006891975,0.0064954115,0.009387545,0.008272879,-0.008534172,0.0050477707,0.0050999965,0.0056287623,-0.008324645,1.7518998e-05,-0.006825198,-0.008916365,0.0024941885,0.009930209,0.0064967275,-0.0070674145,0.002336718,-0.0039035357,0.00992626,-0.008801694,0.0097253015,-0.006517699,-0.0070063495,0.0016265237,-0.0006727183,-0.00851412,-0.00061249017,-0.0003583193,-0.0062671616,0.00574685,0.0031744791,0.008400433,0.0073984587,-0.006641384,0.0047862935,0.0056937253,0.00577824,0.005206115,-0.0047820937,0.004316015,0.0013179529,6.9856644e-05,-0.0064561605,0.0015231848,0.005264833,-0.009211073,0.008607114,0.0029928028,-3.9848088e-05,-0.0033638144,0.00036002754,0.006084268,0.0047726883,-0.0059520877,0.007873684,-0.0006383729,-0.008159326,0.008868797,0.0050710593,0.0036271536,0.007909533,-0.007528286,-0.005830854,-0.002005663,-0.004098352,-0.0016020107,-0.0005881453,-0.008385045,0.0019008947,0.0025585734,-0.0008413959,0.004869256,0.0014651024,0.0059875203,-0.0022362708,0.008524367,-0.0015649045,0.0030778253,-0.0037869918,0.0061295773,0.0030772365,0.0005445683,0.008756796,-0.007837457,0.009714823,0.000781306,-0.0023544144,-0.0041274764,-0.009104325,-0.002220707,0.0026890803,0.00657832,0.009070311,-0.008748599,0.009056885,-0.008840022,0.003732773,0.008027507,-0.0025085735
소고기,-0.007861462,-0.008338626,0.0011527985,-0.0007565898,-0.009505801,0.0030935581,0.002265209,0.0044724406,0.004431312,0.0032408007,-0.00981598,0.00572906,0.0042482545,-0.007741832,-0.002121756,0.0003522625,-0.000635278,-0.000960904,-0.005564833,1.241435e-05,0.004423597,-0.0006787906,0.0008004792,0.0020898639,-0.0039652637,-0.007869634,0.009166507,-0.009792324,-0.002486936,-0.001265774,-0.007670391,0.0017717169,0.007966983,-0.001529227,0.008104386,0.0003030946,-0.0057708914,-0.0019773543,-0.0007406436,0.0062510506,0.0071148016,0.006201353,-0.005993626,-0.0069729486,0.0061008907,0.0024818177,0.0053549423,0.00046287125,0.007869919,-0.008867038,0.009880594,-0.008241892,-0.0017050306,0.006287989,-0.009242413,0.004302892,-0.0069771227,-0.006851463,0.00228805,0.0017483331,-0.0027895027,0.007871174,-0.007020634,0.00046508154,0.008731053,0.0020351342,-0.006848385,0.0035522373,-0.0050389217,0.00060525414,0.0028701304,0.0075865993,0.007384026,-0.0048945798,0.009531152,-0.00548385,0.007634057,-0.007987457,-0.00782395,-0.0011201365,-0.008153087,-0.0034747974,-0.0005204049,-5.858e-06,-0.009965244,-0.0065081576,-0.0074171247,-0.00038018072,0.005187426,-7.925781e-05,0.00997645,-0.0038832591,0.008068166,0.006091341,0.008280612,0.00010970859,-0.0004251456,0.0018847688,-0.00992892,0.009049381
메밀면,-0.0023871744,0.007564186,0.0020368493,0.0029080857,-0.0012469412,-0.009905019,0.0013967622,0.0029034754,-0.00983245,-0.0038834421,-0.0023517464,-0.0050783595,0.003969526,0.0021018665,0.0043420726,-0.0064876024,-0.0060200016,0.004735066,0.006759196,0.005525149,0.0048011933,-0.007249449,0.008168646,-0.00695213,-0.0076775006,0.008509544,-0.002464884,-0.009423374,-0.003085486,0.0059719672,-0.002891976,0.004953356,8.7535955e-05,0.0040712235,0.0011756972,-0.009306087,-0.0036524425,0.008832801,0.0015221335,-0.0059039793,0.007052306,0.0074534826,0.007253529,1.3980344e-05,-0.009153637,-0.0034916212,0.0051273815,-0.006513865,0.009753739,-0.009802551,-0.008123764,-0.005331703,0.006017745,-0.007685244,0.008623107,-0.009878903,0.003497146,0.0032723602,4.3104916e-05,0.009549527,0.005133952,0.0002783099,0.0048059504,0.0063893576,0.0030097438,0.009419505,-0.0013206964,-0.008391674,-0.0044810222,-0.0014929764,-0.007291176,-0.0015657096,0.00793491,-0.0050301556,0.0050986,0.0043851314,-0.0007015471,0.0010804638,0.005734627,-0.006647991,0.0039050595,0.0088925725,-0.003510024,-0.0076173227,-0.009242448,-0.008995942,0.003873945,0.0051204436,0.0070686527,-0.0014451133,0.0009762454,0.003072044,-0.009897537,-0.009413894,0.004604225,-0.008404479,-0.0031655305,-0.0043194527,0.005924045,-0.003447964
라이스페이퍼,0.009982215,0.00055624964,-0.0051474776,-0.0036372698,0.001257832,-0.00536841,0.0073942672,0.009023565,0.004292709,-0.0073460448,-0.0059461105,5.0555467e-05,-0.0010186636,-0.0055266414,0.007935796,0.006237173,-0.00418383,0.0023823476,0.0051312707,0.0024099147,0.0085688345,-0.0012911868,-0.0065269945,-0.00083419203,-0.008322713,0.009843702,-0.008616771,-0.0015034461,-0.002849666,0.0031493437,0.004970863,-0.008236573,-0.004408245,0.000491668,0.0039994265,0.0051164306,-0.0013848603,-0.000623014,-0.007825941,0.0045463373,-0.007649441,0.0032852124,-0.0034279441,-0.0078022038,0.0068838205,-0.0004573655,-0.009545268,-0.009375973,0.0005911231,-0.008181143,0.0037383246,0.003464539,0.0033530975,-0.0056026364,0.007983505,-0.008987202,0.0074568833,-0.0006320059,-0.001473198,0.003964249,-0.0024885095,-0.004396192,-0.0024170566,-0.00618799,-0.0003520119,-0.0053840484,0.004604342,-0.009538221,-0.0043516336,-0.009165211,-0.009617129,-0.0007513642,-0.008083727,-0.005692041,0.002775898,-0.0014404022,0.003104688,0.008265149,-0.00963028,0.0060847662,-0.007946159,0.0065345466,0.007468425,0.008580471,-0.00795149,0.0033395386,-0.007842227,-0.00124591,-0.005220268,-0.008533285,0.004934062,0.0044341264,-0.0040578507,-0.00777642,0.0035564327,-0.0039322674,-0.008868993,-0.004387828,-0.0021720326,0.008757072
오리 가슴살,-0.0064564645,0.0073323892,0.0061229146,-0.004908136,-0.001758852,-0.0025048994,0.0031226445,-0.00045303107,-0.0027636087,-0.009045644,0.0064344313,-0.009615391,-0.008650444,0.0013819778,0.0029734327,4.7421454e-06,0.00037010072,0.0025892723,0.0018025708,0.007568313,-0.003446393,-0.0072333897,-0.00788418,0.007919614,0.0019462728,-0.005807856,0.006391193,0.008453579,0.007946606,-0.0068279803,-0.0051414394,-0.0020103382,-0.0066176713,0.004728824,0.005664438,-0.005995921,0.007199256,-0.007656555,0.0062029026,-0.004625329,0.0019614566,-0.0032713367,0.0033896612,0.0077184713,-0.0013945032,-0.004985187,-0.00856165,0.0036374521,0.004231018,0.0066972245,-0.004289763,-0.009732989,0.006821517,-0.0045247437,0.0044197715,0.008054533,-0.0039428137,0.0016341746,-0.0035891545,-0.0066137468,-0.005684339,-0.00013659001,-0.0075132754,-0.0019958054,-0.002487917,0.0067084394,0.0013637447,0.0058521964,0.0038193201,-0.0035164417,-0.005091473,0.009661293,0.007070396,-0.009044231,0.0052457834,0.008193034,0.0091923,-0.00805466,-0.0020131744,0.0010854984,0.0029083753,-0.001621958,-0.004704926,0.0064684176,0.006932578,-0.00038987756,-0.005843141,-0.0043717623,-0.0051488746,0.0042562988,0.0005137396,-0.002359662,-0.009084906,-0.0014964581,0.006431346,0.006324997,0.0042235423,-0.0028758978,0.00905161,0.00060097576
닭안심살,0.0011262025,0.006222705,-0.0065923366,0.0065425457,0.009783612,0.0036525906,0.0034706346,0.0042096614,-0.001997487,-0.008101236,0.001479393,0.0008862559,-0.006790139,0.0019739484,0.005425898,-0.0072013764,0.0025051474,0.007778004,-0.008672118,0.003457202,-0.008559413,-0.007919901,0.0071006026,-0.0075658634,-0.0013948065,-0.007925548,-0.007871353,-0.007127375,0.00038625314,0.0017910168,-0.007910999,-0.008029375,-0.0031595372,-0.0018283837,-0.0061762934,-0.004199196,0.0035804235,0.0030910182,0.0065876283,0.0042162887,-0.0008622832,0.0027506216,0.009045107,0.0019066496,0.0018418824,0.0011021411,-0.009304567,0.0053446637,0.005061546,1.3117759e-05,0.009209715,-0.0057404824,0.0032786513,-0.0078021963,-0.008952333,0.0020054807,0.0047430787,0.006074752,-0.008724923,0.004344231,0.0024001482,0.004140934,-0.00068806304,0.0055135656,0.0072841416,-0.008389957,-0.009939111,0.0070336014,-0.0009925861,-0.0093629975,-0.004078293,0.0011893237,0.008425117,-0.0016902759,-0.0010252085,-0.0073480774,-0.007668366,0.0014581583,-0.00047666792,-0.0077080587,0.0008735717,-0.009003597,-0.0025110482,0.004230743,0.0010877743,0.007844603,0.0066054524,-0.0011694055,0.004961828,0.0061442363,0.008757565,0.009062559,0.004918535,0.0046243174,0.007216689,-0.0015483941,-0.0056410064,0.008850472,0.0012229554,-0.005043982
중국 당면,-0.0008840318,-0.0052223885,0.009141556,0.0034197397,0.0043082573,0.0064868093,0.008191627,-0.00476265,-0.0063710553,-0.003719041,-0.003735212,-0.009441913,-0.0006304691,-0.008096319,0.009776454,-0.003432916,-0.0063290917,-0.008079342,-0.0036027895,-0.009594403,0.0007841268,0.00542247,-0.0028820615,0.007657728,-0.0018748324,-0.0072802333,-0.0031348518,-0.0031512422,-0.00712746,-0.009692178,-0.0040834052,-0.0016004993,0.0050512664,-0.0076308385,-0.0049621565,0.001388267,-0.0016860476,0.0035822135,-0.0018987493,0.004341919,0.007990271,-0.007921141,0.0037568423,0.00600635,-0.00055094826,0.0067674746,-0.00539992,-0.0045796884,-0.007850338,0.009484659,-0.009403523,-0.0032638805,-0.0004260232,-0.004844469,0.009461159,-0.0068409876,-0.008049573,0.009220765,-0.008341914,0.009716219,-0.004109955,0.005662814,-0.0004095891,-0.003999562,-0.007520611,-0.0062739444,0.0068507446,0.0063573755,0.00014640352,0.006436693,0.0038673766,0.0038151622,0.0026885266,-0.009739445,0.009263753,-0.008182538,-0.0030013379,0.0014147753,0.0052732984,-0.009240258,0.0016751065,0.0063313153,-0.008799287,0.0095743695,-0.005238103,0.0095731225,-0.006521509,0.0066124285,0.009361114,-0.009220052,0.0003364944,-0.007758457,0.008122321,0.009604196,-0.0060235173,0.0008541263,-0.0022211883,-0.007768385,0.0008246028,-0.009905437
쪽파,0.0026242288,-0.0076737464,0.005684218,0.007588643,-0.0025341394,-0.00402813,-0.009611591,0.0049457066,0.0029121581,0.008747162,0.0033016712,-0.00291575,0.0035693813,0.008636472,0.009236346,0.00764722,-0.008545273,-0.007588382,0.007257354,-0.007463471,0.0032499484,0.008035087,-0.0032055734,0.00676236,-0.008157425,0.0064885407,0.005574456,0.0033307383,-0.008132117,0.009159701,0.008236477,-0.0015536338,0.004103544,0.006369973,-0.0017514226,0.0054986873,-0.004042918,-0.0012709217,-0.0011905739,-0.004184491,-0.0007274707,-0.0077272067,0.0036405872,0.009057314,0.0047634975,0.0063817375,-0.0047585624,0.004858417,-0.0066803074,-0.004958927,0.009880775,0.0063945334,-0.0049784267,-0.006078181,0.0072276145,0.0027111887,0.006608376,-0.0067724516,-0.0009925889,-0.00093655783,-0.00021749116,0.0022037732,-0.0067466493,0.0043678815,-0.0027492864,0.008349652,-0.001049123,0.009173881,-0.0008432676,0.00521107,-0.0075952304,-0.009103545,-0.00034780573,-0.002272123,0.009975653,0.004530691,-0.005573214,0.0073661925,0.00058536575,-0.009552723,0.0057167467,-0.0020277293,-0.009431784,0.00869275,0.0072510447,0.008544831,0.00036181533,0.007690988,0.005200173,-0.0069386237,0.00930511,-0.0035519751,-0.009733806,0.008573223,-0.0052898196,0.008419837,-0.007849143,0.00926768,-0.005919481,0.003995412
모시조개,0.009766921,0.0042389496,-0.0021158678,-0.0049794554,-0.009735033,0.0041801184,0.0074703805,-0.0046968255,0.005905014,0.0068301274,-0.009020118,0.0020569093,-0.0068592145,-0.0043411287,0.0008185223,-0.007044934,-0.004176155,-0.0075538857,-0.007029281,-0.0069805644,0.0099336365,0.008348814,-0.00015052242,-0.0026123754,0.0062136836,0.001350461,-0.009006685,-0.0070675598,0.0010158987,0.007942198,0.00319949,0.009853157,0.0065890322,0.00028594467,0.008649659,0.009042672,0.00807508,0.009421456,-0.009433079,0.0035058984,-0.0077725747,-0.0071718697,-0.008477548,0.0032082845,1.7580169e-07,-0.006371225,0.0055807503,0.007908433,0.004317223,0.007846882,-0.004283925,-0.006411214,0.0040135463,-0.0029305243,-0.007188997,0.003672475,-0.0033241096,-0.0052365256,0.0026058939,0.006862611,0.0063968496,0.00015656598,0.008642509,0.0028932313,0.006562392,-0.0009042924,0.0021119416,0.0062044556,-0.009822353,0.005872613,0.0012967838,0.0061106733,-0.0014246869,-0.0026817513,-0.0055591133,-0.002831553,-0.0025986624,-0.005153691,0.00096055365,0.007996402,0.0051251496,-0.0076719164,-0.0074209208,-0.0029012363,0.0038686576,-0.009304835,0.006109466,0.0031301852,-0.002794357,0.009220634,0.008122294,0.0007237829,0.0048121363,-0.009291373,-0.0087762205,-0.0029490378,0.009313297,0.0032262322,0.005610903,-0.0067540086
훈제연어,0.0042423415,0.0003892681,-0.00092736003,-0.0032304209,0.0049485103,-0.009115794,0.005114332,0.0056993375,-0.002431328,-0.0042053144,-0.007406961,-0.0063735577,-0.005113321,0.0031651033,-0.004811129,-0.0011905278,-0.008925024,-0.003517024,-0.0007647213,-0.007962721,0.0032486739,0.009740774,0.004396888,0.0018693168,-0.0048728944,-0.0011411372,0.0022399286,0.0017164779,0.008820969,-0.00091579725,0.007018479,0.005796032,0.0030324135,0.007320548,-0.004939273,-0.0039489367,0.006981471,0.008624155,0.0031466736,-0.0041212514,0.0076496233,0.0027264818,-0.00021569962,0.008855,0.004339367,0.0039603463,5.2761334e-06,-0.008920476,-0.0031143043,0.0024189828,-0.0055939592,0.0071238116,0.0074546346,-0.008955267,-0.0053594974,-0.0059684496,-0.00066400255,-0.001811158,-0.0020663561,-0.0022140874,0.0035612502,0.0096282335,-0.004577209,-0.008299434,0.0037270263,-0.006461068,0.006691924,0.0026799825,-0.007870373,-0.0077377595,-0.009266278,0.0023627384,0.002737861,0.0026159387,0.00019427115,0.0010429472,0.0030599318,-0.0015627946,-0.008030235,-0.0006202378,0.0037048168,-0.0026316082,-0.002152098,-0.0022325916,0.0072755506,-0.0030467417,0.009444084,-0.0038839565,-0.00996698,-0.0065381196,-0.004367871,0.0012485049,0.0051275347,0.0021677583,0.009066845,0.00090118067,0.0056297393,0.00014268965,-0.0021164932,0.006217929
쇠고기 불고기용,0.0020243544,0.008286426,-0.008309987,-0.008771288,-0.0005283481,-0.0019121984,-0.0023259413,-0.0005699359,-0.005084417,-0.008020863,0.008269277,-0.0033529669,-0.0028393653,-0.0016213728,-0.0012480069,-0.009200854,-0.001780607,-0.0013455385,0.008641362,-0.008000464,-0.004719487,-0.0018882216,0.002861803,-0.0060083764,-0.0055653933,-0.00796034,0.0055286903,-0.008731978,-0.0032825978,0.00031090924,0.0014708093,-0.009935742,0.008656846,-0.002069535,0.00035960518,-0.00876087,-0.008166553,0.0037900945,0.004008318,0.002969066,0.00586844,-0.006951461,-0.001245996,-0.002725557,-0.0013761545,0.0044991244,0.0013802365,-0.0074542225,0.003256285,0.006286024,-0.006089285,0.0032232837,-0.0042971917,0.00882711,0.0041393978,0.0020527414,-0.0010081354,-0.009101383,0.008600251,-0.0018230383,0.007365842,0.0037835639,-0.008236787,-0.00062793144,0.0027211872,-0.0025699825,0.009744419,-0.0049854172,-0.007168726,0.0037992646,-0.0035430775,-0.0069150776,0.0020509784,0.0052727703,-0.005471188,-0.0043890793,-0.0071946555,0.0015546876,-0.004751236,0.008455541,0.00072292285,0.0018592746,-0.0033551927,0.0074068187,-0.000681905,-0.008211855,-0.00734825,0.00021524532,0.007755244,0.003110254,-0.0052881027,-0.006757891,-0.009832314,0.0039247,-0.009508783,0.0031779145,0.0016596753,-0.0008484294,-0.00995403,0.0058740866
만가닥버섯,-0.000102208345,-0.009900655,-0.0075724623,0.0085855955,0.0019439927,-0.00824369,-0.00078709325,0.005517646,-0.00944989,-0.0068717874,-0.0010556442,-0.009798829,0.00043802024,0.0020078658,0.008498712,0.00091136084,0.0013164948,0.004922979,-0.0043608434,0.007151295,0.00017653359,-0.00063143816,-0.009719252,0.0005333246,0.0067962916,0.0017435387,-0.008118402,-0.0033807291,-0.0061005857,0.006022775,-0.0065344693,0.005289955,-0.005185579,-0.0069017434,-0.0075844014,0.003911525,-0.00883045,-0.005724055,-0.0071190055,-0.004387212,-0.00399687,0.0014560347,0.0064618057,-0.0011826504,-0.005406456,0.0015219697,0.00569236,-0.0053026862,-0.005304459,0.0051539172,0.0062547363,-0.007813629,0.008261794,-0.0098479595,-0.007431178,-0.0058797686,0.0017883211,-1.6347636e-05,0.0033866588,0.0070659136,0.0048278216,-0.0032002334,-0.00644213,-0.008327431,-0.00054842356,0.0097790705,-0.007654579,0.0037196968,0.0042928685,-0.0042378646,-0.006950339,-0.0054313475,-0.005011684,-0.007028465,0.005965227,-0.007712121,-0.0029807878,0.004362043,0.00014128843,-0.007698491,-0.004691103,0.0035289982,0.0024365492,-0.0019236611,-0.00081268634,0.0025943234,0.0014285587,-0.002610779,0.0053423173,-0.0076354924,0.0064545213,-0.010004893,-0.0022428099,0.006745092,-0.003532565,0.006550192,0.0054577817,-0.00747861,-0.00020382818,-0.004486248
스파게티,-0.008065769,-0.0008870884,0.0063708904,0.008741944,-0.0050491584,-0.002677162,-0.006028424,0.0011852857,0.0026456467,-0.009841957,0.0024125164,-0.008828013,0.00038073323,0.004778238,-0.0052658203,0.0002534429,-0.0021792804,-0.00868555,-0.0024058365,0.0044297683,-0.008571981,-0.005930939,-0.00054416026,0.008052656,0.0013953892,0.009776307,-0.0076728025,0.0089670215,-0.004742121,-0.0063447217,-0.00784339,0.0018543166,-0.0027372534,0.007538461,-0.0005165364,0.0025245785,0.005954267,-0.008658688,-0.002061754,-0.0048001693,-0.008656921,0.0034048671,0.0024235554,-0.0023957177,-0.0018935944,-0.0067419875,-0.0032650854,0.0013077705,0.0077596153,0.0070732646,-0.0036009918,0.0036083038,-0.0025639867,-0.0047202674,-0.0036254278,-0.0061382325,0.003502252,-0.007794484,-0.007530013,-0.004504587,0.007407193,0.0018276843,0.005466302,0.00820668,-0.0062421835,-0.004618402,0.0076955836,0.0049576317,0.004652926,0.008989317,0.008822448,-0.002678168,0.0010482206,0.005493665,0.008895956,0.009862564,-0.008268745,-0.0051193805,0.0049921796,0.0009565969,0.0001794213,0.007507348,0.006398242,-0.0072324798,-0.002598279,-0.008480449,0.007063385,0.0027796836,-0.0022238442,0.0018940863,0.007675547,0.0081414655,0.006178628,0.0031693745,0.0015644195,0.008144776,0.0013306446,0.00042554093,-0.009542431,0.0025241645
시금치,-0.008459272,0.0064991983,-0.005797943,-0.0017160232,0.0009913408,-0.001892981,-0.00907932,0.0040115057,-0.0066265254,-0.008764272,0.0039026083,-0.00079499336,0.0065191984,-0.006997082,0.000788106,-0.0007050444,0.0057505197,-0.009713359,0.005917596,-0.009017001,-0.0077567697,0.00074632757,-0.0026562505,-0.003876285,-0.005322149,0.004101556,-0.009308373,0.0011657731,0.0041887946,-0.00029629414,-0.0005125864,0.0071909335,-0.009549646,-0.009030796,0.0044470876,0.008768002,-0.007824621,-0.0083354665,-0.00063896837,-0.009063541,0.0021488175,0.009203509,-0.0061066477,-0.006755064,0.008918306,-0.00079194433,-0.0037522414,-0.0027102747,-0.008759595,-0.0046646493,-0.0041741068,0.00022186794,0.0007207412,0.0076246,0.0068160337,-0.0015181858,-0.01000369,0.00256144,-0.006151761,0.0091276625,0.0038332357,-0.0009985557,0.0066135637,-0.0035264413,-0.0037287318,-0.00034124,0.008432956,0.0059988033,0.0015037251,0.0038022255,-0.002978258,0.009253856,-0.0071368357,-0.0032454685,-0.005302999,0.00874862,-0.003134698,-0.0023919765,0.0071600205,-0.009712868,-0.0029063146,0.002859481,-0.00633315,0.008776881,0.0011222955,-0.005219822,0.004965305,0.008000779,0.0009558278,0.006835448,-0.0067953416,-0.0036300973,0.009930345,0.0057048094,0.001623226,-0.0034888673,0.004424896,0.0024940753,0.008399184,-1.26668665e-05
파마산 치즈,0.008579009,-0.005845596,-0.007635179,-0.0014110679,0.0029632938,-0.002000103,0.0059252754,-0.00831058,-0.009103869,0.0075841737,0.0063131824,-0.004147912,-0.004052873,-0.0035013226,-9.953396e-05,0.009032157,0.0009757714,-0.0019949588,-0.0034341393,-0.0021915534,-0.009212113,0.00682033,-0.009060102,-0.0030994725,-0.007109255,0.009087382,0.0058233263,-0.0005676181,0.0038703023,-0.0024467623,0.009769843,-0.003624837,0.0049212193,-0.0038758547,0.009544353,0.0095651895,0.0062307715,-0.00023729385,-0.001713295,-0.008744126,0.009406773,-0.008467079,-0.006554919,0.00558099,-0.0021869105,0.007935995,-0.007852519,0.009194685,0.0022938957,-0.008607708,0.0039173714,-0.004977167,0.0064257663,0.006578326,-0.008799337,0.0064894413,0.005254633,0.006393013,-0.007136983,-0.006535873,-0.00883661,0.0052710054,-0.003999406,0.004748576,0.0047394508,0.0081420345,0.0022706261,-0.0010329766,0.0014023768,0.003022479,-0.008773628,-0.005959962,-0.0009452061,0.004873228,-9.508176e-05,-0.009634021,-0.0006477043,0.007143223,0.006315671,0.003492937,-0.0045898324,-0.0037405288,-0.0021437607,-0.005950338,-0.008662879,-0.0005683373,0.001834052,0.0049032876,0.003617871,0.008598208,-0.006693669,0.009287059,-0.0033620535,0.0008279985,-0.004208598,-0.004034002,-0.0014823361,-0.0075865095,0.008999173,0.004539468
노란 파프리카,-0.0022913856,0.0019705975,0.007819809,-0.0055741286,0.0038092565,0.0006630153,0.002955514,-0.0020556701,-0.009984584,0.0058770413,-0.0014309937,-0.008370389,0.00067565223,-0.006154099,0.0076718703,-0.006402109,-0.0016573612,-0.00038975614,-0.004334027,-0.0035403229,0.007381668,0.0019224097,-0.009414297,-0.00029677295,-0.009520385,-0.003175312,0.0049087224,0.0036674582,-0.0058047837,0.0014253787,0.005783481,-0.007472332,-0.003332439,-0.0024952376,-0.008915121,0.002178298,0.006486065,0.0024534608,0.0023282561,-0.0008885207,-0.000776514,-0.006281389,-0.0004796885,0.0065923445,0.003071076,0.00050587335,0.007826752,0.002784113,-0.0073852576,0.007327088,0.009568458,-0.009096929,0.0072569936,-0.0076168394,-0.00037966398,0.0046388535,-0.005761011,-0.008045078,-0.0073597482,-0.009900751,-0.0066699414,0.009605001,0.0029418606,-0.009145121,0.008421185,0.007246734,0.007855895,0.009689762,-0.008757597,-0.0021404144,0.0021173605,0.0024635973,0.0048493627,-0.0077203345,0.0048577646,0.009990819,-0.009015365,0.007879096,0.003171406,-0.0041591576,-0.001561527,-0.008615042,-0.007555036,0.0056138774,-0.0031700293,0.010042182,-0.0080617955,-0.0070329383,0.0061631994,0.007920567,0.00376355,0.007261724,0.0064766407,-0.0057486356,0.008811863,-0.0063187582,-0.0028785274,-0.006060409,0.006082006,-0.004370515
쫄면,0.0030881735,-0.001543933,-0.0011728383,-0.0058679385,-0.0057586394,-0.003607651,0.00032293392,0.0015348131,-0.0033190306,0.0019272055,-0.005693727,0.0099757165,-0.00082840485,-0.006946459,-0.0018741316,0.007935274,-0.0011069125,-0.0051526534,-0.008091303,-0.0059445766,-0.0031881463,0.0077422983,-0.00724942,0.0014292549,-5.5941447e-05,0.0039216075,-0.007949671,0.007937442,-0.002830507,0.005305837,-0.009517133,0.0051215165,-0.008215686,-0.0032692098,-0.0012104035,-0.003617897,-0.0007212898,3.8648584e-05,0.0044862884,-0.002263526,-0.0039894655,-0.0061770245,0.008314387,0.0045943703,0.009152851,0.0054476857,-0.0046076723,0.008280758,-0.006929485,0.0030634808,-0.003358523,0.0002480391,0.0037951244,-0.002820385,-0.0044283,-0.0019084045,0.00052492943,0.0064380327,-0.0058706044,0.0046772417,-0.0036951327,-0.007968964,-0.005592024,0.0018266132,0.008762426,0.007873697,0.009174509,0.006915923,-0.002988134,-0.0024015007,0.008843738,0.006487586,0.006013699,0.0068866736,0.0016284375,0.0023999854,-0.008216035,0.0075145387,0.009450214,-0.0070542884,0.0011586839,0.0087381145,0.003637397,0.006979724,0.007597302,-0.0019103504,0.008845336,0.006039394,-0.0018546743,9.588257e-05,0.009753863,0.0058358097,-0.0066866423,-0.0035044316,-0.0034588207,0.0031639158,0.0011186219,-0.008631722,0.002184692,0.009656279
냉동참치,0.0023741017,0.0042658113,0.0019424682,0.008105652,0.008889472,0.0031769844,-0.0024532038,0.0036344368,-0.007681685,0.008032771,-0.004000632,0.009941034,-0.009577508,-0.0025571976,0.008879241,-0.004081452,-0.0019502477,0.005013531,0.009318871,-0.00036240715,-0.0068103117,0.009998849,-0.0095140785,0.0012741177,0.0055679865,-0.0078205615,-0.0056307726,-0.009131942,-8.446438e-05,0.005018434,-0.008224431,-0.0030889998,0.008388793,-0.0044564237,0.0031729515,0.0035180263,-0.0035757343,-0.005186614,0.008338227,-0.0025245494,0.00894838,-0.0024288793,0.0030582936,0.0056016454,0.00055411935,0.004427819,-0.005962792,0.008419619,-0.0016492264,-0.0044165393,0.005111212,0.009931747,-0.005686576,0.0008486376,0.0043487027,-0.002747835,0.0006503113,0.008838676,0.007707526,-0.006466218,-0.003207531,0.009221496,-0.00032214768,-0.009536554,-0.00070581347,-0.006785357,0.0009218675,0.0008068766,-0.0043743835,-0.004603952,0.008781579,0.004583272,0.002577277,0.0018378692,0.008238494,-0.0050161206,0.006113393,-0.00096986385,-0.007641301,-0.00969302,-0.0016493804,0.008107778,0.0022121877,-0.008998479,0.0012294813,-0.0036347916,-0.0040447023,0.008132818,0.0058274143,0.0003539289,0.002448037,0.0009024911,-0.009918438,0.0030211548,0.0071873586,0.00398593,0.002470255,-0.0035422214,0.0023128097,-0.0076451045
들기름,0.004196904,0.0023807592,-0.00042057148,-0.0005907317,0.0026498567,0.002204122,0.0014734927,0.009173711,0.0035541086,0.0014158012,-0.0029459526,-0.006057076,-0.009334083,-0.003231354,0.004347566,0.0075773094,0.0006308706,-0.004792115,0.0035736554,-0.0039165644,-0.00077424245,0.008883992,0.008158958,-0.00041257427,-0.005923787,0.0037009038,0.009821577,0.008672917,-0.0019165181,0.007159859,0.009275095,-0.009567588,0.008918955,2.6589987e-05,-0.0052028755,0.0036905273,0.008978772,-0.007231772,0.0068777897,-0.0064443764,-0.0077914726,0.0054878714,-0.004603155,0.0047738324,0.0073855915,0.009658043,0.0057337573,-0.008894932,0.003253447,-0.00898529,-0.00034268305,0.009783431,-0.005100117,0.004109571,-0.0057406174,-0.00802515,0.008036296,0.0032613226,0.007372791,0.00295684,0.0011684396,0.0037154802,-0.008425129,0.0065851863,-0.004493482,0.004618043,-0.005456337,0.0010600284,0.0040173274,-0.0024727453,-0.007525703,-0.0060704127,-0.009952296,0.009683256,-0.00441039,-0.0010614474,-0.0090545565,-0.0045675887,-0.0048818393,0.0030275653,0.005651939,0.0034856903,0.009842247,0.0018733508,0.009864433,0.007570061,0.0027637898,0.0021520732,-0.007491158,-0.0023530594,0.005684757,-0.008139546,0.0022978715,-0.007548618,0.009673631,-0.000106797255,0.000930683,-0.0047777086,0.006135507,-0.0071307668
새송이버섯,-0.007429938,0.0066370447,-0.0033886377,-0.0008913143,0.005383484,0.00456376,0.0061928276,0.007096956,0.005590482,-0.008926081,0.0051187524,0.009113839,-0.0040254486,0.0011263554,-0.0032973604,-0.0034087286,0.008712622,-0.00026059613,0.0033893152,-0.005592886,0.005784947,-0.0033377386,-0.005003381,0.0021947594,0.009715663,-0.00613084,0.0035560082,-0.001009519,-0.0072107636,-0.0043216157,-0.008246362,0.0056102676,-0.002724736,-0.005243783,0.0009928767,0.0046305517,0.009508282,-0.009748794,-0.00027279925,-0.0012812285,-0.0026892598,-0.000539259,0.008132641,-0.0018871779,0.009387503,0.00036710294,-0.0010828001,0.006876232,0.0069659445,0.0004833386,-0.00030808296,0.006355695,-0.0038397415,0.004574084,-8.074923e-05,-0.0060302666,0.0064391564,-0.0040745893,0.0021705963,-0.0068285796,0.002691776,0.005579725,0.0051428303,-0.008098703,-0.0059577674,0.0071288375,0.0031008262,0.001124215,-0.0062110266,-0.001344346,-0.009213547,0.0012461826,-0.0045825513,0.00074948365,0.0045108604,0.002385017,-0.0071066394,0.0008514195,-0.006739177,-0.003850559,0.0019063631,0.007949336,-0.0065707085,0.0023316198,0.008117474,0.009924149,0.0061764005,-0.0073849102,0.0038823348,0.008862125,0.0042037233,0.002499429,-0.0015843853,0.0036100864,0.0041727363,0.008868526,-0.003831784,-0.008766194,0.006510199,-0.00620895
파스타면,-0.000614926,0.0014253465,-0.0012075325,-0.004056299,0.0008726258,-0.009685187,0.0013957152,-0.0041531716,-0.00582856,0.0038056646,0.001451672,0.0036193233,0.00092448154,-0.009502576,0.009964655,-0.0035392586,-0.002191549,0.0071464586,8.892487e-05,0.003009886,0.0022796136,0.0023882936,0.0067888014,0.00950526,-0.0005831516,-0.0034110004,0.0045888266,-0.008343921,0.008468139,0.0023930855,0.005995688,0.0028110698,-0.0013100874,0.00094367395,-0.0048050336,0.009079168,0.0050369743,0.0036082307,-0.0050305887,-0.008667964,0.007951269,0.0029552027,-0.004254761,-0.008675579,-0.003924581,0.0014224827,-0.00917902,4.2866224e-05,0.002805334,-0.009947113,-0.00014273176,-0.0060810596,-0.0036087397,-0.0016581829,-0.009985994,-0.0036038621,-0.0070289383,-0.0073751328,0.0015518182,0.0023518077,0.009276075,0.008884586,-0.0064295745,-0.009222653,0.007874781,0.005445983,0.0069171693,-0.002928835,-0.005254012,-0.004547801,-0.008323473,0.0059106536,-0.0034505816,0.008663444,-0.005661182,0.009640522,-0.004516197,0.00867499,-0.0054175085,-0.007512053,0.0076501938,-0.009790971,-0.008822713,0.00494745,-0.009759093,0.005281616,0.0036748685,-0.0070095425,0.0031868105,0.0014592464,0.008667171,0.002894477,-0.005128483,-0.00234282,0.0068509895,-0.00662449,0.0093301935,-0.0032444901,-0.00464997,-0.004369584
생크림,0.0030800332,-0.009860801,0.0032235556,-0.0044857915,0.009695599,-0.005037389,-0.008008868,0.003534594,0.0089605795,0.0027516691,-0.0022853774,0.0035118316,-0.008932734,-0.004128497,-0.004401422,0.0018766681,-0.006298968,-0.007591681,-0.0065308884,0.0052727577,0.0027525679,0.008788097,0.0023182514,0.005296411,0.0043442985,0.004631329,-0.0049514235,0.0014153254,0.00028064873,0.005262963,-0.0065935645,-0.0007160381,0.004026637,-0.0048773056,-0.008499958,0.005579359,-0.00085454213,0.00034654062,-0.0060923127,0.008487153,0.0009034276,0.0017165842,-0.00040904884,0.00069143914,0.005806706,-0.009241192,0.0023498829,-0.0055740983,0.009458736,0.0043697725,-0.005489028,-0.001218917,-0.005548286,0.008528033,0.009067213,0.0023049815,0.009646245,-0.0047426894,0.0027811732,-0.0050866497,-0.00876996,-0.0041571623,-0.0013918409,-0.0056576515,-0.00456482,0.0006571776,-0.00011107144,-0.008298301,0.006905195,0.0015873094,-0.0095028225,-0.0013994434,-0.0076062796,0.0075718802,-0.0010346972,0.007818641,0.00502031,-0.0040562465,-0.009068822,-0.0061838697,0.00888114,-0.001577482,-0.00031217185,0.00013427065,-0.008246377,0.0042002476,-0.0081971,0.009436013,-0.008137372,0.00791551,-0.0019622,-0.0020663242,-0.00229913,0.0009805737,0.0024695944,0.0016318731,-0.00055442314,0.007571033,-0.006440154,-0.007878099
명란젓,-0.0071827793,0.0063249655,-0.0019815562,-0.0047425767,0.004951127,-0.007865687,0.0029111742,0.009615832,0.00692829,-0.0030551478,0.0023990534,0.004950805,0.009598895,-0.002727913,0.0013334577,-0.0041967216,-0.0031512445,0.0008581494,0.0021989068,-0.005342856,0.0042454926,-0.0051083057,-0.0045928867,-0.008980671,0.0076510394,0.0042978334,-0.0022046322,0.008423721,0.0019701165,-0.009892305,-0.0077590067,-0.004246104,-0.0072832205,0.0073902826,0.0050592045,0.0020338634,-0.0006382526,-0.00742824,0.0061165607,-0.005205687,-0.0026938114,-0.0058625615,-0.002173375,-0.009315264,0.0032909354,-0.007420187,0.0067555867,-0.007465472,-0.00588301,8.179831e-05,-0.00797006,0.0053639906,-0.0042429725,0.00038518003,0.0078051873,0.003125628,-0.00019189162,0.007671777,-0.00015840745,0.00561197,0.0059904396,-0.008000081,0.0019275397,-0.009449015,-0.0013856041,0.008612348,-0.0024612227,-0.0047758333,0.0027756486,0.007275409,0.0065678526,-0.0065140612,0.0070274477,0.0075792116,-0.0053641046,-0.0011878796,-0.0006039837,-0.009423606,-0.002382619,0.009782015,-0.0025992484,-0.0076685874,-0.004280617,-0.009526514,0.0019954047,0.0060338015,0.00074560853,-0.0034776863,0.009474634,-0.009366004,-0.0045416118,-0.009763671,0.00957666,-0.0018545163,-0.005343231,-0.007897393,0.008219762,-0.0029680124,-0.005805512,0.0037264782
